1 1 100 1 1
1 2 100 1 1
1 3 100 1 1
1 4 100 1 1
1 5 100 1 1
1 6 100 1 1
1 7 100 1 1
1 0 100 2 0.168921
2 0 100 2 0.831079
1 1 100 2 0.747251
2 1 100 2 0.252749
1 2 100 2 0.213584
2 2 100 2 0.786416
1 3 100 2 1.59826e-05
2 3 100 2 0.999984
1 4 100 2 0.348357
2 4 100 2 0.651643
1 5 100 2 0.360002
2 5 100 2 0.639998
1 6 100 2 0.499998
2 6 100 2 0.500002
1 7 100 2 0.499999
2 7 100 2 0.500001
1 0 100 3 0.000123173
2 0 100 3 0.999876
3 0 100 3 1.01596e-06
1 1 100 3 0.749466
2 1 100 3 0.237761
3 1 100 3 0.0127737
1 2 100 3 0.309926
2 2 100 3 0.540083
3 2 100 3 0.149991
1 3 100 3 0.0730464
2 3 100 3 0.280197
3 3 100 3 0.646756
1 4 100 3 0.177
2 4 100 3 0.104274
3 4 100 3 0.718726
1 5 100 3 0.129949
2 5 100 3 0.184088
3 5 100 3 0.685963
1 6 100 3 0.398073
2 6 100 3 0.203854
3 6 100 3 0.398074
2 7 100 3 0.00893381
3 7 100 3 0.991066
1 8 100 3 0.998295
2 8 100 3 0.0017046
1 9 100 3 0.0530639
2 9 100 3 0.470833
3 9 100 3 0.476103
1 10 100 3 0.484696
2 10 100 3 0.0306062
3 10 100 3 0.484698
1 0 100 4 0.00220936
2 0 100 4 0.245758
3 0 100 4 0.752026
4 0 100 4 6.78164e-06
1 1 100 4 0.896625
2 1 100 4 0.0602182
3 1 100 4 0.024414
4 1 100 4 0.0187423
1 2 100 4 0.0683552
2 2 100 4 0.792081
3 2 100 4 0.123256
4 2 100 4 0.0163074
1 3 100 4 0.0400094
2 3 100 4 0.218758
3 3 100 4 0.561008
4 3 100 4 0.180224
1 4 100 4 0.0419731
2 4 100 4 0.104527
3 4 100 4 0.22281
4 4 100 4 0.63069
1 5 100 4 0.143941
2 5 100 4 0.205812
3 5 100 4 0.199115
4 5 100 4 0.451131
1 6 100 4 0.0533868
2 6 100 4 0.108835
3 6 100 4 0.170101
4 6 100 4 0.667677
1 7 100 4 0.208915
2 7 100 4 0.203565
3 7 100 4 0.205044
4 7 100 4 0.382475
1 8 100 4 0.0475261
2 8 100 4 0.483658
3 8 100 4 0.135259
4 8 100 4 0.333557
2 9 100 4 0.0735614
3 9 100 4 0.926439
1 10 100 4 2.17119e-05
2 10 100 4 0.000238408
3 10 100 4 0.394432
4 10 100 4 0.605308
3 11 100 4 1
1 0 100 5 0.000112676
2 0 100 5 0.19104
3 0 100 5 0.369946
4 0 100 5 0.438898
5 0 100 5 2.54419e-06
1 1 100 5 0.923502
2 1 100 5 0.0338468
3 1 100 5 0.0277821
4 1 100 5 0.0148696
1 2 100 5 0.0455689
2 2 100 5 0.795901
3 2 100 5 0.0929455
4 2 100 5 0.0497079
5 2 100 5 0.0158766
1 3 100 5 0.0329731
2 3 100 5 0.200344
3 3 100 5 0.636604
4 3 100 5 0.087175
5 3 100 5 0.0429033
1 4 100 5 0.0422274
2 4 100 5 0.0885163
3 4 100 5 0.166707
4 4 100 5 0.45031
5 4 100 5 0.25224
1 5 100 5 0.0440088
2 5 100 5 0.0999634
3 5 100 5 0.145068
4 5 100 5 0.214133
5 5 100 5 0.496827
1 6 100 5 0.0776585
2 6 100 5 0.108807
3 6 100 5 0.183213
4 6 100 5 0.249515
5 6 100 5 0.380807
1 7 100 5 0.160164
2 7 100 5 0.129149
3 7 100 5 0.149724
4 7 100 5 0.249439
5 7 100 5 0.311524
1 8 100 5 0.0629423
2 8 100 5 0.179187
3 8 100 5 0.10803
4 8 100 5 0.23169
5 8 100 5 0.41815
1 9 100 5 0.108926
2 9 100 5 0.0804576
3 9 100 5 0.132024
4 9 100 5 0.184199
5 9 100 5 0.494394
1 10 100 5 0.00735219
2 10 100 5 0.00018156
3 10 100 5 1.06525e-06
4 10 100 5 0.0176412
5 10 100 5 0.974824
1 11 100 5 0.179607
2 11 100 5 0.1796
3 11 100 5 0.181
4 11 100 5 0.280047
5 11 100 5 0.179746
2 12 100 5 1
2 13 100 5 1
1 14 100 5 0.00162437
2 14 100 5 0.00722392
3 14 100 5 0.330382
4 14 100 5 0.330386
5 14 100 5 0.330384
1 16 100 5 0.999974
5 16 100 5 2.61773e-05
1 0 100 6 0.00637411
2 0 100 6 0.181973
3 0 100 6 0.181645
4 0 100 6 0.2992
5 0 100 6 0.330784
6 0 100 6 2.36213e-05
1 1 100 6 0.868327
2 1 100 6 0.0681468
3 1 100 6 0.0386025
4 1 100 6 0.0141625
5 1 100 6 0.00700664
6 1 100 6 0.00375469
1 2 100 6 0.0561636
2 2 100 6 0.597242
3 2 100 6 0.178432
4 2 100 6 0.1256
5 2 100 6 0.0273698
6 2 100 6 0.0151927
1 3 100 6 0.0336406
2 3 100 6 0.138063
3 3 100 6 0.479273
4 3 100 6 0.173917
5 3 100 6 0.113672
6 3 100 6 0.0614348
1 4 100 6 0.0306909
2 4 100 6 0.0622898
3 4 100 6 0.177381
4 4 100 6 0.301573
5 4 100 6 0.27135
6 4 100 6 0.156714
1 5 100 6 0.0284657
2 5 100 6 0.0709331
3 5 100 6 0.12461
4 5 100 6 0.175343
5 5 100 6 0.276109
6 5 100 6 0.32454
1 6 100 6 0.0483484
2 6 100 6 0.0637447
3 6 100 6 0.152263
4 6 100 6 0.142434
5 6 100 6 0.207621
6 6 100 6 0.385589
1 7 100 6 0.0926875
2 7 100 6 0.0882985
3 7 100 6 0.0942777
4 7 100 6 0.176892
5 7 100 6 0.174117
6 7 100 6 0.373727
1 8 100 6 0.0951889
2 8 100 6 0.12335
3 8 100 6 0.106326
4 8 100 6 0.189654
5 8 100 6 0.185079
6 8 100 6 0.300403
1 9 100 6 0.0896197
2 9 100 6 0.147116
3 9 100 6 0.13641
4 9 100 6 0.100414
5 9 100 6 0.147753
6 9 100 6 0.378686
1 10 100 6 0.154517
2 10 100 6 0.38428
3 10 100 6 0.143302
4 10 100 6 0.109555
5 10 100 6 0.0175917
6 10 100 6 0.190754
1 11 100 6 0.10112
2 11 100 6 0.255717
3 11 100 6 0.171436
4 11 100 6 0.172159
5 11 100 6 0.0433679
6 11 100 6 0.2562
1 12 100 6 0.253692
2 12 100 6 0.00535171
3 12 100 6 0.233222
4 12 100 6 0.253961
5 12 100 6 8.06889e-05
6 12 100 6 0.253693
1 13 100 6 0.162814
2 13 100 6 0.332334
3 13 100 6 0.168788
4 13 100 6 7.48669e-05
5 13 100 6 0.168034
6 13 100 6 0.167956
1 0 100 7 0.000367538
2 0 100 7 0.108938
3 0 100 7 0.171898
4 0 100 7 0.164224
5 0 100 7 0.270313
6 0 100 7 0.284256
7 0 100 7 3.88519e-06
1 1 100 7 0.854389
2 1 100 7 0.0523668
3 1 100 7 0.0386884
4 1 100 7 0.0210349
5 1 100 7 0.00864584
6 1 100 7 0.0158794
7 1 100 7 0.00899606
1 2 100 7 0.034036
2 2 100 7 0.682828
3 2 100 7 0.166884
4 2 100 7 0.0570213
5 2 100 7 0.0384254
6 2 100 7 0.0127631
7 2 100 7 0.00804181
1 3 100 7 0.0496981
2 3 100 7 0.203545
3 3 100 7 0.45037
4 3 100 7 0.170111
5 3 100 7 0.1036
6 3 100 7 0.0226566
7 3 100 7 1.89768e-05
1 4 100 7 0.0169836
2 4 100 7 0.0672094
3 4 100 7 0.169205
4 4 100 7 0.35639
5 4 100 7 0.166222
6 4 100 7 0.126113
7 4 100 7 0.0978776
1 5 100 7 0.0332728
2 5 100 7 0.0693737
3 5 100 7 0.0958723
4 5 100 7 0.138092
5 5 100 7 0.225047
6 5 100 7 0.22658
7 5 100 7 0.211762
1 6 100 7 0.0232492
2 6 100 7 0.067817
3 6 100 7 0.0989819
4 6 100 7 0.165
5 6 100 7 0.206801
6 6 100 7 0.195804
7 6 100 7 0.242347
1 7 100 7 0.026361
2 7 100 7 0.0493869
3 7 100 7 0.135081
4 7 100 7 0.154025
5 7 100 7 0.116951
6 7 100 7 0.182565
7 7 100 7 0.33563
1 8 100 7 0.0668206
2 8 100 7 0.0895336
3 8 100 7 0.0922465
4 8 100 7 0.113364
5 8 100 7 0.112221
6 8 100 7 0.182049
7 8 100 7 0.343765
1 9 100 7 0.10221
2 9 100 7 0.0553707
3 9 100 7 0.0704439
4 9 100 7 0.0806128
5 9 100 7 0.208308
6 9 100 7 0.176856
7 9 100 7 0.306199
1 10 100 7 0.0401367
2 10 100 7 0.043129
3 10 100 7 0.103526
4 10 100 7 0.167645
5 10 100 7 0.11225
6 10 100 7 0.166982
7 10 100 7 0.366331
1 11 100 7 0.00044539
2 11 100 7 0.00196242
3 11 100 7 0.000114758
4 11 100 7 0.00242259
5 11 100 7 0.0142966
6 11 100 7 0.527074
7 11 100 7 0.453685
1 12 100 7 0.0150881
2 12 100 7 0.0407053
3 12 100 7 0.204713
4 12 100 7 0.101605
5 12 100 7 0.136756
6 12 100 7 0.0908892
7 12 100 7 0.410244
1 13 100 7 0.000351923
5 13 100 7 0.00167072
6 13 100 7 0.0123678
7 13 100 7 0.98561
1 0 100 8 4.23123e-05
2 0 100 8 0.0969748
3 0 100 8 0.159577
4 0 100 8 0.1654
5 0 100 8 0.164223
6 0 100 8 0.244607
7 0 100 8 0.169173
8 0 100 8 2.57081e-06
1 1 100 8 0.86102
2 1 100 8 0.0683223
3 1 100 8 0.0300141
4 1 100 8 0.011755
5 1 100 8 0.0131249
6 1 100 8 0.00771559
7 1 100 8 0.00757772
8 1 100 8 0.000470563
1 2 100 8 0.0290011
2 2 100 8 0.641555
3 2 100 8 0.155627
4 2 100 8 0.0723047
5 2 100 8 0.0412564
6 2 100 8 0.0267355
7 2 100 8 0.0206782
8 2 100 8 0.0128427
1 3 100 8 0.0351787
2 3 100 8 0.125239
3 3 100 8 0.415932
4 3 100 8 0.217193
5 3 100 8 0.122891
6 3 100 8 0.0288213
7 3 100 8 0.0342215
8 3 100 8 0.0205233
1 4 100 8 0.0190438
2 4 100 8 0.0735345
3 4 100 8 0.153487
4 4 100 8 0.28258
5 4 100 8 0.219948
6 4 100 8 0.12889
7 4 100 8 0.0695065
8 4 100 8 0.0530102
1 5 100 8 0.0171029
2 5 100 8 0.072157
3 5 100 8 0.100676
4 5 100 8 0.152922
5 5 100 8 0.22817
6 5 100 8 0.160277
7 5 100 8 0.165481
8 5 100 8 0.103214
1 6 100 8 0.029458
2 6 100 8 0.0508704
3 6 100 8 0.0726659
4 6 100 8 0.107735
5 6 100 8 0.115221
6 6 100 8 0.208021
7 6 100 8 0.208316
8 6 100 8 0.207713
1 7 100 8 0.0295071
2 7 100 8 0.0555519
3 7 100 8 0.0794034
4 7 100 8 0.0986584
5 7 100 8 0.138579
6 7 100 8 0.13171
7 7 100 8 0.210115
8 7 100 8 0.256476
1 8 100 8 0.0356062
2 8 100 8 0.0530189
3 8 100 8 0.0849233
4 8 100 8 0.0939906
5 8 100 8 0.13145
6 8 100 8 0.154492
7 8 100 8 0.137299
8 8 100 8 0.30922
1 9 100 8 0.0582225
2 9 100 8 0.0732516
3 9 100 8 0.102874
4 9 100 8 0.0873693
5 9 100 8 0.103221
6 9 100 8 0.106341
7 9 100 8 0.191433
8 9 100 8 0.277288
1 10 100 8 0.0575882
2 10 100 8 0.0833107
3 10 100 8 0.0792191
4 10 100 8 0.124965
5 10 100 8 0.120527
6 10 100 8 0.10399
7 10 100 8 0.138774
8 10 100 8 0.291626
1 11 100 8 0.0187937
2 11 100 8 0.113991
3 11 100 8 0.0956778
4 11 100 8 0.143282
5 11 100 8 0.0629706
6 11 100 8 0.110027
7 11 100 8 0.181118
8 11 100 8 0.27414
1 12 100 8 0.0408527
2 12 100 8 0.0414046
3 12 100 8 0.105728
4 12 100 8 0.0798107
5 12 100 8 0.131958
6 12 100 8 0.0821002
7 12 100 8 0.272756
8 12 100 8 0.24539
1 13 100 8 0.120219
2 13 100 8 0.017649
3 13 100 8 0.000311853
4 13 100 8 0.241222
5 13 100 8 0.0740104
6 13 100 8 0.120816
7 13 100 8 0.125307
8 13 100 8 0.300465
1 14 100 8 0.135321
2 14 100 8 0.170092
3 14 100 8 0.000161761
4 14 100 8 4.46127e-05
5 14 100 8 0.218695
6 14 100 8 0.170115
7 14 100 8 0.0817117
8 14 100 8 0.22386
1 15 100 8 0.0092651
3 15 100 8 0.915417
4 15 100 8 0.000172389
5 15 100 8 1.23127e-06
6 15 100 8 0.0210777
7 15 100 8 0.000886833
8 15 100 8 0.0531796
1 16 100 8 0.152692
2 16 100 8 0.0124153
3 16 100 8 0.0149242
4 16 100 8 0.0892811
5 16 100 8 0.0810138
6 16 100 8 0.145713
7 16 100 8 0.215594
8 16 100 8 0.288367
1 17 100 8 0.0314831
2 17 100 8 0.132445
3 17 100 8 0.132441
4 17 100 8 0.238725
5 17 100 8 0.175773
6 17 100 8 0.120044
7 17 100 8 0.0150929
8 17 100 8 0.153997
3 18 100 8 0.000154417
5 18 100 8 0.000164564
6 18 100 8 0.999681
6 19 100 8 0.000346571
7 19 100 8 0.977386
8 19 100 8 0.0222675
2 20 100 8 2.89011e-06
6 20 100 8 4.16675e-05
7 20 100 8 0.000516006
8 20 100 8 0.999439
1 21 100 8 3.26229e-05
2 21 100 8 2.3673e-05
3 21 100 8 0.658919
4 21 100 8 0.122978
5 21 100 8 0.207353
6 21 100 8 3.03651e-06
8 21 100 8 0.0106901
2 22 100 8 0.999806
5 22 100 8 0.000149711
7 22 100 8 4.4497e-05
2 23 100 8 0.00402785
3 23 100 8 0.980615
5 23 100 8 0.0153575
2 24 100 8 4.02185e-06
4 24 100 8 0.999802
5 24 100 8 0.000193913
2 25 100 8 9.95892e-06
5 25 100 8 0.720383
7 25 100 8 0.279607
5 26 100 8 4.25358e-05
6 26 100 8 0.987384
7 26 100 8 0.0125729
1 27 100 8 0.39554
3 27 100 8 0.100773
4 27 100 8 0.00344287
6 27 100 8 8.89048e-06
7 27 100 8 0.0069028
8 27 100 8 0.493332
2 28 100 8 0.419811
7 28 100 8 0.580189
2 29 100 8 0.0246854
5 29 100 8 0.00356477
7 29 100 8 0.97175
2 30 100 8 0.540269
5 30 100 8 0.0193247
7 30 100 8 0.440406
2 31 100 8 0.707777
5 31 100 8 0.111949
7 31 100 8 0.180274
1 0 100 9 3.80096e-05
2 0 100 9 0.0854809
3 0 100 9 0.129913
4 0 100 9 0.151946
5 0 100 9 0.150762
6 0 100 9 0.150124
7 0 100 9 0.165928
8 0 100 9 0.165803
9 0 100 9 5.50983e-06
1 1 100 9 0.835302
2 1 100 9 0.0595846
3 1 100 9 0.0412877
4 1 100 9 0.0271902
5 1 100 9 0.0101754
6 1 100 9 0.0103723
7 1 100 9 0.0058577
8 1 100 9 0.00611677
9 1 100 9 0.00411355
1 2 100 9 0.0390108
2 2 100 9 0.676562
3 2 100 9 0.163077
4 2 100 9 0.0474726
5 2 100 9 0.0255077
6 2 100 9 0.0175526
7 2 100 9 0.0221907
8 2 100 9 0.00293885
9 2 100 9 0.00568846
1 3 100 9 0.0151331
2 3 100 9 0.103705
3 3 100 9 0.426741
4 3 100 9 0.241862
5 3 100 9 0.147854
6 3 100 9 0.0314262
7 3 100 9 0.01188
8 3 100 9 0.0156654
9 3 100 9 0.00573381
1 4 100 9 0.0248027
2 4 100 9 0.0677277
3 4 100 9 0.146424
4 4 100 9 0.225386
5 4 100 9 0.173715
6 4 100 9 0.200044
7 4 100 9 0.108477
8 4 100 9 0.0286643
9 4 100 9 0.0247596
1 5 100 9 0.0322682
2 5 100 9 0.0715161
3 5 100 9 0.0755051
4 5 100 9 0.162169
5 5 100 9 0.197407
6 5 100 9 0.15929
7 5 100 9 0.144643
8 5 100 9 0.0758745
9 5 100 9 0.0813279
1 6 100 9 0.0241256
2 6 100 9 0.0415938
3 6 100 9 0.0525558
4 6 100 9 0.0792574
5 6 100 9 0.13826
6 6 100 9 0.183489
7 6 100 9 0.161185
8 6 100 9 0.193119
9 6 100 9 0.126414
1 7 100 9 0.0201226
2 7 100 9 0.048127
3 7 100 9 0.0633034
4 7 100 9 0.0760581
5 7 100 9 0.0919784
6 7 100 9 0.115266
7 7 100 9 0.186783
8 7 100 9 0.195271
9 7 100 9 0.203091
1 8 100 9 0.0179505
2 8 100 9 0.0367526
3 8 100 9 0.0434151
4 8 100 9 0.0749751
5 8 100 9 0.0826337
6 8 100 9 0.114766
7 8 100 9 0.113874
8 8 100 9 0.193811
9 8 100 9 0.321822
1 9 100 9 0.0371218
2 9 100 9 0.0359674
3 9 100 9 0.0609263
4 9 100 9 0.0815545
5 9 100 9 0.108057
6 9 100 9 0.113691
7 9 100 9 0.123315
8 9 100 9 0.158941
9 9 100 9 0.280426
1 10 100 9 0.0425921
2 10 100 9 0.0666668
3 10 100 9 0.0637088
4 10 100 9 0.0932524
5 10 100 9 0.0840128
6 10 100 9 0.106794
7 10 100 9 0.130063
8 10 100 9 0.146223
9 10 100 9 0.266686
1 11 100 9 0.067377
2 11 100 9 0.0654552
3 11 100 9 0.0861946
4 11 100 9 0.0752438
5 11 100 9 0.113167
6 11 100 9 0.0885062
7 11 100 9 0.113323
8 11 100 9 0.0968773
9 11 100 9 0.293856
1 12 100 9 0.0496258
2 12 100 9 0.0519385
3 12 100 9 0.0694368
4 12 100 9 0.0313195
5 12 100 9 0.0842328
6 12 100 9 0.122859
7 12 100 9 0.168464
8 12 100 9 0.170924
9 12 100 9 0.2512
1 13 100 9 0.0878273
2 13 100 9 0.131623
3 13 100 9 0.0868823
4 13 100 9 0.0549293
5 13 100 9 0.109808
6 13 100 9 0.0474392
7 13 100 9 0.0879955
8 13 100 9 0.163636
9 13 100 9 0.229859
1 14 100 9 0.0622742
2 14 100 9 0.112668
3 14 100 9 0.111023
4 14 100 9 0.0567622
5 14 100 9 0.114792
6 14 100 9 0.0696669
7 14 100 9 0.161695
8 14 100 9 0.140158
9 14 100 9 0.170961
1 15 100 9 0.121379
2 15 100 9 0.0345351
3 15 100 9 0.120897
4 15 100 9 0.000283278
6 15 100 9 0.123174
7 15 100 9 0.215084
8 15 100 9 0.143431
9 15 100 9 0.241217
1 16 100 9 2.33919e-05
2 16 100 9 4.59079e-05
3 16 100 9 5.99769e-05
4 16 100 9 0.00100317
6 16 100 9 3.28262e-06
7 16 100 9 0.370348
8 16 100 9 0.628512
9 16 100 9 4.46728e-06
2 17 100 9 0.181789
3 17 100 9 0.195535
4 17 100 9 0.195497
5 17 100 9 0.0395602
6 17 100 9 3.08045e-06
7 17 100 9 2.88533e-05
8 17 100 9 0.192051
9 17 100 9 0.195535
1 18 100 9 0.144468
2 18 100 9 0.14229
3 18 100 9 0.144347
4 18 100 9 0.00901739
5 18 100 9 0.144347
6 18 100 9 0.146052
7 18 100 9 0.000107675
8 18 100 9 0.125023
9 18 100 9 0.144347
6 19 100 9 1
1 20 100 9 0.0200546
4 20 100 9 0.979945
5 21 100 9 0.999972
6 21 100 9 2.81166e-05
6 22 100 9 1
6 23 100 9 1
6 24 100 9 0.00017887
7 24 100 9 0.999821
6 25 100 9 0.55617
8 25 100 9 0.44383
1 27 100 9 0.0579868
6 27 100 9 0.92784
8 27 100 9 0.0141729
1 0 100 10 0.000621979
2 0 100 10 0.0771964
3 0 100 10 0.102097
4 0 100 10 0.140553
5 0 100 10 0.119685
6 0 100 10 0.129412
7 0 100 10 0.126557
8 0 100 10 0.163539
9 0 100 10 0.140335
10 0 100 10 2.84963e-06
1 1 100 10 0.869463
2 1 100 10 0.0426835
3 1 100 10 0.0376729
4 1 100 10 0.0164141
5 1 100 10 0.00211274
6 1 100 10 0.0105554
7 1 100 10 2.70415e-05
8 1 100 10 0.00842152
9 1 100 10 0.00634545
10 1 100 10 0.00630403
1 2 100 10 0.0438665
2 2 100 10 0.609937
3 2 100 10 0.130404
4 2 100 10 0.0714415
5 2 100 10 0.0523727
6 2 100 10 0.0287859
7 2 100 10 0.0178653
8 2 100 10 0.0219377
9 2 100 10 0.0128793
10 2 100 10 0.0105096
1 3 100 10 0.0372328
2 3 100 10 0.137752
3 3 100 10 0.378282
4 3 100 10 0.160239
5 3 100 10 0.0865857
6 3 100 10 0.0706428
7 3 100 10 0.04594
8 3 100 10 0.0305389
9 3 100 10 0.0311382
10 3 100 10 0.0216485
1 4 100 10 0.0313254
2 4 100 10 0.0770592
3 4 100 10 0.17217
4 4 100 10 0.250997
5 4 100 10 0.189418
6 4 100 10 0.136044
7 4 100 10 0.0655479
8 4 100 10 0.0355055
9 4 100 10 0.0178415
10 4 100 10 0.024092
1 5 100 10 0.0258178
2 5 100 10 0.0745995
3 5 100 10 0.0916608
4 5 100 10 0.145163
5 5 100 10 0.184735
6 5 100 10 0.171188
7 5 100 10 0.136652
8 5 100 10 0.0668012
9 5 100 10 0.0480005
10 5 100 10 0.0553815
1 6 100 10 0.0144852
2 6 100 10 0.0430197
3 6 100 10 0.0590544
4 6 100 10 0.0880938
5 6 100 10 0.157003
6 6 100 10 0.178537
7 6 100 10 0.151364
8 6 100 10 0.116284
9 6 100 10 0.0941642
10 6 100 10 0.0979959
1 7 100 10 0.0182421
2 7 100 10 0.0315814
3 7 100 10 0.0760685
4 7 100 10 0.0963053
5 7 100 10 0.0868255
6 7 100 10 0.121573
7 7 100 10 0.178296
8 7 100 10 0.132899
9 7 100 10 0.129969
10 7 100 10 0.128239
1 8 100 10 0.0342076
2 8 100 10 0.0449023
3 8 100 10 0.0440325
4 8 100 10 0.0506166
5 8 100 10 0.0817953
6 8 100 10 0.082275
7 8 100 10 0.129662
8 8 100 10 0.172533
9 8 100 10 0.167929
10 8 100 10 0.192046
1 9 100 10 0.0201271
2 9 100 10 0.0474534
3 9 100 10 0.0353996
4 9 100 10 0.0454158
5 9 100 10 0.0615796
6 9 100 10 0.0829255
7 9 100 10 0.120857
8 9 100 10 0.145819
9 9 100 10 0.178821
10 9 100 10 0.261602
1 10 100 10 0.0198346
2 10 100 10 0.0410016
3 10 100 10 0.0456915
4 10 100 10 0.0508862
5 10 100 10 0.099013
6 10 100 10 0.105392
7 10 100 10 0.0794252
8 10 100 10 0.140726
9 10 100 10 0.168146
10 10 100 10 0.249885
1 11 100 10 0.0339585
2 11 100 10 0.0489344
3 11 100 10 0.0835905
4 11 100 10 0.0868527
5 11 100 10 0.0817945
6 11 100 10 0.0617514
7 11 100 10 0.123067
8 11 100 10 0.0863932
9 11 100 10 0.146964
10 11 100 10 0.246694
1 12 100 10 0.0396096
2 12 100 10 0.0258786
3 12 100 10 0.0699186
4 12 100 10 0.102487
5 12 100 10 0.0530041
6 12 100 10 0.0470441
7 12 100 10 0.0490208
8 12 100 10 0.0630971
9 12 100 10 0.209346
10 12 100 10 0.340594
1 13 100 10 0.0228355
2 13 100 10 0.0411848
3 13 100 10 0.0619456
4 13 100 10 0.0520858
5 13 100 10 0.121503
6 13 100 10 0.0934466
7 13 100 10 0.106218
8 13 100 10 0.135644
9 13 100 10 0.170421
10 13 100 10 0.194715
1 14 100 10 0.0271443
2 14 100 10 0.0620422
3 14 100 10 0.106736
4 14 100 10 0.041752
5 14 100 10 0.109268
6 14 100 10 0.129874
7 14 100 10 0.0543668
8 14 100 10 0.116998
9 14 100 10 0.0567409
10 14 100 10 0.295077
1 15 100 10 0.0272475
2 15 100 10 0.0396625
3 15 100 10 0.0783031
4 15 100 10 0.0770162
5 15 100 10 0.0158119
6 15 100 10 0.0236471
7 15 100 10 0.0803006
8 15 100 10 0.145545
9 15 100 10 0.212825
10 15 100 10 0.299641
1 16 100 10 4.8165e-06
2 16 100 10 0.000443238
3 16 100 10 0.0488852
4 16 100 10 3.24487e-06
5 16 100 10 0.00215852
6 16 100 10 0.166687
7 16 100 10 0.333233
8 16 100 10 0.107749
9 16 100 10 4.98148e-05
10 16 100 10 0.340786
1 17 100 10 0.160562
2 17 100 10 0.0290935
3 17 100 10 0.00141151
4 17 100 10 0.159019
5 17 100 10 0.224604
6 17 100 10 0.0396363
7 17 100 10 0.0432735
8 17 100 10 0.0209791
9 17 100 10 0.16071
10 17 100 10 0.16071
1 18 100 10 0.00149083
2 18 100 10 0.165887
3 18 100 10 0.831449
4 18 100 10 0.000545431
9 18 100 10 0.000263295
10 18 100 10 0.000364328
2 19 100 10 0.00135009
4 19 100 10 0.0141081
8 19 100 10 0.984497
9 19 100 10 4.50575e-05
1 20 100 10 0.302046
2 20 100 10 0.000137448
3 20 100 10 3.77333e-05
7 20 100 10 1.05032e-06
8 20 100 10 0.000239232
9 20 100 10 0.348767
10 20 100 10 0.348771
1 21 100 10 1
1 22 100 10 0.122453
2 22 100 10 0.124181
3 22 100 10 0.000564061
4 22 100 10 0.12576
5 22 100 10 0.12576
6 22 100 10 0.123469
7 22 100 10 0.000564061
8 22 100 10 0.12576
9 22 100 10 0.12576
10 22 100 10 0.12573
1 23 100 10 0.590987
2 23 100 10 0.00885278
6 23 100 10 0.010296
10 23 100 10 0.389865
1 0 100 11 8.02137e-05
2 0 100 11 0.0710195
3 0 100 11 0.105999
4 0 100 11 0.101313
5 0 100 11 0.120356
6 0 100 11 0.125684
7 0 100 11 0.107683
8 0 100 11 0.105436
9 0 100 11 0.153823
10 0 100 11 0.108604
11 0 100 11 2.96357e-06
1 1 100 11 0.8572
2 1 100 11 0.0347994
3 1 100 11 0.0440334
4 1 100 11 0.0231195
5 1 100 11 0.0103449
6 1 100 11 0.0102436
7 1 100 11 0.0122858
8 1 100 11 0.0038601
9 1 100 11 1.52742e-05
10 1 100 11 0.00204891
11 1 100 11 0.00204882
1 2 100 11 0.0503209
2 2 100 11 0.536257
3 2 100 11 0.145065
4 2 100 11 0.08557
5 2 100 11 0.0571651
6 2 100 11 0.040885
7 2 100 11 0.0225818
8 2 100 11 0.0258175
9 2 100 11 0.00948343
10 2 100 11 0.0142731
11 2 100 11 0.0125816
1 3 100 11 0.0398763
2 3 100 11 0.187338
3 3 100 11 0.369268
4 3 100 11 0.144803
5 3 100 11 0.084853
6 3 100 11 0.0515814
7 3 100 11 0.0398604
8 3 100 11 0.0278482
9 3 100 11 0.0326498
10 3 100 11 0.0162398
11 3 100 11 0.00568249
1 4 100 11 0.0132073
2 4 100 11 0.0718881
3 4 100 11 0.149172
4 4 100 11 0.291686
5 4 100 11 0.170034
6 4 100 11 0.0981812
7 4 100 11 0.0732113
8 4 100 11 0.0443576
9 4 100 11 0.0408287
10 4 100 11 0.0275776
11 4 100 11 0.0198567
1 5 100 11 0.0112579
2 5 100 11 0.0523474
3 5 100 11 0.0764391
4 5 100 11 0.173306
5 5 100 11 0.217936
6 5 100 11 0.164302
7 5 100 11 0.0964917
8 5 100 11 0.0824916
9 5 100 11 0.0441391
10 5 100 11 0.0370547
11 5 100 11 0.0442344
1 6 100 11 0.00748535
2 6 100 11 0.0235146
3 6 100 11 0.0636529
4 6 100 11 0.0970088
5 6 100 11 0.178277
6 6 100 11 0.166918
7 6 100 11 0.172977
8 6 100 11 0.108339
9 6 100 11 0.0709749
10 6 100 11 0.0561582
11 6 100 11 0.0546942
1 7 100 11 0.0197291
2 7 100 11 0.0420073
3 7 100 11 0.0296027
4 7 100 11 0.0462052
5 7 100 11 0.0738766
6 7 100 11 0.15257
7 7 100 11 0.147713
8 7 100 11 0.158353
9 7 100 11 0.127357
10 7 100 11 0.106909
11 7 100 11 0.0956768
1 8 100 11 0.0236306
2 8 100 11 0.0345626
3 8 100 11 0.0346445
4 8 100 11 0.048982
5 8 100 11 0.0503601
6 8 100 11 0.0785158
7 8 100 11 0.147207
8 8 100 11 0.160486
9 8 100 11 0.155321
10 8 100 11 0.128038
11 8 100 11 0.138252
1 9 100 11 0.0183813
2 9 100 11 0.0387805
3 9 100 11 0.0583765
4 9 100 11 0.0505265
5 9 100 11 0.0726603
6 9 100 11 0.0707622
7 9 100 11 0.0925175
8 9 100 11 0.146241
9 9 100 11 0.139216
10 9 100 11 0.143598
11 9 100 11 0.16894
1 10 100 11 0.0190452
2 10 100 11 0.0335455
3 10 100 11 0.0484389
4 10 100 11 0.0558828
5 10 100 11 0.0501633
6 10 100 11 0.0626703
7 10 100 11 0.0805721
8 10 100 11 0.0837967
9 10 100 11 0.128298
10 10 100 11 0.203094
11 10 100 11 0.234493
1 11 100 11 0.0250381
2 11 100 11 0.0380289
3 11 100 11 0.0433767
4 11 100 11 0.067297
5 11 100 11 0.0648904
6 11 100 11 0.0711751
7 11 100 11 0.0810569
8 11 100 11 0.096941
9 11 100 11 0.10741
10 11 100 11 0.142352
11 11 100 11 0.262435
1 12 100 11 0.0658123
2 12 100 11 0.0751676
3 12 100 11 0.0568736
4 12 100 11 0.0558745
5 12 100 11 0.0449241
6 12 100 11 0.0650552
7 12 100 11 0.0879931
8 12 100 11 0.108293
9 12 100 11 0.0722602
10 12 100 11 0.164283
11 12 100 11 0.203463
1 13 100 11 0.0301923
2 13 100 11 0.029927
3 13 100 11 0.0561174
4 13 100 11 0.0670076
5 13 100 11 0.0405923
6 13 100 11 0.0628834
7 13 100 11 0.0856056
8 13 100 11 0.118626
9 13 100 11 0.106689
10 13 100 11 0.135606
11 13 100 11 0.266754
1 14 100 11 0.0485558
2 14 100 11 0.0523589
3 14 100 11 0.0750464
4 14 100 11 0.0781378
5 14 100 11 0.0859907
6 14 100 11 0.0879062
7 14 100 11 0.0937247
8 14 100 11 0.0336975
9 14 100 11 0.0661685
10 14 100 11 0.139101
11 14 100 11 0.239312
1 15 100 11 0.0608893
2 15 100 11 0.059134
3 15 100 11 0.07276
4 15 100 11 0.041482
5 15 100 11 0.0716392
6 15 100 11 0.0639531
7 15 100 11 0.0610327
8 15 100 11 0.13173
9 15 100 11 0.0858885
10 15 100 11 0.147727
11 15 100 11 0.203764
1 16 100 11 0.121244
2 16 100 11 0.121346
3 16 100 11 0.0677516
4 16 100 11 0.00711375
5 16 100 11 0.00418568
6 16 100 11 0.06832
7 16 100 11 2.31458e-05
8 16 100 11 0.0673569
9 16 100 11 0.019936
10 16 100 11 0.116575
11 16 100 11 0.406147
1 17 100 11 0.000103954
2 17 100 11 0.000412829
3 17 100 11 0.00140049
4 17 100 11 5.41817e-05
5 17 100 11 0.000203602
6 17 100 11 4.19686e-06
7 17 100 11 4.03262e-06
8 17 100 11 8.56299e-06
9 17 100 11 0.658268
10 17 100 11 0.305109
11 17 100 11 0.0344313
1 18 100 11 0.0389351
3 18 100 11 0.00539773
5 18 100 11 0.000293241
8 18 100 11 0.000836429
9 18 100 11 0.163975
10 18 100 11 0.395286
11 18 100 11 0.395277
2 19 100 11 0.000876042
3 19 100 11 0.000580235
4 19 100 11 0.000448152
5 19 100 11 5.52177e-06
6 19 100 11 0.0027579
7 19 100 11 0.0129295
8 19 100 11 0.0039443
9 19 100 11 0.000481002
10 19 100 11 0.97692
11 19 100 11 0.0010575
3 20 100 11 0.00394723
4 20 100 11 0.0904452
5 20 100 11 0.884397
6 20 100 11 0.003139
7 20 100 11 0.00142337
8 20 100 11 2.08281e-05
9 20 100 11 0.0010926
10 20 100 11 0.0155346
1 21 100 11 0.103047
2 21 100 11 0.20682
3 21 100 11 0.193941
4 21 100 11 0.00104912
6 21 100 11 0.0932119
7 21 100 11 0.102278
8 21 100 11 0.0320509
9 21 100 11 0.0605955
10 21 100 11 0.000135847
11 21 100 11 0.20687
8 23 100 11 1
4 24 100 11 0.000141311
6 24 100 11 0.000125003
8 24 100 11 0.999734
6 25 100 11 0.984586
8 25 100 11 0.0115696
9 25 100 11 0.00384483
4 26 100 11 0.00345335
8 26 100 11 0.0170092
9 26 100 11 0.979537
1 0 100 12 4.61775e-05
2 0 100 12 0.0518382
3 0 100 12 0.0860422
4 0 100 12 0.100975
5 0 100 12 0.113372
6 0 100 12 0.086835
7 0 100 12 0.106102
8 0 100 12 0.115249
9 0 100 12 0.106844
10 0 100 12 0.116164
11 0 100 12 0.116528
12 0 100 12 4.57333e-06
1 1 100 12 0.812551
2 1 100 12 0.066712
3 1 100 12 0.0418497
4 1 100 12 0.0184848
5 1 100 12 0.0242419
6 1 100 12 0.014657
7 1 100 12 0.00727664
8 1 100 12 0.0090182
9 1 100 12 0.00153705
10 1 100 12 3.52282e-05
11 1 100 12 0.00181824
12 1 100 12 0.00181867
1 2 100 12 0.051063
2 2 100 12 0.52695
3 2 100 12 0.142072
4 2 100 12 0.0713799
5 2 100 12 0.0494147
6 2 100 12 0.050957
7 2 100 12 0.0341582
8 2 100 12 0.0224567
9 2 100 12 0.0197132
10 2 100 12 0.0143848
11 2 100 12 0.00878723
12 2 100 12 0.0086635
1 3 100 12 0.0240776
2 3 100 12 0.166567
3 3 100 12 0.366145
4 3 100 12 0.155546
5 3 100 12 0.0828461
6 3 100 12 0.0557384
7 3 100 12 0.0440064
8 3 100 12 0.0228957
9 3 100 12 0.0286618
10 3 100 12 0.0186357
11 3 100 12 0.020457
12 3 100 12 0.0144233
1 4 100 12 0.0167568
2 4 100 12 0.0779263
3 4 100 12 0.178167
4 4 100 12 0.215963
5 4 100 12 0.153834
6 4 100 12 0.127481
7 4 100 12 0.0724712
8 4 100 12 0.0382881
9 4 100 12 0.0445042
10 4 100 12 0.0254416
11 4 100 12 0.0240005
12 4 100 12 0.0251668
1 5 100 12 0.018477
2 5 100 12 0.0548612
3 5 100 12 0.0804628
4 5 100 12 0.1692
5 5 100 12 0.167127
6 5 100 12 0.176008
7 5 100 12 0.0992949
8 5 100 12 0.0744493
9 5 100 12 0.0667633
10 5 100 12 0.0453608
11 5 100 12 0.0353587
12 5 100 12 0.0126375
1 6 100 12 0.0155779
2 6 100 12 0.0372748
3 6 100 12 0.0540381
4 6 100 12 0.0863183
5 6 100 12 0.131088
6 6 100 12 0.146757
7 6 100 12 0.141771
8 6 100 12 0.114343
9 6 100 12 0.0922681
10 6 100 12 0.0718413
11 6 100 12 0.0550358
12 6 100 12 0.0536871
1 7 100 12 0.0219397
2 7 100 12 0.0251683
3 7 100 12 0.0563106
4 7 100 12 0.0634028
5 7 100 12 0.0831324
6 7 100 12 0.117044
7 7 100 12 0.153731
8 7 100 12 0.126224
9 7 100 12 0.147286
10 7 100 12 0.0749188
11 7 100 12 0.0664914
12 7 100 12 0.0643508
1 8 100 12 0.0177033
2 8 100 12 0.0308754
3 8 100 12 0.0351561
4 8 100 12 0.0623837
5 8 100 12 0.0656979
6 8 100 12 0.0985789
7 8 100 12 0.111135
8 8 100 12 0.151511
9 8 100 12 0.110743
10 8 100 12 0.112333
11 8 100 12 0.114335
12 8 100 12 0.089547
1 9 100 12 0.0256083
2 9 100 12 0.0451542
3 9 100 12 0.0314357
4 9 100 12 0.051932
5 9 100 12 0.061223
6 9 100 12 0.0577579
7 9 100 12 0.0838769
8 9 100 12 0.123464
9 9 100 12 0.117715
10 9 100 12 0.131507
11 9 100 12 0.113806
12 9 100 12 0.15652
1 10 100 12 0.021819
2 10 100 12 0.0384428
3 10 100 12 0.0358591
4 10 100 12 0.0500774
5 10 100 12 0.0505301
6 10 100 12 0.0698315
7 10 100 12 0.0816338
8 10 100 12 0.0850549
9 10 100 12 0.119362
10 10 100 12 0.158257
11 10 100 12 0.123521
12 10 100 12 0.165611
1 11 100 12 0.0169304
2 11 100 12 0.0225129
3 11 100 12 0.043114
4 11 100 12 0.0452536
5 11 100 12 0.0742774
6 11 100 12 0.0673989
7 11 100 12 0.0706397
8 11 100 12 0.082651
9 11 100 12 0.0943632
10 11 100 12 0.131052
11 11 100 12 0.156537
12 11 100 12 0.195269
1 12 100 12 0.0236558
2 12 100 12 0.0284947
3 12 100 12 0.0538205
4 12 100 12 0.0365883
5 12 100 12 0.0463189
6 12 100 12 0.0570512
7 12 100 12 0.0581781
8 12 100 12 0.0770395
9 12 100 12 0.0942058
10 12 100 12 0.112682
11 12 100 12 0.153853
12 12 100 12 0.258113
1 13 100 12 0.0235475
2 13 100 12 0.0476936
3 13 100 12 0.0341435
4 13 100 12 0.0365369
5 13 100 12 0.045455
6 13 100 12 0.0505989
7 13 100 12 0.0692209
8 13 100 12 0.0568716
9 13 100 12 0.107005
10 13 100 12 0.113336
11 13 100 12 0.178463
12 13 100 12 0.237128
1 14 100 12 0.0503113
2 14 100 12 0.0439517
3 14 100 12 0.0613882
4 14 100 12 0.0878738
5 14 100 12 0.0760263
6 14 100 12 0.0526553
7 14 100 12 0.079331
8 14 100 12 0.0638954
9 14 100 12 0.0631003
10 14 100 12 0.0523362
11 14 100 12 0.124781
12 14 100 12 0.24435
1 15 100 12 0.0639118
2 15 100 12 0.0955203
3 15 100 12 0.0885411
4 15 100 12 0.0797607
5 15 100 12 0.0329456
6 15 100 12 0.0587539
7 15 100 12 0.0889207
8 15 100 12 0.10082
9 15 100 12 0.0629611
10 15 100 12 0.0978321
11 15 100 12 0.0386478
12 15 100 12 0.191385
1 16 100 12 0.0833933
2 16 100 12 0.00277078
3 16 100 12 0.0265149
4 16 100 12 0.0891878
5 16 100 12 0.0568695
6 16 100 12 0.0571532
7 16 100 12 0.0430721
8 16 100 12 0.0940502
9 16 100 12 0.0912499
10 16 100 12 0.132467
11 16 100 12 0.185431
12 16 100 12 0.13784
1 17 100 12 0.138972
2 17 100 12 0.0415443
3 17 100 12 0.0847374
4 17 100 12 0.0956852
5 17 100 12 0.0330311
6 17 100 12 0.0587046
7 17 100 12 0.030012
8 17 100 12 0.0341764
9 17 100 12 0.0996097
10 17 100 12 0.114238
11 17 100 12 0.0930194
12 17 100 12 0.176271
1 18 100 12 0.139751
2 18 100 12 0.0776514
3 18 100 12 0.120617
4 18 100 12 0.0676112
5 18 100 12 0.0607112
6 18 100 12 0.066329
7 18 100 12 0.120607
8 18 100 12 7.40824e-05
9 18 100 12 0.00839241
10 18 100 12 1.38847e-05
11 18 100 12 0.0603302
12 18 100 12 0.277911
1 19 100 12 0.190338
2 19 100 12 0.000455757
3 19 100 12 0.0103167
4 19 100 12 0.00423584
5 19 100 12 0.225957
6 19 100 12 0.0292224
7 19 100 12 5.57209e-06
8 19 100 12 8.16386e-06
9 19 100 12 0.000189775
10 19 100 12 0.308187
11 19 100 12 0.00142731
12 19 100 12 0.229656
1 20 100 12 0.00243938
2 20 100 12 0.105384
3 20 100 12 0.0162399
4 20 100 12 0.000257132
6 20 100 12 0.00265453
7 20 100 12 0.000141728
8 20 100 12 9.56902e-06
9 20 100 12 0.00225715
10 20 100 12 0.000186635
11 20 100 12 0.0150205
12 20 100 12 0.85541
4 21 100 12 8.57507e-06
7 21 100 12 0.0226307
8 21 100 12 0.00183049
11 21 100 12 1.006e-05
12 21 100 12 0.97552
4 22 100 12 0.0443261
5 22 100 12 5.18614e-05
6 22 100 12 2.49255e-06
7 22 100 12 3.63345e-05
9 22 100 12 0.948358
10 22 100 12 0.00716321
11 22 100 12 4.61295e-05
12 22 100 12 1.61658e-05
4 23 100 12 7.51295e-07
5 23 100 12 0.000115567
6 23 100 12 8.38494e-07
7 23 100 12 8.33743e-06
9 23 100 12 0.00421189
10 23 100 12 0.495976
11 23 100 12 4.60752e-06
12 23 100 12 0.499682
2 24 100 12 1.27345e-06
3 24 100 12 0.00421608
5 24 100 12 6.80351e-06
7 24 100 12 1.42139e-05
8 24 100 12 1.40104e-05
9 24 100 12 0.000166355
10 24 100 12 0.974319
11 24 100 12 0.0207042
12 24 100 12 0.000558401
4 25 100 12 1.56106e-06
5 25 100 12 2.97241e-06
8 25 100 12 1.42912e-06
9 25 100 12 3.63243e-06
10 25 100 12 0.00550427
11 25 100 12 0.078167
12 25 100 12 0.916319
5 26 100 12 0.553747
7 26 100 12 0.223127
11 26 100 12 0.223127
4 27 100 12 8.75901e-05
5 27 100 12 0.119848
7 27 100 12 0.440032
11 27 100 12 0.440032
1 0 100 13 3.70668e-05
2 0 100 13 0.0594676
3 0 100 13 0.0768836
4 0 100 13 0.100572
5 0 100 13 0.0941783
6 0 100 13 0.0779502
7 0 100 13 0.104174
8 0 100 13 0.0962605
9 0 100 13 0.0800503
10 0 100 13 0.10072
11 0 100 13 0.125208
12 0 100 13 0.0844955
13 0 100 13 2.86954e-06
1 1 100 13 0.812554
2 1 100 13 0.0448618
3 1 100 13 0.0588378
4 1 100 13 0.0270884
5 1 100 13 0.0216565
6 1 100 13 0.0149322
7 1 100 13 0.00180869
9 1 100 13 0.0055961
10 1 100 13 0.00180947
11 1 100 13 0.00362499
12 1 100 13 0.00542167
13 1 100 13 0.0018087
1 2 100 13 0.043927
2 2 100 13 0.594173
3 2 100 13 0.118128
4 2 100 13 0.0993104
5 2 100 13 0.028604
6 2 100 13 0.0267387
7 2 100 13 0.0227093
8 2 100 13 0.0169345
9 2 100 13 0.0158634
10 2 100 13 0.013624
11 2 100 13 0.0131466
12 2 100 13 0.00464049
13 2 100 13 0.00220093
1 3 100 13 0.0206368
2 3 100 13 0.136211
3 3 100 13 0.423058
4 3 100 13 0.14255
5 3 100 13 0.0967849
6 3 100 13 0.0602082
7 3 100 13 0.0252742
8 3 100 13 0.020482
9 3 100 13 0.0266413
10 3 100 13 0.0185931
11 3 100 13 0.0160471
12 3 100 13 0.0135
13 3 100 13 1.35119e-05
1 4 100 13 0.0158891
2 4 100 13 0.0448729
3 4 100 13 0.145778
4 4 100 13 0.235083
5 4 100 13 0.18096
6 4 100 13 0.11253
7 4 100 13 0.082295
8 4 100 13 0.0606649
9 4 100 13 0.0344778
10 4 100 13 0.0410688
11 4 100 13 0.021093
12 4 100 13 0.016973
13 4 100 13 0.00831469
1 5 100 13 0.0117553
2 5 100 13 0.0448857
3 5 100 13 0.0790101
4 5 100 13 0.126979
5 5 100 13 0.186026
6 5 100 13 0.168978
7 5 100 13 0.11823
8 5 100 13 0.0605128
9 5 100 13 0.0724037
10 5 100 13 0.0473147
11 5 100 13 0.0329267
12 5 100 13 0.0296904
13 5 100 13 0.021288
1 6 100 13 0.0131005
2 6 100 13 0.0350614
3 6 100 13 0.0557817
4 6 100 13 0.0821081
5 6 100 13 0.097582
6 6 100 13 0.183443
7 6 100 13 0.132586
8 6 100 13 0.129237
9 6 100 13 0.0895292
10 6 100 13 0.0459928
11 6 100 13 0.0333657
12 6 100 13 0.0530889
13 6 100 13 0.0491246
1 7 100 13 0.0147166
2 7 100 13 0.0256983
3 7 100 13 0.0328103
4 7 100 13 0.0527889
5 7 100 13 0.0934002
6 7 100 13 0.110935
7 7 100 13 0.154291
8 7 100 13 0.135694
9 7 100 13 0.114374
10 7 100 13 0.105972
11 7 100 13 0.0606444
12 7 100 13 0.0422006
13 7 100 13 0.0564741
1 8 100 13 0.0236981
2 8 100 13 0.0306149
3 8 100 13 0.0358501
4 8 100 13 0.0375086
5 8 100 13 0.0669172
6 8 100 13 0.0880705
7 8 100 13 0.0876926
8 8 100 13 0.153816
9 8 100 13 0.121874
10 8 100 13 0.10776
11 8 100 13 0.0944843
12 8 100 13 0.0661407
13 8 100 13 0.0855739
1 9 100 13 0.00911665
2 9 100 13 0.0265959
3 9 100 13 0.0427508
4 9 100 13 0.0446373
5 9 100 13 0.049776
6 9 100 13 0.0688781
7 9 100 13 0.0775188
8 9 100 13 0.108022
9 9 100 13 0.129153
10 9 100 13 0.122845
11 9 100 13 0.102428
12 9 100 13 0.118251
13 9 100 13 0.100026
1 10 100 13 0.00768212
2 10 100 13 0.0179976
3 10 100 13 0.0171924
4 10 100 13 0.0280616
5 10 100 13 0.0464236
6 10 100 13 0.0556384
7 10 100 13 0.0664552
8 10 100 13 0.0831891
9 10 100 13 0.106196
10 10 100 13 0.12313
11 10 100 13 0.139296
12 10 100 13 0.15203
13 10 100 13 0.156708
1 11 100 13 0.0247104
2 11 100 13 0.0255872
3 11 100 13 0.0317895
4 11 100 13 0.0267233
5 11 100 13 0.0304319
6 11 100 13 0.046666
7 11 100 13 0.059088
8 11 100 13 0.0570323
9 11 100 13 0.114339
10 11 100 13 0.1057
11 11 100 13 0.120374
12 11 100 13 0.156158
13 11 100 13 0.201401
1 12 100 13 0.0360183
2 12 100 13 0.0450106
3 12 100 13 0.0358229
4 12 100 13 0.041574
5 12 100 13 0.0428265
6 12 100 13 0.0327173
7 12 100 13 0.06057
8 12 100 13 0.0529194
9 12 100 13 0.065343
10 12 100 13 0.0946044
11 12 100 13 0.118595
12 12 100 13 0.145821
13 12 100 13 0.228177
1 13 100 13 0.0342377
2 13 100 13 0.0409601
3 13 100 13 0.0433486
4 13 100 13 0.0529533
5 13 100 13 0.0359797
6 13 100 13 0.0517894
7 13 100 13 0.0357752
8 13 100 13 0.0395971
9 13 100 13 0.0458833
10 13 100 13 0.0547521
11 13 100 13 0.114997
12 13 100 13 0.171454
13 13 100 13 0.278272
1 14 100 13 0.0401689
2 14 100 13 0.0336874
3 14 100 13 0.0396351
4 14 100 13 0.0115707
5 14 100 13 0.0450914
6 14 100 13 0.0459178
7 14 100 13 0.0679015
8 14 100 13 0.0770607
9 14 100 13 0.100174
10 14 100 13 0.103602
11 14 100 13 0.0927607
12 14 100 13 0.140605
13 14 100 13 0.201824
1 15 100 13 0.0388861
2 15 100 13 0.0538889
3 15 100 13 0.0311012
4 15 100 13 0.0412667
5 15 100 13 0.0202777
6 15 100 13 0.0332881
7 15 100 13 0.0552644
8 15 100 13 0.072984
9 15 100 13 0.0877291
10 15 100 13 0.126285
11 15 100 13 0.0894115
12 15 100 13 0.138742
13 15 100 13 0.210875
1 16 100 13 0.0639927
2 16 100 13 0.0655268
3 16 100 13 0.00281106
4 16 100 13 0.0595104
5 16 100 13 0.046258
6 16 100 13 0.0308816
7 16 100 13 0.0630479
8 16 100 13 0.0718616
9 16 100 13 0.10229
10 16 100 13 0.111028
11 16 100 13 0.0939451
12 16 100 13 0.0682089
13 16 100 13 0.220638
1 17 100 13 0.110975
2 17 100 13 0.0058208
3 17 100 13 0.0914246
4 17 100 13 0.00371776
5 17 100 13 6.30177e-05
6 17 100 13 0.000343392
7 17 100 13 0.000736367
8 17 100 13 0.04522
9 17 100 13 0.0745254
10 17 100 13 0.0950236
11 17 100 13 0.132393
12 17 100 13 0.15396
13 17 100 13 0.285796
1 18 100 13 0.095342
2 18 100 13 0.060871
3 18 100 13 0.00448428
4 18 100 13 0.0746558
5 18 100 13 0.0889398
6 18 100 13 0.0494099
7 18 100 13 0.0119892
8 18 100 13 0.0717828
9 18 100 13 0.114786
10 18 100 13 0.0773668
11 18 100 13 0.0388347
12 18 100 13 0.153892
13 18 100 13 0.157645
1 19 100 13 1.41847e-05
2 19 100 13 8.03213e-06
3 19 100 13 0.000388181
4 19 100 13 9.3023e-06
5 19 100 13 8.13315e-07
6 19 100 13 0.00508258
7 19 100 13 0.000112358
8 19 100 13 0.00153659
9 19 100 13 0.212034
10 19 100 13 0.163341
11 19 100 13 0.212345
12 19 100 13 0.000920846
13 19 100 13 0.404207
1 20 100 13 4.13449e-07
2 20 100 13 4.32859e-05
3 20 100 13 1.27885e-05
4 20 100 13 2.02639e-07
5 20 100 13 1.70319e-05
7 20 100 13 2.17952e-05
8 20 100 13 0.18093
9 20 100 13 0.108017
10 20 100 13 0.199218
11 20 100 13 0.187216
12 20 100 13 0.180681
13 20 100 13 0.143843
1 21 100 13 1.01515e-06
2 21 100 13 0.000415819
3 21 100 13 0.279385
4 21 100 13 3.49565e-06
5 21 100 13 0.0162303
6 21 100 13 0.0006735
7 21 100 13 0.000148185
8 21 100 13 1.8656e-06
9 21 100 13 0.000110334
10 21 100 13 0.000817624
11 21 100 13 0.315929
12 21 100 13 0.0399622
13 21 100 13 0.346322
1 22 100 13 4.08088e-06
2 22 100 13 0.000123196
3 22 100 13 0.0176794
4 22 100 13 1.49722e-05
5 22 100 13 0.143272
6 22 100 13 0.152429
7 22 100 13 0.15007
8 22 100 13 1.86666e-05
9 22 100 13 0.150677
10 22 100 13 0.214087
11 22 100 13 0.171345
12 22 100 13 0.000106117
13 22 100 13 0.00017447
2 23 100 13 0.993525
6 23 100 13 0.000219846
8 23 100 13 0.000301763
10 23 100 13 0.00595373
4 24 100 13 3.15057e-07
6 24 100 13 1.04267e-06
8 24 100 13 1.90401e-06
9 24 100 13 5.44358e-06
10 24 100 13 0.245155
11 24 100 13 0.153893
12 24 100 13 0.29894
13 24 100 13 0.302003
2 25 100 13 9.15485e-06
5 25 100 13 2.98417e-06
6 25 100 13 9.51197e-06
8 25 100 13 9.31536e-06
10 25 100 13 0.00141131
11 25 100 13 0.998558
2 26 100 13 0.000326022
5 26 100 13 3.32603e-05
6 26 100 13 3.20022e-05
8 26 100 13 1.20181e-05
10 26 100 13 5.32513e-05
12 26 100 13 0.999543
1 27 100 13 0.104209
2 27 100 13 0.000419589
3 27 100 13 0.179809
4 27 100 13 0.180487
5 27 100 13 0.179657
7 27 100 13 0.126823
8 27 100 13 4.37958e-07
9 27 100 13 0.0479145
11 27 100 13 1.21674e-05
12 27 100 13 1.08264e-05
13 27 100 13 0.180658
1 0 100 14 0.000774685
2 0 100 14 0.0544198
3 0 100 14 0.0621533
4 0 100 14 0.0795521
5 0 100 14 0.0969362
6 0 100 14 0.0753606
7 0 100 14 0.0956719
8 0 100 14 0.0859097
9 0 100 14 0.0788085
10 0 100 14 0.0852429
11 0 100 14 0.0832934
12 0 100 14 0.109394
13 0 100 14 0.0924767
14 0 100 14 6.2848e-06
1 1 100 14 0.788392
2 1 100 14 0.0487593
3 1 100 14 0.0488627
4 1 100 14 0.027812
5 1 100 14 0.0189608
6 1 100 14 0.0189407
7 1 100 14 0.0167216
8 1 100 14 0.00878493
9 1 100 14 0.00504261
10 1 100 14 0.00723739
11 1 100 14 0.00349165
12 1 100 14 0.00524898
14 1 100 14 0.00174527
1 2 100 14 0.0630937
2 2 100 14 0.552223
3 2 100 14 0.150693
4 2 100 14 0.0854072
5 2 100 14 0.042448
6 2 100 14 0.0325122
7 2 100 14 0.0144778
8 2 100 14 0.0230079
9 2 100 14 0.0146877
10 2 100 14 0.00992622
11 2 100 14 0.00771592
12 2 100 14 0.00180196
13 2 100 14 5.91717e-05
14 2 100 14 0.00194583
1 3 100 14 0.0198237
2 3 100 14 0.13934
3 3 100 14 0.399773
4 3 100 14 0.170167
5 3 100 14 0.0699588
6 3 100 14 0.0419756
7 3 100 14 0.0303659
8 3 100 14 0.0284951
9 3 100 14 0.0378247
10 3 100 14 0.0237111
11 3 100 14 0.00875626
12 3 100 14 0.0162761
13 3 100 14 0.00813601
14 3 100 14 0.00539666
1 4 100 14 0.0219952
2 4 100 14 0.0491463
3 4 100 14 0.135349
4 4 100 14 0.271485
5 4 100 14 0.161251
6 4 100 14 0.110386
7 4 100 14 0.0457153
8 4 100 14 0.0557475
9 4 100 14 0.0488823
10 4 100 14 0.0174339
11 4 100 14 0.0248133
12 4 100 14 0.0204582
13 4 100 14 0.0204658
14 4 100 14 0.0168696
1 5 100 14 0.0070572
2 5 100 14 0.0460224
3 5 100 14 0.093345
4 5 100 14 0.121689
5 5 100 14 0.204813
6 5 100 14 0.156934
7 5 100 14 0.119751
8 5 100 14 0.0525702
9 5 100 14 0.0680171
10 5 100 14 0.0477577
11 5 100 14 0.0380126
12 5 100 14 0.0146991
13 5 100 14 0.0204251
14 5 100 14 0.00890669
1 6 100 14 0.0158454
2 6 100 14 0.0431425
3 6 100 14 0.0583651
4 6 100 14 0.0711335
5 6 100 14 0.100417
6 6 100 14 0.172132
7 6 100 14 0.126621
8 6 100 14 0.106081
9 6 100 14 0.0723857
10 6 100 14 0.0499924
11 6 100 14 0.0547161
12 6 100 14 0.0489911
13 6 100 14 0.0359974
14 6 100 14 0.0441798
1 7 100 14 0.00970455
2 7 100 14 0.0138571
3 7 100 14 0.0332531
4 7 100 14 0.0567168
5 7 100 14 0.0800011
6 7 100 14 0.0954593
7 7 100 14 0.126051
8 7 100 14 0.144918
9 7 100 14 0.11249
10 7 100 14 0.0934545
11 7 100 14 0.0753344
12 7 100 14 0.0545003
13 7 100 14 0.0567549
14 7 100 14 0.0475053
1 8 100 14 0.00836408
2 8 100 14 0.0108106
3 8 100 14 0.02641
4 8 100 14 0.0469902
5 8 100 14 0.0632158
6 8 100 14 0.0828003
7 8 100 14 0.112105
8 8 100 14 0.135783
9 8 100 14 0.110957
10 8 100 14 0.112403
11 8 100 14 0.0944134
12 8 100 14 0.0670185
13 8 100 14 0.0563814
14 8 100 14 0.0723472
1 9 100 14 0.00907566
2 9 100 14 0.0197949
3 9 100 14 0.0190999
4 9 100 14 0.0169917
5 9 100 14 0.0267313
6 9 100 14 0.0564799
7 9 100 14 0.0932528
8 9 100 14 0.0986329
9 9 100 14 0.135571
10 9 100 14 0.133729
11 9 100 14 0.118745
12 9 100 14 0.0807794
13 9 100 14 0.0901619
14 9 100 14 0.100955
1 10 100 14 0.012469
2 10 100 14 0.01888
3 10 100 14 0.0320423
4 10 100 14 0.0271505
5 10 100 14 0.0399819
6 10 100 14 0.047872
7 10 100 14 0.0523756
8 10 100 14 0.0736187
9 10 100 14 0.104707
10 10 100 14 0.129323
11 10 100 14 0.144721
12 10 100 14 0.129893
13 10 100 14 0.10131
14 10 100 14 0.0856568
1 11 100 14 0.0102214
2 11 100 14 0.0183411
3 11 100 14 0.0243189
4 11 100 14 0.0335231
5 11 100 14 0.0315702
6 11 100 14 0.0644204
7 11 100 14 0.0736439
8 11 100 14 0.0639603
9 11 100 14 0.0807219
10 11 100 14 0.103118
11 11 100 14 0.105926
12 11 100 14 0.108321
13 11 100 14 0.138786
14 11 100 14 0.143128
1 12 100 14 0.0138801
2 12 100 14 0.0186407
3 12 100 14 0.0187547
4 12 100 14 0.0218957
5 12 100 14 0.0554224
6 12 100 14 0.0318576
7 12 100 14 0.0527604
8 12 100 14 0.0659955
9 12 100 14 0.0606359
10 12 100 14 0.0897342
11 12 100 14 0.115908
12 12 100 14 0.139464
13 12 100 14 0.120012
14 12 100 14 0.195039
1 13 100 14 0.0325458
2 13 100 14 0.0363196
3 13 100 14 0.0401231
4 13 100 14 0.0437101
5 13 100 14 0.032111
6 13 100 14 0.058966
7 13 100 14 0.0313343
8 13 100 14 0.0415321
9 13 100 14 0.0898664
10 13 100 14 0.0958816
11 13 100 14 0.092739
12 13 100 14 0.0922114
13 13 100 14 0.122221
14 13 100 14 0.190438
1 14 100 14 0.0310831
2 14 100 14 0.027938
3 14 100 14 0.0316054
4 14 100 14 0.0359744
5 14 100 14 0.0421214
6 14 100 14 0.0630775
7 14 100 14 0.0670884
8 14 100 14 0.0500733
9 14 100 14 0.0672765
10 14 100 14 0.0816023
11 14 100 14 0.0700063
12 14 100 14 0.11381
13 14 100 14 0.129621
14 14 100 14 0.188722
1 15 100 14 0.0207084
2 15 100 14 0.0169507
3 15 100 14 0.0324962
4 15 100 14 0.0488073
5 15 100 14 0.0431768
6 15 100 14 0.0539056
7 15 100 14 0.0709305
8 15 100 14 0.0757023
9 15 100 14 0.0410038
10 15 100 14 0.0580309
11 15 100 14 0.0929102
12 15 100 14 0.0908001
13 15 100 14 0.123182
14 15 100 14 0.231395
1 16 100 14 0.0392545
2 16 100 14 0.0512016
3 16 100 14 0.0429294
4 16 100 14 0.0350949
5 16 100 14 0.0295867
6 16 100 14 0.0398746
7 16 100 14 0.0144946
8 16 100 14 0.0624495
9 16 100 14 0.0665926
10 16 100 14 0.0515055
11 16 100 14 0.106152
12 16 100 14 0.0897018
13 16 100 14 0.176638
14 16 100 14 0.194524
1 17 100 14 0.0314071
2 17 100 14 0.0182443
3 17 100 14 0.0105076
4 17 100 14 0.0209959
5 17 100 14 0.035702
6 17 100 14 0.0318377
7 17 100 14 0.0141198
8 17 100 14 0.0618114
9 17 100 14 0.0592565
10 17 100 14 0.0780695
11 17 100 14 0.0447997
12 17 100 14 0.149863
13 17 100 14 0.155303
14 17 100 14 0.288083
1 18 100 14 0.066155
2 18 100 14 0.0491958
3 18 100 14 0.0462898
4 18 100 14 0.0477762
5 18 100 14 0.0689972
6 18 100 14 0.0462733
7 18 100 14 0.0235179
8 18 100 14 0.0455045
9 18 100 14 0.0234081
10 18 100 14 0.0463251
11 18 100 14 0.0713714
12 18 100 14 0.0975543
13 18 100 14 0.135601
14 18 100 14 0.23203
1 19 100 14 0.0556693
2 19 100 14 0.0557347
3 19 100 14 0.0531146
4 19 100 14 0.0282186
5 19 100 14 0.0561821
6 19 100 14 0.0555989
7 19 100 14 0.0855925
8 19 100 14 0.0762001
9 19 100 14 0.0551994
10 19 100 14 0.0108536
11 19 100 14 0.0556355
12 19 100 14 0.06492
13 19 100 14 0.124739
14 19 100 14 0.222341
1 20 100 14 8.782e-06
2 20 100 14 0.000861674
3 20 100 14 9.62636e-05
4 20 100 14 0.00207404
5 20 100 14 8.84941e-06
6 20 100 14 3.52787e-05
7 20 100 14 0.0905133
8 20 100 14 3.65113e-05
9 20 100 14 1.7833e-05
10 20 100 14 0.0141038
11 20 100 14 0.292071
12 20 100 14 3.39926e-07
13 20 100 14 0.312564
14 20 100 14 0.287609
1 21 100 14 0.0429445
2 21 100 14 0.0409404
3 21 100 14 0.104188
4 21 100 14 0.00896725
5 21 100 14 0.0418038
6 21 100 14 3.33394e-06
7 21 100 14 3.38439e-05
8 21 100 14 0.043075
9 21 100 14 0.129147
10 21 100 14 0.0525225
11 21 100 14 0.180958
12 21 100 14 0.171312
13 21 100 14 0.0430833
14 21 100 14 0.141022
2 22 100 14 2.87519e-06
3 22 100 14 0.00017199
4 22 100 14 0.063793
5 22 100 14 0.000153314
6 22 100 14 0.00147653
7 22 100 14 0.00266454
8 22 100 14 0.111671
9 22 100 14 0.00335846
10 22 100 14 0.0142741
11 22 100 14 7.22437e-05
12 22 100 14 0.768824
13 22 100 14 0.00133988
14 22 100 14 0.0321975
1 23 100 14 0.0828398
2 23 100 14 0.0655986
3 23 100 14 9.91372e-05
4 23 100 14 0.0654661
5 23 100 14 0.0630537
6 23 100 14 0.0654674
7 23 100 14 0.0653934
8 23 100 14 0.0665491
9 23 100 14 0.0638229
10 23 100 14 0.0651347
11 23 100 14 0.0664178
12 23 100 14 0.0653131
13 23 100 14 0.130947
14 23 100 14 0.133897
4 24 100 14 0.556177
6 24 100 14 0.00922132
7 24 100 14 1.14265e-05
8 24 100 14 0.424093
9 24 100 14 0.00936195
12 24 100 14 1.25328e-05
13 24 100 14 0.00112236
3 25 100 14 4.46994e-05
5 25 100 14 1.80294e-07
6 25 100 14 8.83638e-06
7 25 100 14 0.173133
8 25 100 14 0.173127
9 25 100 14 0.0521536
10 25 100 14 0.108134
11 25 100 14 0.173372
12 25 100 14 0.15411
14 25 100 14 0.165916
3 26 100 14 0.718971
5 26 100 14 0.00604393
6 26 100 14 0.0171622
8 26 100 14 5.68962e-05
9 26 100 14 0.257765
3 27 100 14 0.0320122
5 27 100 14 0.954966
6 27 100 14 0.011967
8 27 100 14 0.000536924
9 27 100 14 0.000518204
3 28 100 14 0.000432674
4 28 100 14 4.84667e-05
5 28 100 14 4.65564e-05
6 28 100 14 0.0021192
9 28 100 14 0.000125394
11 28 100 14 0.997228
3 29 100 14 0.0001307
4 29 100 14 6.73853e-07
6 29 100 14 4.84912e-05
7 29 100 14 0.415444
8 29 100 14 1.40555e-06
9 29 100 14 4.2508e-05
10 29 100 14 4.47664e-05
12 29 100 14 0.584287
1 30 100 14 0.00413658
2 30 100 14 3.00755e-05
4 30 100 14 0.000110767
7 30 100 14 0.00131902
8 30 100 14 0.362396
9 30 100 14 0.0124324
10 30 100 14 0.00117931
13 30 100 14 0.617367
14 30 100 14 0.00102823
1 31 100 14 0.157511
2 31 100 14 0.158268
3 31 100 14 2.40317e-05
4 31 100 14 0.158536
5 31 100 14 0.00071332
6 31 100 14 0.104754
7 31 100 14 0.0021321
8 31 100 14 1.7103e-07
9 31 100 14 0.101514
10 31 100 14 0.158235
11 31 100 14 8.88073e-07
14 31 100 14 0.158311
1 32 100 14 0.000934991
2 32 100 14 0.000475153
3 32 100 14 0.961065
4 32 100 14 0.00366692
5 32 100 14 0.00151519
6 32 100 14 0.00294654
7 32 100 14 0.00910343
9 32 100 14 0.00238373
10 32 100 14 0.0171164
11 32 100 14 0.000627092
14 32 100 14 0.000165082
1 0 100 15 6.419e-05
2 0 100 15 0.0484303
3 0 100 15 0.0540783
4 0 100 15 0.0728997
5 0 100 15 0.0746778
6 0 100 15 0.0900166
7 0 100 15 0.0896801
8 0 100 15 0.075696
9 0 100 15 0.0683651
10 0 100 15 0.0814429
11 0 100 15 0.0794567
12 0 100 15 0.074645
13 0 100 15 0.110366
14 0 100 15 0.0801783
15 0 100 15 2.81288e-06
1 1 100 15 0.7773
2 1 100 15 0.0666401
3 1 100 15 0.0449288
4 1 100 15 0.0258455
5 1 100 15 0.0135838
6 1 100 15 0.0194385
7 1 100 15 0.0131
8 1 100 15 0.0127076
9 1 100 15 0.00856583
10 1 100 15 0.00486257
11 1 100 15 0.0032458
12 1 100 15 0.00648398
13 1 100 15 5.17193e-07
14 1 100 15 0.00327794
15 1 100 15 1.91772e-05
1 2 100 15 0.0360939
2 2 100 15 0.590989
3 2 100 15 0.144508
4 2 100 15 0.0761808
5 2 100 15 0.0428124
6 2 100 15 0.022632
7 2 100 15 0.0231755
8 2 100 15 0.0227535
9 2 100 15 0.0106321
10 2 100 15 0.00805304
11 2 100 15 0.00416972
12 2 100 15 0.00224365
13 2 100 15 0.00569974
14 2 100 15 0.00404479
15 2 100 15 0.00601199
1 3 100 15 0.0286916
2 3 100 15 0.124813
3 3 100 15 0.391629
4 3 100 15 0.142294
5 3 100 15 0.0869149
6 3 100 15 0.0680553
7 3 100 15 0.0362561
8 3 100 15 0.0333546
9 3 100 15 0.025181
10 3 100 15 0.0124657
11 3 100 15 0.0186218
12 3 100 15 0.0130906
13 3 100 15 0.00836284
14 3 100 15 0.00769886
15 3 100 15 0.00257026
1 4 100 15 0.026637
2 4 100 15 0.0679879
3 4 100 15 0.146125
4 4 100 15 0.253338
5 4 100 15 0.147284
6 4 100 15 0.0907483
7 4 100 15 0.0805536
8 4 100 15 0.0287339
9 4 100 15 0.0389586
10 4 100 15 0.031228
11 4 100 15 0.0272174
12 4 100 15 0.0225493
13 4 100 15 0.0202313
14 4 100 15 0.0114961
15 4 100 15 0.00691219
1 5 100 15 0.0119599
2 5 100 15 0.0269435
3 5 100 15 0.0794832
4 5 100 15 0.135138
5 5 100 15 0.199481
6 5 100 15 0.13681
7 5 100 15 0.129629
8 5 100 15 0.0631008
9 5 100 15 0.0439267
10 5 100 15 0.0416267
11 5 100 15 0.0389676
12 5 100 15 0.033533
13 5 100 15 0.0170103
14 5 100 15 0.0221003
15 5 100 15 0.0202898
1 6 100 15 0.00617634
2 6 100 15 0.027327
3 6 100 15 0.0512866
4 6 100 15 0.0773165
5 6 100 15 0.115923
6 6 100 15 0.147516
7 6 100 15 0.132692
8 6 100 15 0.128832
9 6 100 15 0.0949338
10 6 100 15 0.0532108
11 6 100 15 0.0587815
12 6 100 15 0.0360007
13 6 100 15 0.0109487
14 6 100 15 0.0343079
15 6 100 15 0.0247474
1 7 100 15 0.0208857
2 7 100 15 0.0270252
3 7 100 15 0.0499877
4 7 100 15 0.0574501
5 7 100 15 0.0835564
6 7 100 15 0.108058
7 7 100 15 0.119747
8 7 100 15 0.126065
9 7 100 15 0.0884708
10 7 100 15 0.0813968
11 7 100 15 0.0498665
12 7 100 15 0.0576518
13 7 100 15 0.0531567
14 7 100 15 0.030812
15 7 100 15 0.0458704
1 8 100 15 0.00790868
2 8 100 15 0.0106911
3 8 100 15 0.0284886
4 8 100 15 0.0476287
5 8 100 15 0.0494557
6 8 100 15 0.0769865
7 8 100 15 0.111365
8 8 100 15 0.141433
9 8 100 15 0.130774
10 8 100 15 0.099717
11 8 100 15 0.0741395
12 8 100 15 0.0891576
13 8 100 15 0.0358759
14 8 100 15 0.0567572
15 8 100 15 0.039622
1 9 100 15 0.0124344
2 9 100 15 0.0296797
3 9 100 15 0.0202034
4 9 100 15 0.0310217
5 9 100 15 0.0449623
6 9 100 15 0.048806
7 9 100 15 0.0560529
8 9 100 15 0.105446
9 9 100 15 0.125479
10 9 100 15 0.139857
11 9 100 15 0.109965
12 9 100 15 0.0842299
13 9 100 15 0.0838365
14 9 100 15 0.0547382
15 9 100 15 0.0532876
1 10 100 15 0.00962943
2 10 100 15 0.0178942
3 10 100 15 0.0306357
4 10 100 15 0.0311468
5 10 100 15 0.0376348
6 10 100 15 0.0450532
7 10 100 15 0.0530823
8 10 100 15 0.0789386
9 10 100 15 0.0953233
10 10 100 15 0.110631
11 10 100 15 0.138641
12 10 100 15 0.0847426
13 10 100 15 0.0962689
14 10 100 15 0.077167
15 10 100 15 0.0932118
1 11 100 15 0.0149321
2 11 100 15 0.0188131
3 11 100 15 0.0185085
4 11 100 15 0.0327306
5 11 100 15 0.0338142
6 11 100 15 0.0382135
7 11 100 15 0.0456555
8 11 100 15 0.0582624
9 11 100 15 0.0753548
10 11 100 15 0.0856047
11 11 100 15 0.105485
12 11 100 15 0.140855
13 11 100 15 0.103805
14 11 100 15 0.117629
15 11 100 15 0.110337
1 12 100 15 0.0165951
2 12 100 15 0.0257661
3 12 100 15 0.0292262
4 12 100 15 0.0273752
5 12 100 15 0.0430137
6 12 100 15 0.0315244
7 12 100 15 0.0414566
8 12 100 15 0.0424715
9 12 100 15 0.059037
10 12 100 15 0.0667295
11 12 100 15 0.0931811
12 12 100 15 0.101641
13 12 100 15 0.117431
14 12 100 15 0.13995
15 12 100 15 0.164601
1 13 100 15 0.0231351
2 13 100 15 0.0111093
3 13 100 15 0.0332588
4 13 100 15 0.0355013
5 13 100 15 0.0421448
6 13 100 15 0.0523007
7 13 100 15 0.0317791
8 13 100 15 0.0623462
9 13 100 15 0.0580255
10 13 100 15 0.0767716
11 13 100 15 0.0723491
12 13 100 15 0.107049
13 13 100 15 0.0934034
14 13 100 15 0.123619
15 13 100 15 0.177207
1 14 100 15 0.022424
2 14 100 15 0.0259006
3 14 100 15 0.0367119
4 14 100 15 0.0282238
5 14 100 15 0.0171315
6 14 100 15 0.0204129
7 14 100 15 0.0332564
8 14 100 15 0.0616936
9 14 100 15 0.0901477
10 14 100 15 0.0810032
11 14 100 15 0.0643182
12 14 100 15 0.091837
13 14 100 15 0.103432
14 14 100 15 0.135224
15 14 100 15 0.188284
1 15 100 15 0.0370597
2 15 100 15 0.0126315
3 15 100 15 0.0444305
4 15 100 15 0.0378947
5 15 100 15 0.0497129
6 15 100 15 0.0512768
7 15 100 15 0.044731
8 15 100 15 0.0326009
9 15 100 15 0.0549077
10 15 100 15 0.0494329
11 15 100 15 0.0663331
12 15 100 15 0.0793448
13 15 100 15 0.107405
14 15 100 15 0.113829
15 15 100 15 0.21841
1 16 100 15 0.0195596
2 16 100 15 0.029946
3 16 100 15 0.0192141
4 16 100 15 0.0504832
5 16 100 15 0.0439987
6 16 100 15 0.0311628
7 16 100 15 0.0278894
8 16 100 15 0.0288487
9 16 100 15 0.0483433
10 16 100 15 0.0957248
11 16 100 15 0.0820478
12 16 100 15 0.0888141
13 16 100 15 0.0991523
14 16 100 15 0.140529
15 16 100 15 0.194286
1 17 100 15 0.0203984
2 17 100 15 0.000848484
3 17 100 15 0.00967788
4 17 100 15 0.0213767
5 17 100 15 0.0237966
6 17 100 15 0.0559171
7 17 100 15 0.0385661
8 17 100 15 0.0351854
9 17 100 15 0.105084
10 17 100 15 0.0972815
11 17 100 15 0.116241
12 17 100 15 0.0804742
13 17 100 15 0.0802441
14 17 100 15 0.0976671
15 17 100 15 0.217241
1 18 100 15 0.0422434
2 18 100 15 0.0811796
3 18 100 15 0.0822362
4 18 100 15 0.0414381
5 18 100 15 0.0521626
6 18 100 15 0.0163209
7 18 100 15 0.0484244
8 18 100 15 0.000352333
9 18 100 15 0.00100335
10 18 100 15 0.0465697
11 18 100 15 0.0550803
12 18 100 15 0.131402
13 18 100 15 0.0829876
14 18 100 15 0.096397
15 18 100 15 0.222202
1 19 100 15 0.059414
2 19 100 15 0.0361474
3 19 100 15 0.0022182
4 19 100 15 0.0332671
5 19 100 15 0.0296605
6 19 100 15 0.0165434
7 19 100 15 0.0558342
8 19 100 15 0.0829793
9 19 100 15 0.0504394
10 19 100 15 0.00264163
11 19 100 15 0.103326
12 19 100 15 0.120935
13 19 100 15 0.0816994
14 19 100 15 0.117197
15 19 100 15 0.207697
1 20 100 15 0.0423614
2 20 100 15 0.00723031
3 20 100 15 0.0433963
4 20 100 15 0.078451
5 20 100 15 0.0846986
6 20 100 15 0.105167
7 20 100 15 0.0608606
8 20 100 15 0.00323705
9 20 100 15 0.0906516
10 20 100 15 0.0239373
11 20 100 15 0.0426454
12 20 100 15 0.00955774
13 20 100 15 0.034811
14 20 100 15 0.130843
15 20 100 15 0.242153
1 21 100 15 0.0196205
2 21 100 15 0.0153468
3 21 100 15 0.191986
4 21 100 15 0.0966908
5 21 100 15 2.75796e-05
6 21 100 15 0.0976981
7 21 100 15 4.05575e-05
8 21 100 15 0.00055518
9 21 100 15 0.23594
10 21 100 15 0.099795
11 21 100 15 1.11502e-05
12 21 100 15 0.206355
13 21 100 15 0.0349913
14 21 100 15 8.42967e-07
15 21 100 15 0.000940711
1 22 100 15 2.65937e-05
2 22 100 15 7.95667e-05
3 22 100 15 0.0467028
4 22 100 15 2.32318e-06
5 22 100 15 0.058439
6 22 100 15 0.071374
7 22 100 15 0.0436415
8 22 100 15 0.0473855
9 22 100 15 0.0866596
10 22 100 15 0.0892368
11 22 100 15 0.171241
12 22 100 15 0.00849225
13 22 100 15 0.0999425
14 22 100 15 0.108732
15 22 100 15 0.168044
1 23 100 15 1.38891e-07
2 23 100 15 2.20307e-06
3 23 100 15 0.0244987
4 23 100 15 3.64289e-05
5 23 100 15 0.00030358
6 23 100 15 4.07551e-05
7 23 100 15 1.54284e-05
8 23 100 15 5.42283e-05
9 23 100 15 4.53164e-06
10 23 100 15 0.136372
11 23 100 15 0.138589
12 23 100 15 0.138705
13 23 100 15 0.284007
14 23 100 15 0.000131027
15 23 100 15 0.27724
1 24 100 15 0.000223388
5 24 100 15 8.88974e-07
7 24 100 15 2.93431e-06
8 24 100 15 8.88974e-07
11 24 100 15 6.16378e-07
12 24 100 15 0.000446768
13 24 100 15 1.17701e-06
14 24 100 15 0.99869
15 24 100 15 0.00063385
1 25 100 15 0.0104311
2 25 100 15 2.94473e-06
4 25 100 15 1.25929e-06
8 25 100 15 4.37605e-06
9 25 100 15 9.00283e-06
11 25 100 15 6.00527e-06
12 25 100 15 0.000132352
15 25 100 15 0.989413
2 26 100 15 0.00466832
9 26 100 15 0.222996
11 26 100 15 0.772336
2 28 100 15 0.0604445
5 28 100 15 0.0112016
9 28 100 15 0.926001
11 28 100 15 0.00235279
5 29 100 15 0.980315
11 29 100 15 0.0196851
2 30 100 15 0.00120657
3 30 100 15 0.00162452
9 30 100 15 0.0161245
11 30 100 15 0.00360965
14 30 100 15 0.977435
3 31 100 15 0.966285
5 31 100 15 0.0334949
11 31 100 15 3.40661e-05
15 31 100 15 0.000185852
7 32 100 15 1.20379e-06
10 32 100 15 0.502101
14 32 100 15 0.497794
15 32 100 15 0.000104051
5 33 100 15 1
7 34 100 15 0.00187168
8 34 100 15 0.994121
9 34 100 15 9.46887e-05
10 34 100 15 3.19029e-05
12 34 100 15 0.000894757
13 34 100 15 0.000518904
14 34 100 15 1.96373e-05
15 34 100 15 0.00244734
3 35 100 15 0.998051
5 35 100 15 0.00194939
5 36 100 15 0.00529293
11 36 100 15 0.994498
12 36 100 15 0.000209497
12 37 100 15 1
13 38 100 15 0.999954
14 38 100 15 4.55459e-05
5 39 100 15 0.999798
14 39 100 15 2.69224e-06
15 39 100 15 0.000198995
14 41 100 15 1
1 0 100 16 0.000601213
2 0 100 16 0.0474838
3 0 100 16 0.0552748
4 0 100 16 0.0715716
5 0 100 16 0.0732357
6 0 100 16 0.0717621
7 0 100 16 0.0734502
8 0 100 16 0.0708029
9 0 100 16 0.0728968
10 0 100 16 0.0659902
11 0 100 16 0.07672
12 0 100 16 0.0804849
13 0 100 16 0.0681535
14 0 100 16 0.101222
15 0 100 16 0.0703471
16 0 100 16 3.13835e-06
1 1 100 16 0.824951
2 1 100 16 0.0537633
3 1 100 16 0.0512918
4 1 100 16 0.0163366
5 1 100 16 0.0107183
6 1 100 16 0.0141852
7 1 100 16 0.0106103
8 1 100 16 0.0053991
9 1 100 16 0.00358708
10 1 100 16 0.00533301
11 1 100 16 0.00178327
12 1 100 16 0.0020377
13 1 100 16 1.74323e-06
14 1 100 16 1.92643e-06
1 2 100 16 0.0370888
2 2 100 16 0.579361
3 2 100 16 0.144087
4 2 100 16 0.062721
5 2 100 16 0.0571173
6 2 100 16 0.0266269
7 2 100 16 0.0111576
8 2 100 16 0.0208541
9 2 100 16 0.0151582
10 2 100 16 0.00661709
11 2 100 16 0.00659641
12 2 100 16 0.0109631
13 2 100 16 0.00676803
14 2 100 16 0.00451961
15 2 100 16 0.00600192
16 2 100 16 0.00436214
1 3 100 16 0.0272579
2 3 100 16 0.152375
3 3 100 16 0.365204
4 3 100 16 0.141617
5 3 100 16 0.0810729
6 3 100 16 0.0581109
7 3 100 16 0.0494909
8 3 100 16 0.0375989
9 3 100 16 0.0113883
10 3 100 16 0.0276561
11 3 100 16 0.00911759
12 3 100 16 0.0118175
13 3 100 16 0.00621529
14 3 100 16 0.00757405
15 3 100 16 0.00560081
16 3 100 16 0.00790344
1 4 100 16 0.0193894
2 4 100 16 0.0793674
3 4 100 16 0.1609
4 4 100 16 0.234226
5 4 100 16 0.134839
6 4 100 16 0.082947
7 4 100 16 0.0726578
8 4 100 16 0.0483876
9 4 100 16 0.0335255
10 4 100 16 0.0202973
11 4 100 16 0.0296304
12 4 100 16 0.0134273
13 4 100 16 0.0154336
14 4 100 16 0.0193185
15 4 100 16 0.0222304
16 4 100 16 0.0134231
1 5 100 16 0.0134536
2 5 100 16 0.019381
3 5 100 16 0.0667414
4 5 100 16 0.137317
5 5 100 16 0.197203
6 5 100 16 0.15688
7 5 100 16 0.119057
8 5 100 16 0.0665607
9 5 100 16 0.0559841
10 5 100 16 0.0497423
11 5 100 16 0.0207965
12 5 100 16 0.0252596
13 5 100 16 0.0207059
14 5 100 16 0.0174774
15 5 100 16 0.0146667
16 5 100 16 0.0187744
1 6 100 16 0.0111344
2 6 100 16 0.0403088
3 6 100 16 0.0621118
4 6 100 16 0.0814166
5 6 100 16 0.107345
6 6 100 16 0.150703
7 6 100 16 0.139634
8 6 100 16 0.0941195
9 6 100 16 0.0786408
10 6 100 16 0.0553499
11 6 100 16 0.0516844
12 6 100 16 0.0294627
13 6 100 16 0.0313974
14 6 100 16 0.0341312
15 6 100 16 0.0132934
16 6 100 16 0.0192671
1 7 100 16 0.00303286
2 7 100 16 0.0186147
3 7 100 16 0.0390008
4 7 100 16 0.0561854
5 7 100 16 0.0858158
6 7 100 16 0.0859137
7 7 100 16 0.144628
8 7 100 16 0.136661
9 7 100 16 0.112044
10 7 100 16 0.0963643
11 7 100 16 0.0705192
12 7 100 16 0.0557013
13 7 100 16 0.0335966
14 7 100 16 0.0298329
15 7 100 16 0.0170999
16 7 100 16 0.0149901
1 8 100 16 0.00646478
2 8 100 16 0.0193908
3 8 100 16 0.0177136
4 8 100 16 0.040469
5 8 100 16 0.0411984
6 8 100 16 0.0808693
7 8 100 16 0.0782772
8 8 100 16 0.152975
9 8 100 16 0.1142
10 8 100 16 0.110524
11 8 100 16 0.108274
12 8 100 16 0.0737417
13 8 100 16 0.0636369
14 8 100 16 0.0298364
15 8 100 16 0.0338373
16 8 100 16 0.0285918
1 9 100 16 0.00871316
2 9 100 16 0.0197691
3 9 100 16 0.0258386
4 9 100 16 0.0220347
5 9 100 16 0.0295757
6 9 100 16 0.033806
7 9 100 16 0.0709355
8 9 100 16 0.0988097
9 9 100 16 0.153974
10 9 100 16 0.133517
11 9 100 16 0.0879717
12 9 100 16 0.0902021
13 9 100 16 0.0752916
14 9 100 16 0.0498514
15 9 100 16 0.0452506
16 9 100 16 0.0544588
1 10 100 16 0.0161465
2 10 100 16 0.0098593
3 10 100 16 0.0179789
4 10 100 16 0.0369275
5 10 100 16 0.0368799
6 10 100 16 0.0530379
7 10 100 16 0.057749
8 10 100 16 0.0683525
9 10 100 16 0.0736581
10 10 100 16 0.114752
11 10 100 16 0.113133
12 10 100 16 0.115263
13 10 100 16 0.100355
14 10 100 16 0.0620816
15 10 100 16 0.0589147
16 10 100 16 0.0649117
1 11 100 16 0.0172789
2 11 100 16 0.0209123
3 11 100 16 0.0253393
4 11 100 16 0.0190209
5 11 100 16 0.0490653
6 11 100 16 0.0298432
7 11 100 16 0.0310128
8 11 100 16 0.0362206
9 11 100 16 0.0666016
10 11 100 16 0.0869075
11 11 100 16 0.104274
12 11 100 16 0.119158
13 11 100 16 0.121429
14 11 100 16 0.0847974
15 11 100 16 0.0987698
16 11 100 16 0.0893702
1 12 100 16 0.0106821
2 12 100 16 0.0162644
3 12 100 16 0.0290256
4 12 100 16 0.0317626
5 12 100 16 0.0280771
6 12 100 16 0.049154
7 12 100 16 0.0436052
8 12 100 16 0.0406161
9 12 100 16 0.0549431
10 12 100 16 0.0694973
11 12 100 16 0.0802848
12 12 100 16 0.0915778
13 12 100 16 0.103103
14 12 100 16 0.113731
15 12 100 16 0.102856
16 12 100 16 0.134821
1 13 100 16 0.00950988
2 13 100 16 0.0166746
3 13 100 16 0.0265476
4 13 100 16 0.0351712
5 13 100 16 0.0322414
6 13 100 16 0.021256
7 13 100 16 0.0243889
8 13 100 16 0.043595
9 13 100 16 0.0604121
10 13 100 16 0.0553198
11 13 100 16 0.0680789
12 13 100 16 0.0989852
13 13 100 16 0.148487
14 13 100 16 0.097278
15 13 100 16 0.140452
16 13 100 16 0.121603
1 14 100 16 0.0274663
2 14 100 16 0.0170025
3 14 100 16 0.0248878
4 14 100 16 0.0286679
5 14 100 16 0.0384513
6 14 100 16 0.0452927
7 14 100 16 0.0441156
8 14 100 16 0.0461238
9 14 100 16 0.0411238
10 14 100 16 0.0535457
11 14 100 16 0.0701788
12 14 100 16 0.0672678
13 14 100 16 0.0951655
14 14 100 16 0.11256
15 14 100 16 0.120627
16 14 100 16 0.167523
1 15 100 16 0.0177941
2 15 100 16 0.0330527
3 15 100 16 0.0167433
4 15 100 16 0.0326559
5 15 100 16 0.032672
6 15 100 16 0.045817
7 15 100 16 0.038817
8 15 100 16 0.0342469
9 15 100 16 0.051914
10 15 100 16 0.0510969
11 15 100 16 0.0561314
12 15 100 16 0.0635449
13 15 100 16 0.086941
14 15 100 16 0.0989862
15 15 100 16 0.138218
16 15 100 16 0.201369
1 16 100 16 0.020024
2 16 100 16 0.0155019
3 16 100 16 0.0502432
4 16 100 16 0.0377433
5 16 100 16 0.0237697
6 16 100 16 0.0279127
7 16 100 16 0.0387316
8 16 100 16 0.0599147
9 16 100 16 0.0397678
10 16 100 16 0.0343239
11 16 100 16 0.0574737
12 16 100 16 0.0615273
13 16 100 16 0.0616459
14 16 100 16 0.117575
15 16 100 16 0.149886
16 16 100 16 0.20396
1 17 100 16 0.0150435
2 17 100 16 0.0105505
3 17 100 16 0.0331832
4 17 100 16 0.0376205
5 17 100 16 0.0300716
6 17 100 16 0.0425186
7 17 100 16 0.000150795
8 17 100 16 0.0354029
9 17 100 16 0.0476335
10 17 100 16 0.0649168
11 17 100 16 0.0754241
12 17 100 16 0.0738054
13 17 100 16 0.0913135
14 17 100 16 0.087338
15 17 100 16 0.153363
16 17 100 16 0.201664
1 18 100 16 0.0424054
2 18 100 16 0.0326036
3 18 100 16 0.0557066
4 18 100 16 0.0564647
5 18 100 16 0.0265663
6 18 100 16 0.060407
7 18 100 16 0.0479339
8 18 100 16 0.0238941
9 18 100 16 0.0392525
10 18 100 16 0.0250704
11 18 100 16 0.0367027
12 18 100 16 0.0863517
13 18 100 16 0.0743494
14 18 100 16 0.0750084
15 18 100 16 0.111579
16 18 100 16 0.205704
1 19 100 16 0.0388914
2 19 100 16 0.0477147
3 19 100 16 0.0340279
4 19 100 16 0.0247232
5 19 100 16 0.0691456
6 19 100 16 0.0585226
7 19 100 16 0.0766105
8 19 100 16 0.0266401
9 19 100 16 0.0506426
10 19 100 16 0.0548742
11 19 100 16 0.0519387
12 19 100 16 0.0204814
13 19 100 16 0.05216
14 19 100 16 0.0791245
15 19 100 16 0.117444
16 19 100 16 0.197059
1 20 100 16 5.48867e-07
2 20 100 16 4.53628e-05
3 20 100 16 0.000279031
4 20 100 16 0.000148361
5 20 100 16 0.000539062
6 20 100 16 0.000418116
7 20 100 16 0.00163489
8 20 100 16 0.0832196
9 20 100 16 0.0402212
10 20 100 16 0.0417761
11 20 100 16 0.0910136
12 20 100 16 0.0431561
13 20 100 16 0.0561554
14 20 100 16 0.201922
15 20 100 16 0.149255
16 20 100 16 0.290216
1 21 100 16 1.00584e-06
3 21 100 16 0.000164741
4 21 100 16 0.00092692
5 21 100 16 0.000470455
6 21 100 16 8.10185e-05
7 21 100 16 7.22697e-05
8 21 100 16 0.00024321
9 21 100 16 0.00149974
10 21 100 16 0.0916342
11 21 100 16 0.148752
12 21 100 16 0.00194296
13 21 100 16 2.45823e-05
14 21 100 16 0.0990967
15 21 100 16 0.349999
16 21 100 16 0.305092
1 22 100 16 4.29007e-05
4 22 100 16 0.0287058
5 22 100 16 0.00757441
6 22 100 16 0.00023778
7 22 100 16 0.0630263
8 22 100 16 0.0370543
9 22 100 16 0.0750025
10 22 100 16 0.0733995
11 22 100 16 0.0738176
12 22 100 16 0.109052
13 22 100 16 0.0593803
14 22 100 16 0.0709772
15 22 100 16 0.121321
16 22 100 16 0.280408
1 23 100 16 9.83994e-06
2 23 100 16 4.1191e-05
4 23 100 16 0.00237349
5 23 100 16 0.0636481
6 23 100 16 7.54528e-06
7 23 100 16 0.000909925
8 23 100 16 0.108943
9 23 100 16 0.0653319
10 23 100 16 0.115403
11 23 100 16 0.127529
12 23 100 16 0.0616136
13 23 100 16 0.175385
14 23 100 16 0.065574
15 23 100 16 0.000194081
16 23 100 16 0.213037
1 24 100 16 4.19761e-06
2 24 100 16 2.99882e-05
3 24 100 16 5.35476e-05
4 24 100 16 0.914473
5 24 100 16 0.000920186
8 24 100 16 1.21965e-05
9 24 100 16 0.00247071
10 24 100 16 1.75655e-05
11 24 100 16 0.000776237
12 24 100 16 7.25576e-05
14 24 100 16 0.0811669
15 24 100 16 2.68777e-06
4 25 100 16 0.992762
5 25 100 16 1.5157e-05
7 25 100 16 2.70785e-05
10 25 100 16 3.09353e-05
11 25 100 16 0.00408436
12 25 100 16 0.00025967
13 25 100 16 0.00244773
14 25 100 16 8.17351e-05
15 25 100 16 0.000291723
1 26 100 16 7.90507e-05
4 26 100 16 1.50352e-06
7 26 100 16 0.000183758
8 26 100 16 1.65874e-05
9 26 100 16 2.29812e-07
10 26 100 16 0.000146145
12 26 100 16 0.196354
13 26 100 16 0.199365
14 26 100 16 0.197901
15 26 100 16 0.202963
16 26 100 16 0.202989
7 27 100 16 1.10269e-06
9 27 100 16 4.64399e-06
13 27 100 16 0.999992
14 27 100 16 1.83972e-06
6 28 100 16 0.135391
8 28 100 16 0.0574046
9 28 100 16 0.0882167
10 28 100 16 0.148005
11 28 100 16 0.148005
12 28 100 16 0.00643196
13 28 100 16 3.66587e-06
14 28 100 16 0.123847
15 28 100 16 0.148
16 28 100 16 0.144697
1 0 100 17 3.84547e-05
2 0 100 17 0.0461039
3 0 100 17 0.0505527
4 0 100 17 0.0635366
5 0 100 17 0.0676426
6 0 100 17 0.0757284
7 0 100 17 0.0779165
8 0 100 17 0.0635353
9 0 100 17 0.0598962
10 0 100 17 0.0717094
11 0 100 17 0.073544
12 0 100 17 0.067363
13 0 100 17 0.0707048
14 0 100 17 0.0566547
15 0 100 17 0.0807361
16 0 100 17 0.0738516
17 0 100 17 0.000485774
1 1 100 17 0.791995
2 1 100 17 0.0582391
3 1 100 17 0.0376115
4 1 100 17 0.0251759
5 1 100 17 0.0206109
6 1 100 17 0.0179401
7 1 100 17 0.00128379
8 1 100 17 0.0129875
9 1 100 17 0.00809133
10 1 100 17 0.0064846
11 1 100 17 0.00985471
12 1 100 17 0.00323966
13 1 100 17 0.00162255
14 1 100 17 0.00324233
15 1 100 17 0.00162052
17 1 100 17 9.60207e-07
1 2 100 17 0.0453638
2 2 100 17 0.532299
3 2 100 17 0.137183
4 2 100 17 0.0734204
5 2 100 17 0.0518777
6 2 100 17 0.02708
7 2 100 17 0.0169186
8 2 100 17 0.0236629
9 2 100 17 0.0143809
10 2 100 17 0.0146666
11 2 100 17 0.0188715
12 2 100 17 0.0165409
13 2 100 17 0.00553438
14 2 100 17 0.0055443
15 2 100 17 0.00738327
16 2 100 17 0.00558131
17 2 100 17 0.00369097
1 3 100 17 0.0270919
2 3 100 17 0.122716
3 3 100 17 0.40055
4 3 100 17 0.138022
5 3 100 17 0.0864978
6 3 100 17 0.0430981
7 3 100 17 0.039019
8 3 100 17 0.0191644
9 3 100 17 0.027509
10 3 100 17 0.0267261
11 3 100 17 0.0133196
12 3 100 17 0.0148796
13 3 100 17 0.0210412
14 3 100 17 0.00989145
15 3 100 17 0.0103456
16 3 100 17 0.000104297
17 3 100 17 2.35438e-05
1 4 100 17 0.0102428
2 4 100 17 0.0564116
3 4 100 17 0.13511
4 4 100 17 0.250908
5 4 100 17 0.176958
6 4 100 17 0.108761
7 4 100 17 0.0657087
8 4 100 17 0.0557233
9 4 100 17 0.0381803
10 4 100 17 0.0206855
11 4 100 17 0.0211428
12 4 100 17 0.0199756
13 4 100 17 0.0196388
14 4 100 17 0.0109756
15 4 100 17 0.00228095
16 4 100 17 0.000698845
17 4 100 17 0.00659888
1 5 100 17 0.0181499
2 5 100 17 0.0656267
3 5 100 17 0.0858931
4 5 100 17 0.110985
5 5 100 17 0.174914
6 5 100 17 0.131041
7 5 100 17 0.113951
8 5 100 17 0.0744927
9 5 100 17 0.0638893
10 5 100 17 0.0273374
11 5 100 17 0.0240349
12 5 100 17 0.0187214
13 5 100 17 0.0271656
14 5 100 17 0.0212196
15 5 100 17 0.0228877
16 5 100 17 0.0078947
17 5 100 17 0.0117957
1 6 100 17 0.0202114
2 6 100 17 0.0278085
3 6 100 17 0.0550397
4 6 100 17 0.0792504
5 6 100 17 0.090395
6 6 100 17 0.133951
7 6 100 17 0.118784
8 6 100 17 0.117442
9 6 100 17 0.0756126
10 6 100 17 0.0645369
11 6 100 17 0.04855
12 6 100 17 0.0381524
13 6 100 17 0.0350779
14 6 100 17 0.0309966
15 6 100 17 0.0144287
16 6 100 17 0.0304016
17 6 100 17 0.019362
1 7 100 17 0.00184133
2 7 100 17 0.0153323
3 7 100 17 0.0445669
4 7 100 17 0.0481629
5 7 100 17 0.0654403
6 7 100 17 0.0935655
7 7 100 17 0.148319
8 7 100 17 0.120037
9 7 100 17 0.127267
10 7 100 17 0.101949
11 7 100 17 0.0565421
12 7 100 17 0.0471931
13 7 100 17 0.0311784
14 7 100 17 0.026842
15 7 100 17 0.0321782
16 7 100 17 0.0209894
17 7 100 17 0.0185958
1 8 100 17 0.00973255
2 8 100 17 0.0254657
3 8 100 17 0.0381874
4 8 100 17 0.05974
5 8 100 17 0.061161
6 8 100 17 0.0696484
7 8 100 17 0.0891826
8 8 100 17 0.130862
9 8 100 17 0.104242
10 8 100 17 0.0969588
11 8 100 17 0.066493
12 8 100 17 0.0504456
13 8 100 17 0.0615342
14 8 100 17 0.0381636
15 8 100 17 0.0344868
16 8 100 17 0.0381752
17 8 100 17 0.0255218
1 9 100 17 0.00795647
2 9 100 17 0.0166507
3 9 100 17 0.0344773
4 9 100 17 0.0385768
5 9 100 17 0.0376123
6 9 100 17 0.0528319
7 9 100 17 0.078448
8 9 100 17 0.100995
9 9 100 17 0.103534
10 9 100 17 0.0981046
11 9 100 17 0.110123
12 9 100 17 0.0808727
13 9 100 17 0.0583511
14 9 100 17 0.0707746
15 9 100 17 0.0302164
16 9 100 17 0.0465027
17 9 100 17 0.0339736
1 10 100 17 0.0164908
2 10 100 17 0.0271675
3 10 100 17 0.0292156
4 10 100 17 0.0377016
5 10 100 17 0.0545231
6 10 100 17 0.0435785
7 10 100 17 0.0350476
8 10 100 17 0.0624591
9 10 100 17 0.0875584
10 10 100 17 0.102087
11 10 100 17 0.101476
12 10 100 17 0.0816907
13 10 100 17 0.0756908
14 10 100 17 0.0698196
15 10 100 17 0.0712209
16 10 100 17 0.0488366
17 10 100 17 0.0554369
1 11 100 17 0.0103388
2 11 100 17 0.021216
3 11 100 17 0.0239451
4 11 100 17 0.0242048
5 11 100 17 0.0219023
6 11 100 17 0.0441982
7 11 100 17 0.0360149
8 11 100 17 0.0511343
9 11 100 17 0.0786796
10 11 100 17 0.0792755
11 11 100 17 0.099627
12 11 100 17 0.103454
13 11 100 17 0.0882484
14 11 100 17 0.0992308
15 11 100 17 0.0724726
16 11 100 17 0.0727256
17 11 100 17 0.0733322
1 12 100 17 0.00995215
2 12 100 17 0.011382
3 12 100 17 0.0179881
4 12 100 17 0.0222418
5 12 100 17 0.0229442
6 12 100 17 0.0259521
7 12 100 17 0.0283484
8 12 100 17 0.0395529
9 12 100 17 0.0471436
10 12 100 17 0.0606959
11 12 100 17 0.0700793
12 12 100 17 0.11903
13 12 100 17 0.101576
14 12 100 17 0.119901
15 12 100 17 0.113825
16 12 100 17 0.0751083
17 12 100 17 0.11428
1 13 100 17 0.0182175
2 13 100 17 0.0174277
3 13 100 17 0.020401
4 13 100 17 0.0218117
5 13 100 17 0.0258056
6 13 100 17 0.0364844
7 13 100 17 0.0338641
8 13 100 17 0.0288371
9 13 100 17 0.0469342
10 13 100 17 0.0458171
11 13 100 17 0.0651542
12 13 100 17 0.076378
13 13 100 17 0.119855
14 13 100 17 0.107637
15 13 100 17 0.107778
16 13 100 17 0.117952
17 13 100 17 0.109645
1 14 100 17 0.0165297
2 14 100 17 0.00894297
3 14 100 17 0.018589
4 14 100 17 0.0343286
5 14 100 17 0.0327396
6 14 100 17 0.0310354
7 14 100 17 0.0343003
8 14 100 17 0.0290467
9 14 100 17 0.0363485
10 14 100 17 0.0433204
11 14 100 17 0.0643377
12 14 100 17 0.0664683
13 14 100 17 0.0956656
14 14 100 17 0.107954
15 14 100 17 0.101165
16 14 100 17 0.116205
17 14 100 17 0.163022
1 15 100 17 0.0184768
2 15 100 17 0.018148
3 15 100 17 0.0208039
4 15 100 17 0.0357244
5 15 100 17 0.0195793
6 15 100 17 0.0312671
7 15 100 17 0.0362627
8 15 100 17 0.024938
9 15 100 17 0.0320711
10 15 100 17 0.0446459
11 15 100 17 0.0549148
12 15 100 17 0.0763093
13 15 100 17 0.0749002
14 15 100 17 0.100727
15 15 100 17 0.0860376
16 15 100 17 0.125118
17 15 100 17 0.200076
1 16 100 17 0.0275359
2 16 100 17 0.0128311
3 16 100 17 0.0259844
4 16 100 17 0.0257297
5 16 100 17 0.0418267
6 16 100 17 0.0250253
7 16 100 17 0.0314155
8 16 100 17 0.044287
9 16 100 17 0.0421519
10 16 100 17 0.0502014
11 16 100 17 0.0473917
12 16 100 17 0.07737
13 16 100 17 0.0922092
14 16 100 17 0.0849526
15 16 100 17 0.0964209
16 16 100 17 0.113511
17 16 100 17 0.161156
1 17 100 17 0.020552
2 17 100 17 0.00842044
3 17 100 17 0.0210174
4 17 100 17 0.0248859
5 17 100 17 0.0292161
6 17 100 17 0.0249128
7 17 100 17 0.0264225
8 17 100 17 0.0258894
9 17 100 17 0.0558839
10 17 100 17 0.059982
11 17 100 17 0.0615617
12 17 100 17 0.0876213
13 17 100 17 0.0440044
14 17 100 17 0.115834
15 17 100 17 0.103288
16 17 100 17 0.104988
17 17 100 17 0.18552
1 18 100 17 0.0063221
2 18 100 17 0.0108622
3 18 100 17 0.0108538
4 18 100 17 0.0119531
5 18 100 17 0.0218108
6 18 100 17 0.0325862
7 18 100 17 0.0275629
8 18 100 17 0.0495976
9 18 100 17 0.0453279
10 18 100 17 0.0482351
11 18 100 17 0.0770302
12 18 100 17 0.0617346
13 18 100 17 0.0826071
14 18 100 17 0.0604502
15 18 100 17 0.141411
16 18 100 17 0.117217
17 18 100 17 0.194439
1 19 100 17 0.0229288
2 19 100 17 0.000117966
3 19 100 17 0.0118229
4 19 100 17 0.00209423
5 19 100 17 0.0106913
6 19 100 17 0.0268552
7 19 100 17 0.0129694
8 19 100 17 0.00839629
9 19 100 17 0.030627
10 19 100 17 0.046806
11 19 100 17 0.0274651
12 19 100 17 0.0688194
13 19 100 17 0.0383834
14 19 100 17 0.0940239
15 19 100 17 0.121293
16 19 100 17 0.229432
17 19 100 17 0.247274
1 20 100 17 0.00260341
2 20 100 17 0.0135686
3 20 100 17 0.00166911
4 20 100 17 0.00384777
5 20 100 17 0.0213786
6 20 100 17 0.0371504
7 20 100 17 0.0522465
8 20 100 17 0.0358651
9 20 100 17 0.0820863
10 20 100 17 0.0575985
11 20 100 17 0.0938494
12 20 100 17 0.0392311
13 20 100 17 0.0614897
14 20 100 17 0.116706
15 20 100 17 0.0788965
16 20 100 17 0.113261
17 20 100 17 0.188552
1 21 100 17 0.0245091
2 21 100 17 0.0350741
3 21 100 17 0.0524026
4 21 100 17 0.0355266
5 21 100 17 0.0341441
6 21 100 17 0.0334771
7 21 100 17 0.0483856
8 21 100 17 0.0809024
9 21 100 17 0.0408177
10 21 100 17 0.0329873
11 21 100 17 0.0395688
12 21 100 17 0.0530628
13 21 100 17 0.0526841
14 21 100 17 0.0377334
15 21 100 17 0.0333291
16 21 100 17 0.123076
17 21 100 17 0.24232
1 22 100 17 0.0569524
2 22 100 17 3.3089e-05
3 22 100 17 0.00282557
4 22 100 17 0.0574749
5 22 100 17 0.056921
6 22 100 17 0.0584317
7 22 100 17 0.0572458
8 22 100 17 0.0287999
9 22 100 17 0.0290914
10 22 100 17 0.0288409
11 22 100 17 0.028711
12 22 100 17 0.0578092
13 22 100 17 0.131425
14 22 100 17 0.0573968
15 22 100 17 0.0343151
16 22 100 17 0.0409126
17 22 100 17 0.272814
1 23 100 17 0.000133276
2 23 100 17 8.87244e-06
3 23 100 17 0.0939884
4 23 100 17 0.000223558
5 23 100 17 2.53787e-05
6 23 100 17 0.0952383
7 23 100 17 8.33928e-05
8 23 100 17 0.00063052
9 23 100 17 0.101673
10 23 100 17 0.208042
11 23 100 17 0.0920774
12 23 100 17 0.0929114
13 23 100 17 3.37559e-05
14 23 100 17 0.188859
15 23 100 17 0.0960625
16 23 100 17 0.00814685
17 23 100 17 0.0218625
1 24 100 17 6.16513e-07
2 24 100 17 1.97344e-05
3 24 100 17 5.05498e-06
4 24 100 17 0.00711122
5 24 100 17 0.00010913
6 24 100 17 0.00498103
7 24 100 17 0.000502315
8 24 100 17 5.28623e-05
9 24 100 17 0.00509793
10 24 100 17 0.00813444
11 24 100 17 9.55592e-05
12 24 100 17 0.00218076
14 24 100 17 1.19412e-05
15 24 100 17 0.471256
16 24 100 17 0.470253
17 24 100 17 0.030189
1 25 100 17 3.58519e-05
2 25 100 17 0.000114148
4 25 100 17 1.9054e-05
5 25 100 17 2.07294e-05
6 25 100 17 4.87819e-05
7 25 100 17 0.0752064
8 25 100 17 0.175224
9 25 100 17 0.0737706
10 25 100 17 0.147664
11 25 100 17 1.10619e-06
12 25 100 17 0.00208895
13 25 100 17 0.0750983
14 25 100 17 0.070698
15 25 100 17 0.00343562
16 25 100 17 0.155038
17 25 100 17 0.221536
1 26 100 17 0.154058
2 26 100 17 0.000537736
3 26 100 17 1.20591e-06
4 26 100 17 3.08139e-06
5 26 100 17 0.0184705
6 26 100 17 4.43562e-05
8 26 100 17 0.00022112
9 26 100 17 7.38415e-07
11 26 100 17 7.53628e-07
12 26 100 17 5.40761e-06
13 26 100 17 7.58583e-07
14 26 100 17 2.97769e-07
15 26 100 17 0.174293
16 26 100 17 0.165741
17 26 100 17 0.486623
1 27 100 17 0.0381797
2 27 100 17 7.89922e-07
3 27 100 17 0.181175
4 27 100 17 0.181217
5 27 100 17 0.125439
6 27 100 17 0.184851
7 27 100 17 0.00117486
8 27 100 17 5.95056e-07
9 27 100 17 0.000275527
12 27 100 17 0.00011514
13 27 100 17 0.0717717
14 27 100 17 0.000169497
15 27 100 17 2.6416e-06
16 27 100 17 0.181174
17 27 100 17 0.0344528
6 28 100 17 5.93144e-05
8 28 100 17 1.08124e-06
9 28 100 17 1.09156e-06
11 28 100 17 7.37026e-07
14 28 100 17 0.433592
15 28 100 17 0.566346
6 29 100 17 0.991779
8 29 100 17 3.06776e-05
9 29 100 17 0.00387628
12 29 100 17 0.000879648
15 29 100 17 0.00343456
1 30 100 17 3.05012e-05
4 30 100 17 0.000244451
12 30 100 17 0.0129704
16 30 100 17 0.986755
6 31 100 17 3.87628e-06
17 31 100 17 0.999996
5 32 100 17 0.00224781
7 32 100 17 0.525475
13 32 100 17 2.87664e-05
14 32 100 17 0.472158
15 32 100 17 2.94671e-05
17 32 100 17 6.16538e-05
6 33 100 17 0.0943953
8 33 100 17 0.151414
15 33 100 17 0.75419
6 34 100 17 0.00163875
8 34 100 17 0.977219
9 34 100 17 0.0209611
11 34 100 17 1.51201e-05
12 34 100 17 9.49436e-05
15 34 100 17 7.13722e-05
2 35 100 17 1.26088e-06
6 35 100 17 6.47224e-05
8 35 100 17 8.86634e-06
9 35 100 17 0.0010538
10 35 100 17 0.99883
11 35 100 17 2.92483e-05
12 35 100 17 1.25068e-05
6 36 100 17 0.00480827
8 36 100 17 9.96069e-06
9 36 100 17 0.00302443
11 36 100 17 0.475679
12 36 100 17 0.516445
15 36 100 17 3.3596e-05
6 37 100 17 1.63515e-05
9 37 100 17 3.7171e-06
11 37 100 17 2.68221e-05
12 37 100 17 0.00021708
13 37 100 17 0.999734
14 37 100 17 1.57657e-06
6 38 100 17 2.96974e-05
14 38 100 17 0.0260465
15 38 100 17 0.973924
1 0 100 18 4.96608e-05
2 0 100 18 0.0438175
3 0 100 18 0.054202
4 0 100 18 0.0570886
5 0 100 18 0.0645456
6 0 100 18 0.0618096
7 0 100 18 0.0633209
8 0 100 18 0.0741664
9 0 100 18 0.0616563
10 0 100 18 0.0588142
11 0 100 18 0.0541812
12 0 100 18 0.0653742
13 0 100 18 0.0739162
14 0 100 18 0.059545
15 0 100 18 0.0569771
16 0 100 18 0.0808503
17 0 100 18 0.0696843
18 0 100 18 1.26163e-06
1 1 100 18 0.798595
2 1 100 18 0.0736835
3 1 100 18 0.0439299
4 1 100 18 0.0190483
5 1 100 18 0.01037
6 1 100 18 0.0133559
7 1 100 18 0.0118625
8 1 100 18 0.00342093
9 1 100 18 0.00347231
10 1 100 18 0.00172129
11 1 100 18 0.00342471
12 1 100 18 0.0051262
13 1 100 18 0.00171253
14 1 100 18 0.00171312
15 1 100 18 0.00342511
16 1 100 18 0.0034254
17 1 100 18 5.17884e-07
18 1 100 18 0.0017123
1 2 100 18 0.0348601
2 2 100 18 0.495293
3 2 100 18 0.122439
4 2 100 18 0.0935804
5 2 100 18 0.0555362
6 2 100 18 0.033075
7 2 100 18 0.0280783
8 2 100 18 0.0257464
9 2 100 18 0.0337358
10 2 100 18 0.0128484
11 2 100 18 0.0218181
12 2 100 18 0.0126638
13 2 100 18 0.00780634
14 2 100 18 0.0109926
15 2 100 18 0.00542537
16 2 100 18 0.00243329
17 2 100 18 0.0036645
18 2 100 18 2.6616e-06
1 3 100 18 0.0370199
2 3 100 18 0.105242
3 3 100 18 0.383371
4 3 100 18 0.158601
5 3 100 18 0.0799108
6 3 100 18 0.0444272
7 3 100 18 0.0437787
8 3 100 18 0.0280431
9 3 100 18 0.0269318
10 3 100 18 0.0389709
11 3 100 18 0.0293547
12 3 100 18 0.00276876
13 3 100 18 0.00520164
14 3 100 18 0.00601395
15 3 100 18 0.00513836
16 3 100 18 2.60091e-05
17 3 100 18 0.00263603
18 3 100 18 0.00256466
1 4 100 18 0.022733
2 4 100 18 0.0574834
3 4 100 18 0.127349
4 4 100 18 0.261649
5 4 100 18 0.150019
6 4 100 18 0.107509
7 4 100 18 0.0596341
8 4 100 18 0.0423296
9 4 100 18 0.034216
10 4 100 18 0.0241095
11 4 100 18 0.0120788
12 4 100 18 0.0186824
13 4 100 18 0.0169414
14 4 100 18 0.0162281
15 4 100 18 0.012614
16 4 100 18 0.0119858
17 4 100 18 0.0142815
18 4 100 18 0.0101562
1 5 100 18 0.0115726
2 5 100 18 0.0441363
3 5 100 18 0.0814596
4 5 100 18 0.121347
5 5 100 18 0.194748
6 5 100 18 0.150722
7 5 100 18 0.101873
8 5 100 18 0.0641361
9 5 100 18 0.0363015
10 5 100 18 0.0425473
11 5 100 18 0.0351542
12 5 100 18 0.0214584
13 5 100 18 0.0254315
14 5 100 18 0.0194001
15 5 100 18 0.0127611
16 5 100 18 0.00976673
17 5 100 18 0.0146524
18 5 100 18 0.0125328
1 6 100 18 0.0108986
2 6 100 18 0.0419689
3 6 100 18 0.0536219
4 6 100 18 0.0749107
5 6 100 18 0.120837
6 6 100 18 0.142882
7 6 100 18 0.136288
8 6 100 18 0.108335
9 6 100 18 0.0925568
10 6 100 18 0.0457481
11 6 100 18 0.0386095
12 6 100 18 0.0351488
13 6 100 18 0.0296965
14 6 100 18 0.0222833
15 6 100 18 0.0195178
16 6 100 18 0.0175023
17 6 100 18 0.00140927
18 6 100 18 0.0077848
1 7 100 18 0.00180234
2 7 100 18 0.0096252
3 7 100 18 0.0252288
4 7 100 18 0.0303841
5 7 100 18 0.0699069
6 7 100 18 0.109291
7 7 100 18 0.145043
8 7 100 18 0.129113
9 7 100 18 0.113951
10 7 100 18 0.104801
11 7 100 18 0.0717762
12 7 100 18 0.0480809
13 7 100 18 0.0254468
14 7 100 18 0.033908
15 7 100 18 0.0218705
16 7 100 18 0.0208769
17 7 100 18 0.0273636
18 7 100 18 0.0115303
1 8 100 18 0.012172
2 8 100 18 0.021272
3 8 100 18 0.0337827
4 8 100 18 0.0438402
5 8 100 18 0.04452
6 8 100 18 0.0695075
7 8 100 18 0.0883838
8 8 100 18 0.128213
9 8 100 18 0.13645
10 8 100 18 0.112337
11 8 100 18 0.0787915
12 8 100 18 0.0753464
13 8 100 18 0.0530083
14 8 100 18 0.0346406
15 8 100 18 0.0162521
16 8 100 18 0.0127515
17 8 100 18 0.0265328
18 8 100 18 0.0121994
1 9 100 18 0.0105312
2 9 100 18 0.0108237
3 9 100 18 0.0187213
4 9 100 18 0.023784
5 9 100 18 0.0399607
6 9 100 18 0.0499285
7 9 100 18 0.0720838
8 9 100 18 0.071207
9 9 100 18 0.102642
10 9 100 18 0.113482
11 9 100 18 0.110373
12 9 100 18 0.099328
13 9 100 18 0.0668377
14 9 100 18 0.0595636
15 9 100 18 0.0522547
16 9 100 18 0.0322145
17 9 100 18 0.0278981
18 9 100 18 0.0383662
1 10 100 18 0.00565488
2 10 100 18 0.0126786
3 10 100 18 0.0154009
4 10 100 18 0.0263129
5 10 100 18 0.0290307
6 10 100 18 0.0363327
7 10 100 18 0.035914
8 10 100 18 0.0687235
9 10 100 18 0.0739853
10 10 100 18 0.0847283
11 10 100 18 0.116037
12 10 100 18 0.0955946
13 10 100 18 0.0967371
14 10 100 18 0.0775543
15 10 100 18 0.0772376
16 10 100 18 0.0517181
17 10 100 18 0.0524237
18 10 100 18 0.0439355
1 11 100 18 0.00926352
2 11 100 18 0.0165421
3 11 100 18 0.020702
4 11 100 18 0.0196559
5 11 100 18 0.0255914
6 11 100 18 0.0356338
7 11 100 18 0.0462426
8 11 100 18 0.0470974
9 11 100 18 0.0584279
10 11 100 18 0.0883382
11 11 100 18 0.092727
12 11 100 18 0.086766
13 11 100 18 0.0831124
14 11 100 18 0.10681
15 11 100 18 0.0736145
16 11 100 18 0.0689402
17 11 100 18 0.0565594
18 11 100 18 0.0639758
1 12 100 18 0.00812637
2 12 100 18 0.012794
3 12 100 18 0.0249533
4 12 100 18 0.0284403
5 12 100 18 0.0269239
6 12 100 18 0.0307792
7 12 100 18 0.0315178
8 12 100 18 0.0405518
9 12 100 18 0.0448579
10 12 100 18 0.047035
11 12 100 18 0.0720257
12 12 100 18 0.0810616
13 12 100 18 0.094289
14 12 100 18 0.109862
15 12 100 18 0.104093
16 12 100 18 0.0927868
17 12 100 18 0.0603165
18 12 100 18 0.0895852
1 13 100 18 0.00773573
2 13 100 18 0.0105568
3 13 100 18 0.0141235
4 13 100 18 0.0168859
5 13 100 18 0.0240698
6 13 100 18 0.0270076
7 13 100 18 0.0367053
8 13 100 18 0.0368829
9 13 100 18 0.0445525
10 13 100 18 0.0595662
11 13 100 18 0.0746507
12 13 100 18 0.0894065
13 13 100 18 0.0826021
14 13 100 18 0.0970088
15 13 100 18 0.0950169
16 13 100 18 0.101556
17 13 100 18 0.091233
18 13 100 18 0.0904398
1 14 100 18 0.0203598
2 14 100 18 0.022112
3 14 100 18 0.032656
4 14 100 18 0.0142031
5 14 100 18 0.0198685
6 14 100 18 0.0301587
7 14 100 18 0.0202803
8 14 100 18 0.0177303
9 14 100 18 0.0285833
10 14 100 18 0.048633
11 14 100 18 0.0523013
12 14 100 18 0.0797498
13 14 100 18 0.0817317
14 14 100 18 0.0807344
15 14 100 18 0.100648
16 14 100 18 0.115508
17 14 100 18 0.0978225
18 14 100 18 0.13692
1 15 100 18 0.0158268
2 15 100 18 0.00987949
3 15 100 18 0.01629
4 15 100 18 0.0144691
5 15 100 18 0.0186844
6 15 100 18 0.0255628
7 15 100 18 0.018987
8 15 100 18 0.0278336
9 15 100 18 0.0263759
10 15 100 18 0.0381316
11 15 100 18 0.0605871
12 15 100 18 0.0616511
13 15 100 18 0.0850921
14 15 100 18 0.0832453
15 15 100 18 0.121992
16 15 100 18 0.0997329
17 15 100 18 0.128097
18 15 100 18 0.147562
1 16 100 18 0.019836
2 16 100 18 0.0199519
3 16 100 18 0.0321631
4 16 100 18 0.022594
5 16 100 18 0.0114398
6 16 100 18 0.0152234
7 16 100 18 0.0366645
8 16 100 18 0.0334615
9 16 100 18 0.0260821
10 16 100 18 0.0313231
11 16 100 18 0.0432397
12 16 100 18 0.0476479
13 16 100 18 0.0541222
14 16 100 18 0.0759258
15 16 100 18 0.102859
16 16 100 18 0.112165
17 16 100 18 0.145609
18 16 100 18 0.169692
1 17 100 18 0.0146801
2 17 100 18 0.00660121
3 17 100 18 0.00632857
4 17 100 18 0.0131261
5 17 100 18 0.0284266
6 17 100 18 0.0224211
7 17 100 18 0.0286289
8 17 100 18 0.0221351
9 17 100 18 0.0588982
10 17 100 18 0.0527348
11 17 100 18 0.0418056
12 17 100 18 0.0379628
13 17 100 18 0.0594239
14 17 100 18 0.0752286
15 17 100 18 0.115908
16 17 100 18 0.103335
17 17 100 18 0.113411
18 17 100 18 0.198945
1 18 100 18 0.0237232
2 18 100 18 0.0255609
3 18 100 18 0.0142471
4 18 100 18 0.028754
5 18 100 18 0.0152416
6 18 100 18 0.0251073
7 18 100 18 0.0148013
8 18 100 18 0.00551127
9 18 100 18 0.0150845
10 18 100 18 0.00517352
11 18 100 18 0.0352558
12 18 100 18 0.0502908
13 18 100 18 0.0635569
14 18 100 18 0.0693342
15 18 100 18 0.0836271
16 18 100 18 0.127434
17 18 100 18 0.169228
18 18 100 18 0.228069
1 19 100 18 0.0462547
2 19 100 18 0.0462347
3 19 100 18 0.040381
4 19 100 18 0.0458501
5 19 100 18 0.0399631
6 19 100 18 0.0614971
7 19 100 18 0.0394364
8 19 100 18 0.0293963
9 19 100 18 0.0133875
10 19 100 18 0.0440203
11 19 100 18 0.0269547
12 19 100 18 0.0360393
13 19 100 18 0.0644361
14 19 100 18 0.0658737
15 19 100 18 0.0641676
16 19 100 18 0.0458712
17 19 100 18 0.104582
18 19 100 18 0.185654
1 20 100 18 0.0538411
2 20 100 18 0.0398389
3 20 100 18 0.0171494
4 20 100 18 0.0273324
5 20 100 18 0.0100409
6 20 100 18 0.00970989
7 20 100 18 0.00951717
8 20 100 18 0.0289743
9 20 100 18 0.0303559
10 20 100 18 0.0557729
11 20 100 18 0.0405561
12 20 100 18 0.0593274
13 20 100 18 0.0347086
14 20 100 18 0.107399
15 20 100 18 0.109984
16 20 100 18 0.0982392
17 20 100 18 0.0590839
18 20 100 18 0.208168
1 21 100 18 0.025687
2 21 100 18 0.0139784
3 21 100 18 0.00397459
4 21 100 18 0.00017675
5 21 100 18 0.0120418
6 21 100 18 0.000621911
7 21 100 18 0.0135912
8 21 100 18 0.0333035
9 21 100 18 0.0464693
10 21 100 18 0.012845
11 21 100 18 0.0385669
12 21 100 18 0.0430123
13 21 100 18 0.0861954
14 21 100 18 0.119999
15 21 100 18 0.118268
16 21 100 18 0.0534615
17 21 100 18 0.127436
18 21 100 18 0.250372
1 22 100 18 0.0268353
2 22 100 18 0.0272655
3 22 100 18 1.29353e-05
4 22 100 18 0.0269101
5 22 100 18 0.0539354
6 22 100 18 0.0523431
7 22 100 18 0.0266766
8 22 100 18 0.0121038
9 22 100 18 0.0564465
10 22 100 18 0.0530886
11 22 100 18 0.0938365
12 22 100 18 0.136159
13 22 100 18 0.076191
14 22 100 18 0.0270239
15 22 100 18 0.031009
16 22 100 18 0.0338086
17 22 100 18 0.0790609
18 22 100 18 0.187294
1 23 100 18 0.0224067
2 23 100 18 4.69707e-07
3 23 100 18 5.0863e-05
4 23 100 18 0.0647756
5 23 100 18 0.0539222
6 23 100 18 0.000797335
7 23 100 18 0.0429759
8 23 100 18 0.0497729
9 23 100 18 0.0675643
10 23 100 18 0.067931
11 23 100 18 0.0243978
12 23 100 18 0.0367474
13 23 100 18 0.0317432
14 23 100 18 0.108654
15 23 100 18 0.0900924
16 23 100 18 0.0429386
17 23 100 18 0.081077
18 23 100 18 0.214153
1 24 100 18 0.079669
2 24 100 18 0.0829965
3 24 100 18 2.19244e-05
4 24 100 18 0.0203058
5 24 100 18 0.00188759
6 24 100 18 9.68989e-05
7 24 100 18 9.71744e-07
8 24 100 18 0.085177
9 24 100 18 0.000195396
10 24 100 18 0.000164592
11 24 100 18 0.000485472
12 24 100 18 0.0310156
13 24 100 18 0.000341146
14 24 100 18 0.102387
15 24 100 18 0.165847
16 24 100 18 0.166162
17 24 100 18 0.0928376
18 24 100 18 0.170408
1 25 100 18 0.0523955
2 25 100 18 1.28163e-06
3 25 100 18 0.0310372
5 25 100 18 2.37525e-05
6 25 100 18 7.67707e-05
7 25 100 18 0.000110166
8 25 100 18 0.000128361
9 25 100 18 0.0586372
10 25 100 18 0.0596783
11 25 100 18 3.24076e-05
12 25 100 18 0.0601769
13 25 100 18 0.00713558
14 25 100 18 0.0568675
15 25 100 18 0.128708
16 25 100 18 0.173841
17 25 100 18 0.19071
18 25 100 18 0.18044
1 26 100 18 0.070494
2 26 100 18 0.0438562
3 26 100 18 0.0760132
4 26 100 18 0.0368669
5 26 100 18 0.0364329
6 26 100 18 0.0728611
7 26 100 18 0.0746156
8 26 100 18 0.0727137
9 26 100 18 0.0737906
10 26 100 18 0.0727446
11 26 100 18 0.110791
12 26 100 18 0.0385542
13 26 100 18 0.0364037
14 26 100 18 0.0358081
15 26 100 18 4.78749e-05
16 26 100 18 0.000866668
17 26 100 18 0.0378742
18 26 100 18 0.109265
1 27 100 18 0.000157151
2 27 100 18 0.000195059
3 27 100 18 0.00385378
4 27 100 18 0.101641
5 27 100 18 4.50999e-07
6 27 100 18 0.0133903
7 27 100 18 8.13924e-07
8 27 100 18 1.95079e-05
9 27 100 18 2.91992e-05
10 27 100 18 0.124302
11 27 100 18 0.154155
12 27 100 18 0.00771285
13 27 100 18 0.260202
14 27 100 18 0.130726
15 27 100 18 2.8145e-05
16 27 100 18 0.136791
17 27 100 18 0.0657055
18 27 100 18 0.00109043
1 28 100 18 0.266699
2 28 100 18 0.00109007
3 28 100 18 3.28487e-06
4 28 100 18 7.46606e-06
5 28 100 18 1.1184e-06
6 28 100 18 0.00327466
7 28 100 18 0.229827
8 28 100 18 0.0020301
9 28 100 18 1.79163e-05
11 28 100 18 0.0457928
12 28 100 18 0.00396509
14 28 100 18 0.000894222
15 28 100 18 0.0076027
16 28 100 18 0.000262082
17 28 100 18 0.000100338
18 28 100 18 0.438432
2 29 100 18 0.0015574
5 29 100 18 0.111502
6 29 100 18 4.60411e-07
7 29 100 18 9.99316e-07
10 29 100 18 4.89237e-06
11 29 100 18 3.30895e-05
14 29 100 18 1.08086e-05
15 29 100 18 0.295351
16 29 100 18 0.295757
17 29 100 18 0.000139248
18 29 100 18 0.295643
1 30 100 18 5.02028e-05
3 30 100 18 8.13991e-06
6 30 100 18 0.00184857
7 30 100 18 1.96451e-05
8 30 100 18 0.00097541
9 30 100 18 7.87715e-05
11 30 100 18 9.40075e-05
13 30 100 18 1.59865e-06
14 30 100 18 4.0715e-05
16 30 100 18 8.55758e-05
17 30 100 18 9.98109e-05
18 30 100 18 0.996698
3 31 100 18 0.00463065
6 31 100 18 0.000670428
8 31 100 18 0.0408574
9 31 100 18 0.0100201
11 31 100 18 0.00116799
14 31 100 18 0.469935
16 31 100 18 0.472332
17 31 100 18 3.33118e-05
18 31 100 18 0.000352447
3 32 100 18 1.34631e-05
6 32 100 18 0.000970312
8 32 100 18 0.00290795
9 32 100 18 0.995779
11 32 100 18 0.00028952
16 32 100 18 3.94976e-05
3 33 100 18 1.41664e-06
4 33 100 18 2.31039e-05
6 33 100 18 2.96014e-05
8 33 100 18 0.000197435
9 33 100 18 1.88018e-06
10 33 100 18 0.998178
11 33 100 18 0.00146512
12 33 100 18 2.48661e-06
16 33 100 18 0.000101332
4 34 100 18 0.0012026
5 34 100 18 0.0912074
6 34 100 18 0.000183827
7 34 100 18 0.146678
8 34 100 18 0.144054
10 34 100 18 4.07792e-07
12 34 100 18 0.0160247
13 34 100 18 0.146678
14 34 100 18 0.146672
15 34 100 18 0.014809
16 34 100 18 0.00186831
17 34 100 18 0.143958
18 34 100 18 0.146663
6 35 100 18 2.99991e-05
8 35 100 18 0.000109746
9 35 100 18 8.70194e-05
11 35 100 18 0.999754
16 35 100 18 1.88941e-05
3 36 100 18 1.39513e-05
4 36 100 18 9.01104e-07
8 36 100 18 8.01303e-07
9 36 100 18 1.3475e-06
11 36 100 18 3.47332e-06
12 36 100 18 0.650508
14 36 100 18 0.349472
3 37 100 18 0.000466038
6 37 100 18 0.000294822
8 37 100 18 0.00313934
9 37 100 18 0.995942
11 37 100 18 9.6196e-05
16 37 100 18 6.13908e-05
3 38 100 18 9.85325e-05
5 38 100 18 1.69258e-05
6 38 100 18 4.40578e-05
9 38 100 18 5.28663e-06
15 38 100 18 0.999835
1 39 100 18 0.179088
2 39 100 18 0.393651
3 39 100 18 0.00307733
4 39 100 18 0.422457
5 39 100 18 0.000276985
7 39 100 18 6.00114e-07
8 39 100 18 0.00140375
18 39 100 18 4.48768e-05
16 47 100 18 1
1 0 100 19 7.33257e-05
2 0 100 19 0.0364012
3 0 100 19 0.0473769
4 0 100 19 0.055251
5 0 100 19 0.0637418
6 0 100 19 0.0612219
7 0 100 19 0.0588015
8 0 100 19 0.0602435
9 0 100 19 0.0489984
10 0 100 19 0.061052
11 0 100 19 0.0662172
12 0 100 19 0.0610251
13 0 100 19 0.0643668
14 0 100 19 0.0640636
15 0 100 19 0.0613367
16 0 100 19 0.0617805
17 0 100 19 0.0698359
18 0 100 19 0.0582099
19 0 100 19 2.90992e-06
1 1 100 19 0.792092
2 1 100 19 0.0629773
3 1 100 19 0.0372671
4 1 100 19 0.0218554
5 1 100 19 0.00849725
6 1 100 19 0.0163286
7 1 100 19 0.00661374
8 1 100 19 0.0110587
9 1 100 19 0.00781839
10 1 100 19 0.00485674
11 1 100 19 0.00646644
12 1 100 19 0.00496227
13 1 100 19 0.00772845
14 1 100 19 0.0034281
15 1 100 19 0.00326374
16 1 100 19 0.00313006
17 1 100 19 0.00165376
18 1 100 19 2.0409e-06
1 2 100 19 0.0542445
2 2 100 19 0.532111
3 2 100 19 0.138475
4 2 100 19 0.0750457
5 2 100 19 0.038418
6 2 100 19 0.027962
7 2 100 19 0.0322211
8 2 100 19 0.024334
9 2 100 19 0.0155404
10 2 100 19 0.00387949
11 2 100 19 0.00969331
12 2 100 19 0.0113334
13 2 100 19 0.00395235
14 2 100 19 0.00790442
15 2 100 19 0.00768295
16 2 100 19 0.00571524
17 2 100 19 0.00382217
18 2 100 19 0.00766448
19 2 100 19 1.82278e-07
1 3 100 19 0.0344307
2 3 100 19 0.129975
3 3 100 19 0.353506
4 3 100 19 0.171679
5 3 100 19 0.0896991
6 3 100 19 0.0641899
7 3 100 19 0.0457337
8 3 100 19 0.0200186
9 3 100 19 0.0229978
10 3 100 19 0.00981131
11 3 100 19 0.00976576
12 3 100 19 0.0122127
13 3 100 19 0.0072413
14 3 100 19 0.0102746
15 3 100 19 0.00555015
16 3 100 19 1.08732e-05
17 3 100 19 0.00511043
18 3 100 19 0.00301184
19 3 100 19 0.00478064
1 4 100 19 0.00479849
2 4 100 19 0.0574571
3 4 100 19 0.126827
4 4 100 19 0.26431
5 4 100 19 0.190308
6 4 100 19 0.0950925
7 4 100 19 0.0732448
8 4 100 19 0.0516257
9 4 100 19 0.0329078
10 4 100 19 0.0265949
11 4 100 19 0.0190713
12 4 100 19 0.00948687
13 4 100 19 0.00940336
14 4 100 19 0.00678379
15 4 100 19 0.00757912
16 4 100 19 0.00945959
17 4 100 19 0.00776469
18 4 100 19 0.00492205
19 4 100 19 0.00236234
1 5 100 19 0.0239293
2 5 100 19 0.0302049
3 5 100 19 0.0854855
4 5 100 19 0.0925979
5 5 100 19 0.189801
6 5 100 19 0.168077
7 5 100 19 0.0859587
8 5 100 19 0.0585705
9 5 100 19 0.0647081
10 5 100 19 0.0355592
11 5 100 19 0.0423114
12 5 100 19 0.0261322
13 5 100 19 0.0176773
14 5 100 19 0.0114249
15 5 100 19 0.0240199
16 5 100 19 0.0175653
17 5 100 19 0.00879449
18 5 100 19 0.00618831
19 5 100 19 0.0109942
1 6 100 19 0.00701605
2 6 100 19 0.0437132
3 6 100 19 0.0381482
4 6 100 19 0.0785185
5 6 100 19 0.131864
6 6 100 19 0.164454
7 6 100 19 0.143882
8 6 100 19 0.104002
9 6 100 19 0.0663655
10 6 100 19 0.0549954
11 6 100 19 0.0446205
12 6 100 19 0.0399574
13 6 100 19 0.0207579
14 6 100 19 0.0165145
15 6 100 19 0.0071833
16 6 100 19 0.00916248
17 6 100 19 0.00922536
18 6 100 19 0.0120122
19 6 100 19 0.00760738
1 7 100 19 0.00522807
2 7 100 19 0.0219542
3 7 100 19 0.044463
4 7 100 19 0.0471734
5 7 100 19 0.0565679
6 7 100 19 0.115641
7 7 100 19 0.144572
8 7 100 19 0.138402
9 7 100 19 0.101324
10 7 100 19 0.0736406
11 7 100 19 0.0688541
12 7 100 19 0.0475798
13 7 100 19 0.0345274
14 7 100 19 0.0205517
15 7 100 19 0.0188256
16 7 100 19 0.0203365
17 7 100 19 0.0108546
18 7 100 19 0.0127028
19 7 100 19 0.0168021
1 8 100 19 0.00406737
2 8 100 19 0.012299
3 8 100 19 0.0327825
4 8 100 19 0.0335962
5 8 100 19 0.0551246
6 8 100 19 0.0655397
7 8 100 19 0.0871341
8 8 100 19 0.129582
9 8 100 19 0.125247
10 8 100 19 0.0978477
11 8 100 19 0.0714083
12 8 100 19 0.0489459
13 8 100 19 0.0421966
14 8 100 19 0.0400865
15 8 100 19 0.0201383
16 8 100 19 0.0415956
17 8 100 19 0.0378959
18 8 100 19 0.0312505
19 8 100 19 0.0232619
1 9 100 19 0.00763336
2 9 100 19 0.0162924
3 9 100 19 0.0252244
4 9 100 19 0.0215881
5 9 100 19 0.0323795
6 9 100 19 0.0435634
7 9 100 19 0.0716345
8 9 100 19 0.0813214
9 9 100 19 0.105327
10 9 100 19 0.12137
11 9 100 19 0.112663
12 9 100 19 0.0802912
13 9 100 19 0.0603068
14 9 100 19 0.0500075
15 9 100 19 0.0442622
16 9 100 19 0.0424643
17 9 100 19 0.0269152
18 9 100 19 0.0225816
19 9 100 19 0.0341743
1 10 100 19 0.00191018
2 10 100 19 0.0084789
3 10 100 19 0.0154055
4 10 100 19 0.024184
5 10 100 19 0.0245993
6 10 100 19 0.0273566
7 10 100 19 0.0554924
8 10 100 19 0.0616928
9 10 100 19 0.086119
10 10 100 19 0.094328
11 10 100 19 0.0858907
12 10 100 19 0.107142
13 10 100 19 0.0994371
14 10 100 19 0.0771726
15 10 100 19 0.0554552
16 10 100 19 0.0687276
17 10 100 19 0.0412534
18 10 100 19 0.0354361
19 10 100 19 0.0299189
1 11 100 19 0.0123045
2 11 100 19 0.0218624
3 11 100 19 0.0280408
4 11 100 19 0.0298245
5 11 100 19 0.0257005
6 11 100 19 0.0360723
7 11 100 19 0.0520557
8 11 100 19 0.0457681
9 11 100 19 0.0748251
10 11 100 19 0.0812861
11 11 100 19 0.0796565
12 11 100 19 0.092281
13 11 100 19 0.0878191
14 11 100 19 0.0691474
15 11 100 19 0.0809703
16 11 100 19 0.0426045
17 11 100 19 0.053299
18 11 100 19 0.0459836
19 11 100 19 0.0404986
1 12 100 19 0.00574574
2 12 100 19 0.0124324
3 12 100 19 0.0189389
4 12 100 19 0.0244081
5 12 100 19 0.0226715
6 12 100 19 0.0306451
7 12 100 19 0.0273762
8 12 100 19 0.0467078
9 12 100 19 0.0531643
10 12 100 19 0.0704496
11 12 100 19 0.0764815
12 12 100 19 0.088451
13 12 100 19 0.0975699
14 12 100 19 0.100167
15 12 100 19 0.0773352
16 12 100 19 0.0715706
17 12 100 19 0.0479891
18 12 100 19 0.0631864
19 12 100 19 0.0647096
1 13 100 19 0.00811877
2 13 100 19 0.01205
3 13 100 19 0.0194679
4 13 100 19 0.0191124
5 13 100 19 0.0121018
6 13 100 19 0.015176
7 13 100 19 0.0109643
8 13 100 19 0.0387627
9 13 100 19 0.0688358
10 13 100 19 0.0557188
11 13 100 19 0.0702062
12 13 100 19 0.063419
13 13 100 19 0.0977771
14 13 100 19 0.100287
15 13 100 19 0.0976425
16 13 100 19 0.095478
17 13 100 19 0.0777365
18 13 100 19 0.0587684
19 13 100 19 0.0783766
1 14 100 19 0.0112686
2 14 100 19 0.0119524
3 14 100 19 0.0240797
4 14 100 19 0.0259034
5 14 100 19 0.0241989
6 14 100 19 0.0273339
7 14 100 19 0.0370951
8 14 100 19 0.0244335
9 14 100 19 0.0400615
10 14 100 19 0.0464951
11 14 100 19 0.0520044
12 14 100 19 0.0841173
13 14 100 19 0.0659862
14 14 100 19 0.0938458
15 14 100 19 0.0978673
16 14 100 19 0.106886
17 14 100 19 0.0825169
18 14 100 19 0.0689744
19 14 100 19 0.0749799
1 15 100 19 0.0073162
2 15 100 19 0.0103006
3 15 100 19 0.014839
4 15 100 19 0.0148424
5 15 100 19 0.0178023
6 15 100 19 0.0130516
7 15 100 19 0.0167081
8 15 100 19 0.0287668
9 15 100 19 0.0317383
10 15 100 19 0.0263447
11 15 100 19 0.0510293
12 15 100 19 0.060351
13 15 100 19 0.0875942
14 15 100 19 0.0969068
15 15 100 19 0.08532
16 15 100 19 0.0944102
17 15 100 19 0.119549
18 15 100 19 0.0981537
19 15 100 19 0.124975
1 16 100 19 0.0149565
2 16 100 19 0.0246448
3 16 100 19 0.0227126
4 16 100 19 0.0247727
5 16 100 19 0.0243824
6 16 100 19 0.0242561
7 16 100 19 0.0272869
8 16 100 19 0.0118705
9 16 100 19 0.0246037
10 16 100 19 0.0296263
11 16 100 19 0.0238167
12 16 100 19 0.057613
13 16 100 19 0.0515932
14 16 100 19 0.0849255
15 16 100 19 0.0905453
16 16 100 19 0.0986766
17 16 100 19 0.0811538
18 16 100 19 0.134397
19 16 100 19 0.148167
1 17 100 19 0.00500934
2 17 100 19 0.0181087
3 17 100 19 0.00987212
4 17 100 19 0.0274641
5 17 100 19 0.0220363
6 17 100 19 0.0232171
7 17 100 19 0.0194287
8 17 100 19 0.0352545
9 17 100 19 0.0280808
10 17 100 19 0.052514
11 17 100 19 0.0422175
12 17 100 19 0.0346781
13 17 100 19 0.0569179
14 17 100 19 0.0512177
15 17 100 19 0.0862507
16 17 100 19 0.0784127
17 17 100 19 0.103854
18 17 100 19 0.126434
19 17 100 19 0.179032
1 18 100 19 0.0149891
2 18 100 19 0.0112747
3 18 100 19 0.0151612
4 18 100 19 0.0187398
5 18 100 19 0.00826747
6 18 100 19 0.0112516
7 18 100 19 0.0121724
8 18 100 19 0.0189154
9 18 100 19 0.018871
10 18 100 19 0.0247312
11 18 100 19 0.0252135
12 18 100 19 0.0570375
13 18 100 19 0.0322663
14 18 100 19 0.0647214
15 18 100 19 0.0794516
16 18 100 19 0.0993183
17 18 100 19 0.121454
18 18 100 19 0.13988
19 18 100 19 0.226283
1 19 100 19 0.0177378
2 19 100 19 0.00472132
3 19 100 19 0.0315604
4 19 100 19 0.0314772
5 19 100 19 0.0182739
6 19 100 19 0.0245684
7 19 100 19 0.0309358
8 19 100 19 0.0134526
9 19 100 19 0.0218949
10 19 100 19 0.0219264
11 19 100 19 0.0357405
12 19 100 19 0.015447
13 19 100 19 0.0679292
14 19 100 19 0.0541043
15 19 100 19 0.0947164
16 19 100 19 0.0750866
17 19 100 19 0.12108
18 19 100 19 0.120984
19 19 100 19 0.198363
1 20 100 19 0.0173599
2 20 100 19 0.0172687
3 20 100 19 0.0116604
4 20 100 19 0.0288121
5 20 100 19 0.0230379
6 20 100 19 0.0115148
7 20 100 19 0.0173033
8 20 100 19 0.0176197
9 20 100 19 0.0174056
10 20 100 19 0.0231154
11 20 100 19 0.0482302
12 20 100 19 0.061
13 20 100 19 0.0584553
14 20 100 19 0.0515958
15 20 100 19 0.0838984
16 20 100 19 0.0811133
17 20 100 19 0.143411
18 20 100 19 0.121374
19 20 100 19 0.165825
1 21 100 19 0.0228003
2 21 100 19 0.0141521
3 21 100 19 0.0352843
4 21 100 19 0.0617526
5 21 100 19 0.0557968
6 21 100 19 0.0299247
7 21 100 19 0.0206229
8 21 100 19 0.0532526
9 21 100 19 0.0319018
10 21 100 19 0.0326815
11 21 100 19 0.00999336
12 21 100 19 0.0311756
13 21 100 19 0.0434521
14 21 100 19 0.0505324
15 21 100 19 0.0549909
16 21 100 19 0.0380261
17 21 100 19 0.0802263
18 21 100 19 0.134761
19 21 100 19 0.198673
1 22 100 19 0.0187693
2 22 100 19 0.0174059
3 22 100 19 0.000496809
4 22 100 19 0.00056041
5 22 100 19 0.0448194
6 22 100 19 0.0289755
7 22 100 19 0.0337592
8 22 100 19 0.0766686
9 22 100 19 0.018674
10 22 100 19 0.0545361
11 22 100 19 0.00354064
12 22 100 19 9.88515e-05
13 22 100 19 0.0288699
14 22 100 19 0.0197129
15 22 100 19 0.0454294
16 22 100 19 0.0652782
