1 1 1 100 1
1 2 1 100 1
1 3 1 100 1
1 4 1 100 1
1 5 1 100 1
1 6 1 100 1
0 7 1 100 1
1 8 1 100 1
1 9 1 100 1
0 1 2 100 6.08175e-06
1 1 2 100 0.605976
2 1 2 100 0.394017
0 2 2 100 0.05117
1 2 2 100 0.117646
2 2 2 100 0.831184
0 3 2 100 0.0448984
1 3 2 100 0.125001
2 3 2 100 0.830101
0 4 2 100 0.14286
1 4 2 100 0.142857
2 4 2 100 0.714283
0 5 2 100 0.333336
2 5 2 100 0.666664
0 6 2 100 0.300123
1 6 2 100 0.00428102
2 6 2 100 0.695596
0 7 2 100 0.134043
2 7 2 100 0.865957
0 8 2 100 0.5
2 8 2 100 0.5
0 9 2 100 0.375168
2 9 2 100 0.624832
0 10 2 100 0.428571
2 10 2 100 0.571429
0 11 2 100 0.166667
2 11 2 100 0.833333
0 12 2 100 0.400005
2 12 2 100 0.599995
0 13 2 100 0.5
2 13 2 100 0.5
0 14 2 100 2.04418e-05
2 14 2 100 0.99998
2 15 2 100 1
0 1 3 100 0.000944924
1 1 3 100 0.688293
2 1 3 100 0.21152
3 1 3 100 0.0992421
0 2 3 100 0.0842549
1 2 3 100 0.238128
2 2 3 100 0.317886
3 2 3 100 0.359732
0 3 3 100 0.0994289
1 3 3 100 0.0501248
2 3 3 100 0.156873
3 3 3 100 0.693573
0 4 3 100 0.0621741
1 4 3 100 0.0225021
2 4 3 100 0.058314
3 4 3 100 0.85701
0 5 3 100 0.202396
1 5 3 100 0.066684
3 5 3 100 0.73092
0 6 3 100 0.221345
1 6 3 100 0.000877469
3 6 3 100 0.777778
0 7 3 100 0.333333
1 7 3 100 0.333333
3 7 3 100 0.333333
0 8 3 100 0.0233494
3 8 3 100 0.976651
0 9 3 100 0.513276
3 9 3 100 0.486724
0 10 3 100 9.26077e-06
3 10 3 100 0.999991
0 1 4 100 3.08838e-05
1 1 4 100 0.844868
2 1 4 100 0.0282419
3 1 4 100 0.0116355
4 1 4 100 0.115224
0 2 4 100 0.0890192
1 2 4 100 0.0331885
2 2 4 100 0.662031
3 2 4 100 0.0539193
4 2 4 100 0.161842
0 3 4 100 0.117796
1 3 4 100 0.0243225
2 3 4 100 0.0815888
3 3 4 100 0.455649
4 3 4 100 0.320643
0 4 4 100 0.110083
1 4 4 100 0.0180311
2 4 4 100 0.0477527
3 4 4 100 0.0656932
4 4 4 100 0.75844
0 5 4 100 0.101391
1 5 4 100 0.00877207
2 5 4 100 0.024276
3 5 4 100 0.105101
4 5 4 100 0.76046
0 6 4 100 0.214827
1 6 4 100 0.016379
2 6 4 100 0.0325129
3 6 4 100 0.0516322
4 6 4 100 0.684649
0 7 4 100 0.233671
1 7 4 100 0.025935
4 7 4 100 0.740394
0 8 4 100 0.161317
1 8 4 100 0.0625
4 8 4 100 0.776183
0 9 4 100 0.125002
1 9 4 100 0.00296762
4 9 4 100 0.872031
0 10 4 100 0.501908
4 10 4 100 0.498092
0 11 4 100 0.333641
1 11 4 100 0.0247752
2 11 4 100 0.000290982
4 11 4 100 0.641293
0 12 4 100 0.333334
4 12 4 100 0.666666
0 13 4 100 4.98204e-05
2 13 4 100 0.499937
3 13 4 100 1.41726e-05
4 13 4 100 0.499999
0 14 4 100 0.999849
2 14 4 100 0.000150843
0 15 4 100 0.499558
2 15 4 100 0.500355
3 15 4 100 8.73312e-05
0 16 4 100 0.497321
2 16 4 100 6.21302e-06
3 16 4 100 0.000238503
4 16 4 100 0.502434
0 17 4 100 1.99162e-05
3 17 4 100 5.54184e-06
4 17 4 100 0.999975
4 18 4 100 1
0 1 5 100 0.00288568
1 1 5 100 0.822458
2 1 5 100 0.0137954
3 1 5 100 0.0119107
4 1 5 100 0.0115954
5 1 5 100 0.137355
0 2 5 100 0.07677
1 2 5 100 0.0541131
2 2 5 100 0.541253
3 2 5 100 0.0650522
4 2 5 100 0.0404388
5 2 5 100 0.222373
0 3 5 100 0.102761
1 3 5 100 0.0393996
2 3 5 100 0.10174
3 3 5 100 0.37282
4 3 5 100 0.105642
5 3 5 100 0.277637
0 4 5 100 0.131079
1 4 5 100 0.0418132
2 4 5 100 0.0609695
3 4 5 100 0.0784974
4 4 5 100 0.292366
5 4 5 100 0.395275
0 5 5 100 0.1263
1 5 5 100 0.0216062
2 5 5 100 0.0218531
3 5 5 100 0.0380309
4 5 5 100 0.178025
5 5 5 100 0.614185
0 6 5 100 0.126679
1 6 5 100 0.0356862
2 6 5 100 0.00143435
3 6 5 100 0.041954
4 6 5 100 0.129128
5 6 5 100 0.665119
0 7 5 100 0.159931
1 7 5 100 0.0188731
2 7 5 100 0.00187343
3 7 5 100 0.0377884
4 7 5 100 0.117668
5 7 5 100 0.663866
0 8 5 100 0.16136
1 8 5 100 0.0294433
2 8 5 100 0.0151777
3 8 5 100 0.0689238
4 8 5 100 0.129232
5 8 5 100 0.595862
0 9 5 100 0.206155
1 9 5 100 0.0416667
2 9 5 100 0.0406945
3 9 5 100 0.0588921
4 9 5 100 0.0637891
5 9 5 100 0.588803
0 10 5 100 0.0802485
1 10 5 100 0.0370121
2 10 5 100 0.0349008
4 10 5 100 0.261596
5 10 5 100 0.586243
0 11 5 100 0.337879
2 11 5 100 0.0666667
3 11 5 100 0.0666667
4 11 5 100 0.128359
5 11 5 100 0.400428
0 12 5 100 0.219635
1 12 5 100 0.0720892
2 12 5 100 3.10258e-05
3 12 5 100 0.115084
4 12 5 100 0.199076
5 12 5 100 0.394084
0 13 5 100 0.125352
4 13 5 100 0.499629
5 13 5 100 0.375019
0 14 5 100 0.334095
1 14 5 100 0.166667
4 14 5 100 0.332572
5 14 5 100 0.166667
0 15 5 100 0.200015
4 15 5 100 0.200863
5 15 5 100 0.599122
0 16 5 100 0.25
4 16 5 100 0.5
5 16 5 100 0.25
0 17 5 100 0.99899
3 17 5 100 0.000994602
5 17 5 100 1.50734e-05
0 18 5 100 0.250772
4 18 5 100 0.249228
5 18 5 100 0.5
0 19 5 100 0.500017
4 19 5 100 0.25
5 19 5 100 0.249983
0 20 5 100 0.333333
2 20 5 100 0.333333
5 20 5 100 0.333333
2 21 5 100 0.333334
4 21 5 100 0.333333
5 21 5 100 0.333334
0 22 5 100 0.500002
5 22 5 100 0.499998
0 23 5 100 0.465253
1 23 5 100 0.532398
4 23 5 100 0.0023489
0 24 5 100 1.10231e-05
4 24 5 100 0.999989
0 25 5 100 1
0 26 5 100 0.956051
1 26 5 100 0.0439158
2 26 5 100 3.30725e-05
0 27 5 100 0.771694
1 27 5 100 0.227536
2 27 5 100 0.000770019
0 28 5 100 0.014052
1 28 5 100 0.969794
2 28 5 100 0.0161388
3 28 5 100 1.50649e-05
0 29 5 100 0.993828
1 29 5 100 0.000567709
4 29 5 100 0.00560421
0 30 5 100 1
1 31 5 100 1
1 32 5 100 1
0 33 5 100 1.01517e-05
1 33 5 100 0.99999
0 1 6 100 7.58317e-05
1 1 6 100 0.756626
2 1 6 100 0.0357797
3 1 6 100 0.0339214
4 1 6 100 0.00540817
5 1 6 100 0.0291411
6 1 6 100 0.139048
0 2 6 100 0.128753
1 2 6 100 0.0698896
2 2 6 100 0.413852
3 2 6 100 0.123986
4 2 6 100 0.0385316
5 2 6 100 0.0488026
6 2 6 100 0.176185
0 3 6 100 0.161893
1 3 6 100 0.0409471
2 3 6 100 0.134421
3 3 6 100 0.224414
4 3 6 100 0.108491
5 3 6 100 0.0781901
6 3 6 100 0.251644
0 4 6 100 0.131296
1 4 6 100 0.010234
2 4 6 100 0.061432
3 4 6 100 0.145072
4 4 6 100 0.154774
5 4 6 100 0.116947
6 4 6 100 0.380246
0 5 6 100 0.166678
1 5 6 100 0.00550941
2 5 6 100 0.0304756
3 5 6 100 0.0717264
4 5 6 100 0.140142
5 5 6 100 0.173629
6 5 6 100 0.411839
0 6 6 100 0.200446
1 6 6 100 0.0125308
2 6 6 100 0.018347
3 6 6 100 0.0410075
4 6 6 100 0.101622
5 6 6 100 0.125422
6 6 6 100 0.500624
0 7 6 100 0.122368
1 7 6 100 0.0119893
2 7 6 100 0.0174551
3 7 6 100 0.0334232
4 7 6 100 0.0538861
5 7 6 100 0.196811
6 7 6 100 0.564068
0 8 6 100 0.13605
1 8 6 100 0.0064224
2 8 6 100 0.0319188
3 8 6 100 0.0272774
4 8 6 100 0.0362498
5 8 6 100 0.136235
6 8 6 100 0.625846
0 9 6 100 0.147172
1 9 6 100 0.000101255
2 9 6 100 0.0325956
3 9 6 100 0.0432305
4 9 6 100 0.0311319
5 9 6 100 0.124537
6 9 6 100 0.621232
0 10 6 100 0.182179
2 10 6 100 0.0217392
3 10 6 100 0.0438732
4 10 6 100 0.00605352
5 10 6 100 0.164224
6 10 6 100 0.581931
0 11 6 100 0.199178
2 11 6 100 0.0556934
3 11 6 100 0.041676
4 11 6 100 0.0422755
5 11 6 100 0.161668
6 11 6 100 0.499509
0 12 6 100 0.0588449
1 12 6 100 0.0588092
2 12 6 100 0.0587628
3 12 6 100 4.43366e-05
4 12 6 100 0.0588235
5 12 6 100 0.235269
6 12 6 100 0.529446
0 13 6 100 0.599163
2 13 6 100 0.00248251
3 13 6 100 0.144662
4 13 6 100 0.002639
5 13 6 100 0.00324873
6 13 6 100 0.247805
0 14 6 100 0.125921
1 14 6 100 0.000133192
3 14 6 100 0.00171545
4 14 6 100 0.251299
5 14 6 100 2.37222e-05
6 14 6 100 0.620908
0 15 6 100 0.147758
3 15 6 100 0.142857
4 15 6 100 0.139421
5 15 6 100 2.13323e-06
6 15 6 100 0.569962
0 16 6 100 0.198313
2 16 6 100 0.0017797
5 16 6 100 3.86353e-06
6 16 6 100 0.799904
0 17 6 100 0.000498001
4 17 6 100 0.666168
6 17 6 100 0.333334
6 18 6 100 1
0 1 7 100 0.00117627
1 1 7 100 0.772237
2 1 7 100 0.0296741
3 1 7 100 0.0208342
4 1 7 100 0.0190208
5 1 7 100 0.00825745
6 1 7 100 0.0101146
7 1 7 100 0.138686
0 2 7 100 0.114523
1 2 7 100 0.0490701
2 2 7 100 0.471119
3 2 7 100 0.0946072
4 2 7 100 0.0356899
5 2 7 100 0.0324055
6 2 7 100 0.031683
7 2 7 100 0.170903
0 3 7 100 0.151153
1 3 7 100 0.0358065
2 3 7 100 0.109384
3 3 7 100 0.227133
4 3 7 100 0.111135
5 3 7 100 0.0531089
6 3 7 100 0.0837617
7 3 7 100 0.228518
0 4 7 100 0.182918
1 4 7 100 0.027221
2 4 7 100 0.0405307
3 4 7 100 0.0947303
4 4 7 100 0.18577
5 4 7 100 0.0978524
6 4 7 100 0.0780129
7 4 7 100 0.292965
0 5 7 100 0.164338
1 5 7 100 0.012898
2 5 7 100 0.0324266
3 5 7 100 0.0668407
4 5 7 100 0.128194
5 5 7 100 0.155586
6 5 7 100 0.131112
7 5 7 100 0.308604
0 6 7 100 0.195567
1 6 7 100 0.00680752
2 6 7 100 0.0293447
3 6 7 100 0.0260632
4 6 7 100 0.0726405
5 6 7 100 0.145738
6 6 7 100 0.182721
7 6 7 100 0.341119
0 7 7 100 0.122964
1 7 7 100 0.00268222
2 7 7 100 0.0217662
3 7 7 100 0.0287636
4 7 7 100 0.0534002
5 7 7 100 0.0857508
6 7 7 100 0.174632
7 7 7 100 0.510041
0 8 7 100 0.164544
1 8 7 100 0.0036502
2 8 7 100 0.00499285
3 8 7 100 0.0401634
4 8 7 100 0.0586746
5 8 7 100 0.0519362
6 8 7 100 0.163528
7 8 7 100 0.51251
0 9 7 100 0.148101
1 9 7 100 6.04239e-05
2 9 7 100 5.86805e-05
3 9 7 100 0.0179389
4 9 7 100 0.0603046
5 9 7 100 0.0695861
6 9 7 100 0.151757
7 9 7 100 0.552193
0 10 7 100 0.170049
2 10 7 100 0.000360172
3 10 7 100 0.00820169
4 10 7 100 0.0542114
5 10 7 100 0.0557414
6 10 7 100 0.152461
7 10 7 100 0.558975
0 11 7 100 0.16205
1 11 7 100 4.91256e-07
2 11 7 100 9.1471e-06
3 11 7 100 0.0134189
4 11 7 100 0.0635436
5 11 7 100 0.101573
6 11 7 100 0.104576
7 11 7 100 0.554829
0 12 7 100 0.210809
2 12 7 100 0.0197448
3 12 7 100 0.0197033
4 12 7 100 0.0184027
5 12 7 100 0.11269
6 12 7 100 0.131979
7 12 7 100 0.486671
0 13 7 100 0.0910953
2 13 7 100 0.0002563
3 13 7 100 0.0294121
4 13 7 100 0.0294251
5 13 7 100 0.117728
6 13 7 100 0.175067
7 13 7 100 0.557017
0 14 7 100 6.17515e-05
3 14 7 100 0.049988
4 14 7 100 0.0499836
5 14 7 100 0.0998892
6 14 7 100 0.100111
7 14 7 100 0.699967
0 15 7 100 0.166209
3 15 7 100 0.00101147
4 15 7 100 0.0833503
5 15 7 100 0.0833335
6 15 7 100 0.0833335
7 15 7 100 0.582763
0 16 7 100 0.144423
4 16 7 100 0.142539
5 16 7 100 0.142857
6 16 7 100 0.142053
7 16 7 100 0.428128
0 17 7 100 0.484196
5 17 7 100 0.000528068
6 17 7 100 0.166667
7 17 7 100 0.34861
0 18 7 100 0.321802
4 18 7 100 0.0131012
5 18 7 100 0.166667
7 18 7 100 0.49843
0 19 7 100 0.333333
5 19 7 100 0.333333
7 19 7 100 0.333333
5 20 7 100 0.500002
7 20 7 100 0.499998
0 21 7 100 0.999794
7 21 7 100 0.000206005
5 22 7 100 1
5 23 7 100 1
6 24 7 100 1
2 25 7 100 1.91552e-05
6 25 7 100 0.999956
7 25 7 100 2.47759e-05
0 26 7 100 0.979659
7 26 7 100 0.0203414
6 27 7 100 1
0 1 8 100 0.000127047
1 1 8 100 0.821729
2 1 8 100 0.020475
3 1 8 100 0.0130156
4 1 8 100 0.014708
5 1 8 100 0.0139216
6 1 8 100 0.0035521
7 1 8 100 0.0131003
8 1 8 100 0.0993711
0 2 8 100 0.110913
1 2 8 100 0.0488221
2 2 8 100 0.496627
3 2 8 100 0.0705305
4 2 8 100 0.0428931
5 2 8 100 0.0461438
6 2 8 100 0.0251666
7 2 8 100 0.028816
8 2 8 100 0.130088
0 3 8 100 0.153667
1 3 8 100 0.0436093
2 3 8 100 0.109367
3 3 8 100 0.279856
4 3 8 100 0.121885
5 3 8 100 0.047098
6 3 8 100 0.0337724
7 3 8 100 0.0582376
8 3 8 100 0.152508
0 4 8 100 0.17737
1 4 8 100 0.0227107
2 4 8 100 0.0737916
3 4 8 100 0.153013
4 4 8 100 0.158869
5 4 8 100 0.0995792
6 4 8 100 0.0574064
7 4 8 100 0.0627704
8 4 8 100 0.194491
0 5 8 100 0.188483
1 5 8 100 0.00883892
2 5 8 100 0.0243275
3 5 8 100 0.129875
4 5 8 100 0.127245
5 5 8 100 0.127817
6 5 8 100 0.0908035
7 5 8 100 0.0703368
8 5 8 100 0.232273
0 6 8 100 0.176002
1 6 8 100 0.0115293
2 6 8 100 0.0142126
3 6 8 100 0.0298282
4 6 8 100 0.144526
5 6 8 100 0.117863
6 6 8 100 0.131544
7 6 8 100 0.111637
8 6 8 100 0.262858
0 7 8 100 0.217669
1 7 8 100 0.00575954
2 7 8 100 0.0192491
3 7 8 100 0.020104
4 7 8 100 0.0933579
5 7 8 100 0.0963572
6 7 8 100 0.140559
7 7 8 100 0.140274
8 7 8 100 0.266671
0 8 8 100 0.15081
1 8 8 100 0.00610494
2 8 8 100 0.017105
3 8 8 100 0.0106753
4 8 8 100 0.0363099
5 8 8 100 0.0587558
6 8 8 100 0.168241
7 8 8 100 0.158779
8 8 8 100 0.393218
0 9 8 100 0.143708
1 9 8 100 0.00539198
2 9 8 100 0.0145006
3 9 8 100 0.0248969
4 9 8 100 0.0282328
5 9 8 100 0.0589774
6 9 8 100 0.0924012
7 9 8 100 0.163781
8 9 8 100 0.46811
0 10 8 100 0.18202
1 10 8 100 0.0163264
2 10 8 100 0.0125115
3 10 8 100 0.0166717
4 10 8 100 0.0195655
5 10 8 100 0.0402381
6 10 8 100 0.0817107
7 10 8 100 0.159559
8 10 8 100 0.471397
0 11 8 100 0.167667
1 11 8 100 0.00653595
2 11 8 100 0.00669922
3 11 8 100 0.0258003
4 11 8 100 0.0175566
5 11 8 100 0.0382386
6 11 8 100 0.114272
7 11 8 100 0.165253
8 11 8 100 0.457977
0 12 8 100 0.211685
1 12 8 100 0.0305525
2 12 8 100 0.0108065
3 12 8 100 0.0419582
4 12 8 100 0.0102041
5 12 8 100 0.0700506
6 12 8 100 0.0897198
7 12 8 100 0.153768
8 12 8 100 0.381256
0 13 8 100 0.160262
2 13 8 100 0.032887
3 13 8 100 0.0145177
4 13 8 100 0.0144932
5 13 8 100 0.0539694
6 13 8 100 0.0990464
7 13 8 100 0.132134
8 13 8 100 0.492691
0 14 8 100 0.226005
2 14 8 100 0.0444684
3 14 8 100 0.0222222
4 14 8 100 0.0222184
5 14 8 100 0.0442674
6 14 8 100 0.15203
7 14 8 100 0.112056
8 14 8 100 0.376732
0 15 8 100 0.34951
2 15 8 100 0.0739233
3 15 8 100 0.0370364
4 15 8 100 3.86357e-05
5 15 8 100 0.0370469
6 15 8 100 0.0734847
7 15 8 100 0.148811
8 15 8 100 0.280149
0 16 8 100 0.188458
2 16 8 100 0.0384615
3 16 8 100 0.038579
5 16 8 100 0.0769231
6 16 8 100 0.0384884
7 16 8 100 0.122354
8 16 8 100 0.496736
0 17 8 100 0.128583
2 17 8 100 0.0473401
3 17 8 100 0.0952353
5 17 8 100 0.0475999
6 17 8 100 0.111693
7 17 8 100 0.0952947
8 17 8 100 0.474254
0 18 8 100 0.169824
3 18 8 100 0.0833333
4 18 8 100 0.0801802
5 18 8 100 0.0833333
6 18 8 100 0.0833334
7 18 8 100 0.0833309
8 18 8 100 0.416665
0 19 8 100 0.190952
3 19 8 100 1.3945e-06
4 19 8 100 0.00905507
5 19 8 100 0.099998
6 19 8 100 0.1
7 19 8 100 0.199994
8 19 8 100 0.399999
0 20 8 100 0.137175
2 20 8 100 0.0013726
3 20 8 100 0.139236
5 20 8 100 0.14503
6 20 8 100 0.285771
7 20 8 100 0.00570082
8 20 8 100 0.285715
0 21 8 100 0.200051
1 21 8 100 0.199887
2 21 8 100 7.51971e-05
4 21 8 100 9.94321e-05
5 21 8 100 0.176697
8 21 8 100 0.42319
0 22 8 100 0.25
7 22 8 100 0.25
8 22 8 100 0.5
0 23 8 100 0.498405
2 23 8 100 0.251364
3 23 8 100 0.000170935
5 23 8 100 4.33652e-05
6 23 8 100 1.64575e-05
8 23 8 100 0.25
0 24 8 100 0.331716
1 24 8 100 8.37261e-05
2 24 8 100 0.000754522
3 24 8 100 0.000152895
4 24 8 100 3.77674e-06
6 24 8 100 4.11312e-05
7 24 8 100 0.333916
8 24 8 100 0.333332
7 25 8 100 1
7 26 8 100 1
0 27 8 100 0.986254
7 27 8 100 0.0137457
8 28 8 100 1
0 1 9 100 9.6954e-05
1 1 9 100 0.793863
2 1 9 100 0.0336434
3 1 9 100 0.0218806
4 1 9 100 0.0196114
5 1 9 100 0.00569922
6 1 9 100 0.0106865
7 1 9 100 0.00930378
8 1 9 100 0.0125217
9 1 9 100 0.0926933
0 2 9 100 0.108974
1 2 9 100 0.0729309
2 2 9 100 0.416191
3 2 9 100 0.10424
4 2 9 100 0.0447145
5 2 9 100 0.0512563
6 2 9 100 0.0261608
7 2 9 100 0.0121978
8 2 9 100 0.0238378
9 2 9 100 0.139497
0 3 9 100 0.165093
1 3 9 100 0.0614361
2 3 9 100 0.111538
3 3 9 100 0.281473
4 3 9 100 0.0824571
5 3 9 100 0.0531457
6 3 9 100 0.0276866
7 3 9 100 0.0410408
8 3 9 100 0.029033
9 3 9 100 0.147097
0 4 9 100 0.213054
1 4 9 100 0.0216498
2 4 9 100 0.0547976
3 4 9 100 0.10389
4 4 9 100 0.18297
5 4 9 100 0.0839595
6 4 9 100 0.047771
7 4 9 100 0.0490337
8 4 9 100 0.0590402
9 4 9 100 0.183834
0 5 9 100 0.176385
1 5 9 100 0.0300452
2 5 9 100 0.0341083
3 5 9 100 0.0573868
4 5 9 100 0.105097
5 5 9 100 0.14507
6 5 9 100 0.0884363
7 5 9 100 0.0565806
8 5 9 100 0.0516427
9 5 9 100 0.255248
0 6 9 100 0.203312
1 6 9 100 0.0187117
2 6 9 100 0.0339612
3 6 9 100 0.0327393
4 6 9 100 0.0936056
5 6 9 100 0.115407
6 6 9 100 0.115547
7 6 9 100 0.0790526
8 6 9 100 0.0809091
9 6 9 100 0.226755
0 7 9 100 0.204316
1 7 9 100 0.0131685
2 7 9 100 0.0177881
3 7 9 100 0.0228197
4 7 9 100 0.0496273
5 7 9 100 0.0946041
6 7 9 100 0.0992616
7 7 9 100 0.129743
8 7 9 100 0.101573
9 7 9 100 0.267098
0 8 9 100 0.167913
1 8 9 100 0.00626885
2 8 9 100 0.0275087
3 8 9 100 0.0105553
4 8 9 100 0.0319242
5 8 9 100 0.0476217
6 8 9 100 0.0701123
7 8 9 100 0.133766
8 8 9 100 0.157994
9 8 9 100 0.346336
0 9 9 100 0.163404
1 9 9 100 0.000656627
2 9 9 100 0.0114917
3 9 9 100 0.0153175
4 9 9 100 0.0337168
5 9 9 100 0.0442839
6 9 9 100 0.0674445
7 9 9 100 0.108221
8 9 9 100 0.18292
9 9 9 100 0.372544
0 10 9 100 0.15442
1 10 9 100 0.00284978
2 10 9 100 0.00569991
3 10 9 100 0.0138355
4 10 9 100 0.028339
5 10 9 100 0.0374055
6 10 9 100 0.0596865
7 10 9 100 0.0944102
8 10 9 100 0.160407
9 10 9 100 0.442946
0 11 9 100 0.162798
1 11 9 100 0.00814001
2 11 9 100 0.00965531
3 11 9 100 0.0121832
4 11 9 100 0.0242552
5 11 9 100 0.0495989
6 11 9 100 0.039282
7 11 9 100 0.0790806
8 11 9 100 0.190177
9 11 9 100 0.42483
0 12 9 100 0.168658
1 12 9 100 0.00581473
2 12 9 100 7.82723e-05
3 12 9 100 0.0140595
4 12 9 100 0.0208688
5 12 9 100 0.0233131
6 12 9 100 0.0751268
7 12 9 100 0.0875707
8 12 9 100 0.140026
9 12 9 100 0.464485
0 13 9 100 0.157023
2 13 9 100 1.5914e-05
3 13 9 100 0.00930511
4 13 9 100 0.0190142
5 13 9 100 1.20607e-05
6 13 9 100 0.0467901
7 13 9 100 0.146476
8 13 9 100 0.13614
9 13 9 100 0.485223
0 14 9 100 0.135391
3 14 9 100 7.49039e-06
4 14 9 100 0.0380491
5 14 9 100 0.0438596
6 14 9 100 0.0298595
7 14 9 100 0.10414
8 14 9 100 0.209673
9 14 9 100 0.439021
0 15 9 100 0.23389
4 15 9 100 0.027319
5 15 9 100 0.0441035
6 15 9 100 1.45124e-05
7 15 9 100 0.106773
8 15 9 100 0.159179
9 15 9 100 0.428722
0 16 9 100 0.354411
2 16 9 100 0.000349933
3 16 9 100 3.65392e-05
4 16 9 100 0.0335402
6 16 9 100 0.0357236
7 16 9 100 9.28968e-05
8 16 9 100 0.178578
9 16 9 100 0.397268
0 17 9 100 0.146727
3 17 9 100 0.0111417
4 17 9 100 0.0476189
7 17 9 100 0.0952382
8 17 9 100 0.333329
9 17 9 100 0.365945
0 18 9 100 0.208684
5 18 9 100 6.57591e-05
6 18 9 100 0.0666654
7 18 9 100 0.0587982
8 18 9 100 0.133332
9 18 9 100 0.532455
0 19 9 100 0.203786
3 19 9 100 0.111082
7 19 9 100 0.0184683
9 19 9 100 0.666664
0 20 9 100 0.174132
3 20 9 100 0.159663
7 20 9 100 0.166615
8 20 9 100 0.166443
9 20 9 100 0.333148
0 21 9 100 0.0046572
3 21 9 100 0.2
8 21 9 100 0.395343
9 21 9 100 0.4
0 22 9 100 0.250003
4 22 9 100 0.249997
8 22 9 100 0.25
9 22 9 100 0.25
0 23 9 100 0.0246632
7 23 9 100 0.642009
9 23 9 100 0.333328
0 24 9 100 0.101969
7 24 9 100 0.898031
0 25 9 100 0.500001
8 25 9 100 0.0023053
9 25 9 100 0.497694
7 26 9 100 0.5
9 26 9 100 0.5
7 27 9 100 0.499999
9 27 9 100 0.500001
0 1 10 100 4.32263e-05
1 1 10 100 0.794549
2 1 10 100 0.0318158
3 1 10 100 0.0112671
4 1 10 100 0.00714686
5 1 10 100 0.00610091
6 1 10 100 5.83486e-05
7 1 10 100 0.00835928
8 1 10 100 0.0279643
9 1 10 100 0.0245303
10 1 10 100 0.0881649
0 2 10 100 0.124455
1 2 10 100 0.0435928
2 2 10 100 0.415742
3 2 10 100 0.105822
4 2 10 100 0.0489843
5 2 10 100 0.0403098
6 2 10 100 0.0219383
7 2 10 100 0.0173447
8 2 10 100 0.0246452
9 2 10 100 0.0419088
10 2 10 100 0.115257
0 3 10 100 0.149684
1 3 10 100 0.0536287
2 3 10 100 0.110742
3 3 10 100 0.239752
4 3 10 100 0.115466
5 3 10 100 0.0577423
6 3 10 100 0.0385372
7 3 10 100 0.0369853
8 3 10 100 0.0308493
9 3 10 100 0.0526539
10 3 10 100 0.113959
0 4 10 100 0.161498
1 4 10 100 0.0275074
2 4 10 100 0.0603694
3 4 10 100 0.110481
4 4 10 100 0.188528
5 4 10 100 0.108858
6 4 10 100 0.0617659
7 4 10 100 0.0412559
8 4 10 100 0.045226
9 4 10 100 0.0397023
10 4 10 100 0.154808
0 5 10 100 0.203323
1 5 10 100 0.0176107
2 5 10 100 0.0525922
3 5 10 100 0.0450799
4 5 10 100 0.118005
5 5 10 100 0.154075
6 5 10 100 0.0868606
7 5 10 100 0.0431372
8 5 10 100 0.0537811
9 5 10 100 0.0578575
10 5 10 100 0.167677
0 6 10 100 0.181246
1 6 10 100 0.0138822
2 6 10 100 0.0388412
3 6 10 100 0.0340785
4 6 10 100 0.0718499
5 6 10 100 0.138461
6 6 10 100 0.131916
7 6 10 100 0.0813632
8 6 10 100 0.066362
9 6 10 100 0.0669981
10 6 10 100 0.175002
0 7 10 100 0.23488
1 7 10 100 0.0101783
2 7 10 100 0.0313773
3 7 10 100 0.0330497
4 7 10 100 0.0392446
5 7 10 100 0.0804306
6 7 10 100 0.0995971
7 7 10 100 0.117314
8 7 10 100 0.0740983
9 7 10 100 0.0919872
10 7 10 100 0.187843
0 8 10 100 0.193575
1 8 10 100 0.00930027
2 8 10 100 0.014732
3 8 10 100 0.020103
4 8 10 100 0.0479729
5 8 10 100 0.0348103
6 8 10 100 0.104975
7 8 10 100 0.115875
8 8 10 100 0.13899
9 8 10 100 0.111307
10 8 10 100 0.20836
0 9 10 100 0.183012
1 9 10 100 0.00418515
2 9 10 100 0.0145898
3 9 10 100 0.0188547
4 9 10 100 0.0448172
5 9 10 100 0.0407558
6 9 10 100 0.0566101
7 9 10 100 0.112563
8 9 10 100 0.12814
9 9 10 100 0.139664
10 9 10 100 0.256808
0 10 10 100 0.15037
1 10 10 100 0.00453552
2 10 10 100 0.0202348
3 10 10 100 0.0159586
4 10 10 100 0.0262728
5 10 10 100 0.0458475
6 10 10 100 0.0639197
7 10 10 100 0.0647119
8 10 10 100 0.118256
9 10 10 100 0.175207
10 10 10 100 0.314685
0 11 10 100 0.159399
1 11 10 100 0.0111881
2 11 10 100 0.012109
3 11 10 100 0.0182917
4 11 10 100 0.0220707
5 11 10 100 0.0471181
6 11 10 100 0.0661594
7 11 10 100 0.065853
8 11 10 100 0.10923
9 11 10 100 0.162701
10 11 10 100 0.325879
0 12 10 100 0.17259
1 12 10 100 0.0076741
2 12 10 100 0.000105248
3 12 10 100 0.0142025
4 12 10 100 0.0346324
5 12 10 100 0.023011
6 12 10 100 0.0594651
7 12 10 100 0.0417215
8 12 10 100 0.111971
9 12 10 100 0.188818
10 12 10 100 0.34581
0 13 10 100 0.18698
1 13 10 100 1.11832e-07
2 13 10 100 7.56584e-05
3 13 10 100 0.00631469
4 13 10 100 0.0504357
5 13 10 100 0.0278018
6 13 10 100 0.0671813
7 13 10 100 0.0554983
8 13 10 100 0.129177
9 13 10 100 0.125628
10 13 10 100 0.350907
0 14 10 100 0.177775
2 14 10 100 0.00876593
3 14 10 100 3.46629e-05
4 14 10 100 0.061645
5 14 10 100 0.0173277
6 14 10 100 0.077112
7 14 10 100 0.0321954
8 14 10 100 0.149608
9 14 10 100 0.135078
10 14 10 100 0.340459
0 15 10 100 0.21029
2 15 10 100 1.40642e-06
3 15 10 100 0.0132543
4 15 10 100 0.0394846
5 15 10 100 0.0395549
6 15 10 100 0.0394853
7 15 10 100 0.027364
8 15 10 100 0.166541
9 15 10 100 0.0791339
10 15 10 100 0.38489
0 16 10 100 0.126234
2 16 10 100 3.31558e-06
4 16 10 100 0.0418726
5 16 10 100 0.000761041
6 16 10 100 0.0698292
7 16 10 100 0.0363916
8 16 10 100 0.0909858
9 16 10 100 0.183137
10 16 10 100 0.450785
0 17 10 100 0.0766647
3 17 10 100 0.000209993
4 17 10 100 0.000137824
5 17 10 100 0.028569
6 17 10 100 0.0632661
7 17 10 100 0.0573631
8 17 10 100 0.117807
9 17 10 100 0.197197
10 17 10 100 0.458785
0 18 10 100 0.101138
2 18 10 100 6.84232e-05
4 18 10 100 0.0476189
5 18 10 100 4.75694e-06
6 18 10 100 0.0478319
7 18 10 100 1.09051e-05
8 18 10 100 0.14245
9 18 10 100 0.232881
10 18 10 100 0.427996
0 19 10 100 0.254612
6 19 10 100 5.71409e-06
7 19 10 100 0.00615848
8 19 10 100 0.0856771
9 19 10 100 0.222222
10 19 10 100 0.431324
0 20 10 100 0.13865
8 20 10 100 0.428572
9 20 10 100 0.142856
10 20 10 100 0.289922
8 21 10 100 0.5
10 21 10 100 0.5
10 22 10 100 1
0 1 11 100 0.000175288
1 1 11 100 0.782702
2 1 11 100 0.0296074
3 1 11 100 0.0158281
4 1 11 100 0.0139394
5 1 11 100 0.0129787
6 1 11 100 0.00657465
7 1 11 100 0.0116235
8 1 11 100 0.00646677
9 1 11 100 0.00511126
10 1 11 100 0.0140318
11 1 11 100 0.100961
0 2 11 100 0.128578
1 2 11 100 0.0480658
2 2 11 100 0.435695
3 2 11 100 0.0809586
4 2 11 100 0.0504152
5 2 11 100 0.0285985
6 2 11 100 0.0276095
7 2 11 100 0.0277556
8 2 11 100 0.0287132
9 2 11 100 0.0136015
10 2 11 100 0.0211598
11 2 11 100 0.10885
0 3 11 100 0.156078
1 3 11 100 0.0486211
2 3 11 100 0.130683
3 3 11 100 0.226325
4 3 11 100 0.114068
5 3 11 100 0.0589308
6 3 11 100 0.039269
7 3 11 100 0.0330803
8 3 11 100 0.0234419
9 3 11 100 0.0270601
10 3 11 100 0.0265922
11 3 11 100 0.11585
0 4 11 100 0.174225
1 4 11 100 0.0220163
2 4 11 100 0.0700131
3 4 11 100 0.120424
4 4 11 100 0.186671
5 4 11 100 0.1065
6 4 11 100 0.0521538
7 4 11 100 0.0421302
8 4 11 100 0.0283206
9 4 11 100 0.0246851
10 4 11 100 0.0365492
11 4 11 100 0.136311
0 5 11 100 0.20894
1 5 11 100 0.0131524
2 5 11 100 0.0418121
3 5 11 100 0.0548352
4 5 11 100 0.125323
5 5 11 100 0.152168
6 5 11 100 0.099621
7 5 11 100 0.0499854
8 5 11 100 0.0377747
9 5 11 100 0.0203816
10 5 11 100 0.0642034
11 5 11 100 0.131803
0 6 11 100 0.16531
1 6 11 100 0.0147368
2 6 11 100 0.0249702
3 6 11 100 0.0363456
4 6 11 100 0.0957974
5 6 11 100 0.134833
6 6 11 100 0.122618
7 6 11 100 0.104788
8 6 11 100 0.0442815
9 6 11 100 0.0452133
10 6 11 100 0.0683188
11 6 11 100 0.142787
0 7 11 100 0.198232
1 7 11 100 0.00818545
2 7 11 100 0.0230554
3 7 11 100 0.0250036
4 7 11 100 0.0572334
5 7 11 100 0.0997649
6 7 11 100 0.0993665
7 7 11 100 0.115962
8 7 11 100 0.0745182
9 7 11 100 0.0600041
10 7 11 100 0.0852361
11 7 11 100 0.153438
0 8 11 100 0.201332
1 8 11 100 0.00811498
2 8 11 100 0.0169102
3 8 11 100 0.0211266
4 8 11 100 0.0295443
5 8 11 100 0.0607137
6 8 11 100 0.116137
7 8 11 100 0.0996888
8 8 11 100 0.110977
9 8 11 100 0.0834218
10 8 11 100 0.0775481
11 8 11 100 0.174486
0 9 11 100 0.170812
1 9 11 100 0.00502239
2 9 11 100 0.0189287
3 9 11 100 0.0210913
4 9 11 100 0.0293283
5 9 11 100 0.0559271
6 9 11 100 0.0601671
7 9 11 100 0.12644
8 9 11 100 0.106168
9 9 11 100 0.108902
10 9 11 100 0.1189
11 9 11 100 0.178312
0 10 11 100 0.172321
1 10 11 100 2.2324e-07
2 10 11 100 0.012672
3 10 11 100 0.0264814
4 10 11 100 0.0105532
5 10 11 100 0.0407428
6 10 11 100 0.0409973
7 10 11 100 0.0795298
8 10 11 100 0.100835
9 10 11 100 0.121214
10 10 11 100 0.151682
11 10 11 100 0.242972
0 11 11 100 0.187869
1 11 11 100 2.65758e-06
2 11 11 100 0.0127672
3 11 11 100 0.0124426
4 11 11 100 0.0108348
5 11 11 100 0.0310259
6 11 11 100 0.0420224
7 11 11 100 0.0620882
8 11 11 100 0.0806196
9 11 11 100 0.107947
10 11 11 100 0.158875
11 11 11 100 0.293505
0 12 11 100 0.150244
1 12 11 100 0.00508939
2 12 11 100 0.00327381
3 12 11 100 0.0186623
4 12 11 100 0.0213968
5 12 11 100 0.0203099
6 12 11 100 0.038697
7 12 11 100 0.0770029
8 12 11 100 0.0755996
9 12 11 100 0.124547
10 12 11 100 0.168666
11 12 11 100 0.296511
0 13 11 100 0.18269
1 13 11 100 7.33536e-07
2 13 11 100 0.00366514
3 13 11 100 0.0100878
4 13 11 100 0.0359641
5 13 11 100 0.00525738
6 13 11 100 0.0252869
7 13 11 100 0.0463314
8 13 11 100 0.0668642
9 13 11 100 0.117878
10 13 11 100 0.17483
11 13 11 100 0.331144
0 14 11 100 0.199105
1 14 11 100 9.25828e-05
2 14 11 100 0.000445403
3 14 11 100 0.0053533
4 14 11 100 0.0124514
5 14 11 100 0.0318372
6 14 11 100 0.0228099
7 14 11 100 0.0462694
8 14 11 100 0.062363
9 14 11 100 0.12179
10 14 11 100 0.136056
11 14 11 100 0.361427
0 15 11 100 0.187312
1 15 11 100 0.000125118
2 15 11 100 0.0124051
3 15 11 100 0.00628949
4 15 11 100 0.0063722
5 15 11 100 0.0129758
6 15 11 100 0.0149637
7 15 11 100 0.0808003
8 15 11 100 0.0688768
9 15 11 100 0.0808854
10 15 11 100 0.208723
11 15 11 100 0.320271
0 16 11 100 0.17329
2 16 11 100 1.0709e-05
3 16 11 100 4.18988e-05
4 16 11 100 4.74784e-06
5 16 11 100 0.0183506
6 16 11 100 0.0113122
7 16 11 100 0.0476975
8 16 11 100 0.0772857
9 16 11 100 0.127898
10 16 11 100 0.255524
11 16 11 100 0.288584
0 17 11 100 0.151927
1 17 11 100 8.1546e-06
2 17 11 100 0.0130562
3 17 11 100 8.95036e-05
4 17 11 100 0.0133695
5 17 11 100 0.0131245
6 17 11 100 0.0138394
7 17 11 100 0.0259702
8 17 11 100 0.0612747
9 17 11 100 0.11712
10 17 11 100 0.307166
11 17 11 100 0.283055
0 18 11 100 0.2071
3 18 11 100 2.221e-06
4 18 11 100 1.84542e-05
5 18 11 100 0.0203936
6 18 11 100 0.0408637
7 18 11 100 0.0408164
8 18 11 100 0.0659782
9 18 11 100 0.0398993
10 18 11 100 0.279977
11 18 11 100 0.304952
0 19 11 100 0.188597
2 19 11 100 2.99353e-06
3 19 11 100 6.9911e-06
5 19 11 100 0.03125
6 19 11 100 0.0312509
7 19 11 100 0.0312782
8 19 11 100 0.0325125
9 19 11 100 0.0914735
10 19 11 100 0.280459
11 19 11 100 0.313169
0 20 11 100 0.102416
2 20 11 100 0.00013773
3 20 11 100 2.55418e-05
5 20 11 100 0.0525948
6 20 11 100 4.42911e-05
7 20 11 100 0.052411
8 20 11 100 0.105284
10 20 11 100 0.376714
11 20 11 100 0.310373
0 21 11 100 0.196553
1 21 11 100 0.066654
2 21 11 100 1.64362e-05
5 21 11 100 0.0667195
8 21 11 100 0.06667
9 21 11 100 0.138548
10 21 11 100 0.133333
11 21 11 100 0.331506
0 22 11 100 0.367753
2 22 11 100 0.0908876
3 22 11 100 0.000217641
9 22 11 100 0.000604249
10 22 11 100 0.17917
11 22 11 100 0.361367
0 23 11 100 0.192376
2 23 11 100 0.00199686
3 23 11 100 1.22961e-05
4 23 11 100 6.29967e-05
5 23 11 100 0.0979801
9 23 11 100 0.0997754
10 23 11 100 0.207614
11 23 11 100 0.400182
0 24 11 100 0.0415646
1 24 11 100 3.52156e-05
2 24 11 100 0.107874
3 24 11 100 0.142823
4 24 11 100 0.142821
6 24 11 100 3.88406e-05
9 24 11 100 0.14286
10 24 11 100 0.13627
11 24 11 100 0.285715
3 25 11 100 0.012741
4 25 11 100 0.237259
7 25 11 100 0.25
10 25 11 100 0.5
0 26 11 100 0.333333
4 26 11 100 0.333334
7 26 11 100 0.333333
0 27 11 100 0.333334
10 27 11 100 0.333333
11 27 11 100 0.333332
0 28 11 100 0.00137684
4 28 11 100 0.500005
7 28 11 100 0.498619
0 29 11 100 0.504824
5 29 11 100 0.495176
6 30 11 100 0.499594
10 30 11 100 0.500406
0 31 11 100 1
0 32 11 100 0.00243991
11 32 11 100 0.99756
0 33 11 100 0.967772
11 33 11 100 0.0322276
11 34 11 100 1
0 1 12 100 0.000404206
1 1 12 100 0.789343
2 1 12 100 0.0530726
3 1 12 100 0.0123136
4 1 12 100 0.0109934
5 1 12 100 0.0184154
6 1 12 100 0.0111427
7 1 12 100 0.00317776
8 1 12 100 0.00154515
9 1 12 100 9.2623e-07
10 1 12 100 0.0026675
11 1 12 100 0.00320565
12 1 12 100 0.0937184
0 2 12 100 0.12233
1 2 12 100 0.0541157
2 2 12 100 0.46948
3 2 12 100 0.0893213
4 2 12 100 0.0335305
5 2 12 100 0.0432435
6 2 12 100 0.0301391
7 2 12 100 0.00902709
8 2 12 100 0.0122645
9 2 12 100 0.0123829
10 2 12 100 0.010873
11 2 12 100 0.0140263
12 2 12 100 0.0992656
0 3 12 100 0.147269
1 3 12 100 0.0444724
2 3 12 100 0.111838
3 3 12 100 0.2547
4 3 12 100 0.0963206
5 3 12 100 0.079781
6 3 12 100 0.0493386
7 3 12 100 0.02358
8 3 12 100 0.0152344
9 3 12 100 0.00760272
10 3 12 100 0.0178413
11 3 12 100 0.0346762
12 3 12 100 0.117346
0 4 12 100 0.184722
1 4 12 100 0.029267
2 4 12 100 0.069967
3 4 12 100 0.111526
4 4 12 100 0.171345
5 4 12 100 0.117575
6 4 12 100 0.0776536
7 4 12 100 0.0289488
8 4 12 100 0.0293969
9 4 12 100 0.016143
10 4 12 100 0.0215329
11 4 12 100 0.0283987
12 4 12 100 0.113524
0 5 12 100 0.215388
1 5 12 100 0.0163947
2 5 12 100 0.0345709
3 5 12 100 0.0555953
4 5 12 100 0.116508
5 5 12 100 0.151914
6 5 12 100 0.103302
7 5 12 100 0.0733343
8 5 12 100 0.0348626
9 5 12 100 0.0284542
10 5 12 100 0.0272766
11 5 12 100 0.0307001
12 5 12 100 0.111698
0 6 12 100 0.18967
1 6 12 100 0.0179019
2 6 12 100 0.0262809
3 6 12 100 0.0366172
4 6 12 100 0.0883781
5 6 12 100 0.137083
6 6 12 100 0.13029
7 6 12 100 0.086164
8 6 12 100 0.0499992
9 6 12 100 0.0380844
10 6 12 100 0.0303451
11 6 12 100 0.0475199
12 6 12 100 0.121666
0 7 12 100 0.179857
1 7 12 100 0.011925
2 7 12 100 0.015511
3 7 12 100 0.0226838
4 7 12 100 0.065978
5 7 12 100 0.0913976
6 7 12 100 0.123759
7 7 12 100 0.114967
8 7 12 100 0.0823597
9 7 12 100 0.0493187
10 7 12 100 0.0354057
11 7 12 100 0.0647335
12 7 12 100 0.142104
0 8 12 100 0.205002
1 8 12 100 0.0072339
2 8 12 100 0.0196259
3 8 12 100 0.0199185
4 8 12 100 0.0401947
5 8 12 100 0.0645515
6 8 12 100 0.0825265
7 8 12 100 0.107501
8 8 12 100 0.121813
9 8 12 100 0.0802113
10 8 12 100 0.064531
11 8 12 100 0.0461784
12 8 12 100 0.140712
0 9 12 100 0.18362
1 9 12 100 0.0058204
2 9 12 100 0.0143533
3 9 12 100 0.0230945
4 9 12 100 0.0171864
5 9 12 100 0.0482907
6 9 12 100 0.0875499
7 9 12 100 0.0997164
8 9 12 100 0.0851727
9 9 12 100 0.106482
10 9 12 100 0.080823
11 9 12 100 0.0847782
12 9 12 100 0.163112
0 10 12 100 0.199284
1 10 12 100 0.0063119
2 10 12 100 0.015283
3 10 12 100 0.0208012
4 10 12 100 0.0197254
5 10 12 100 0.0370129
6 10 12 100 0.0612388
7 10 12 100 0.0741057
8 10 12 100 0.0913039
9 10 12 100 0.115041
10 10 12 100 0.106015
11 10 12 100 0.0878954
12 10 12 100 0.165982
0 11 12 100 0.205178
1 11 12 100 0.00523573
2 11 12 100 0.00699626
3 11 12 100 0.0163193
4 11 12 100 0.0161116
5 11 12 100 0.0367187
6 11 12 100 0.0319945
7 11 12 100 0.0677302
8 11 12 100 0.0749467
9 11 12 100 0.096254
10 11 12 100 0.142001
11 11 12 100 0.101655
12 11 12 100 0.198858
0 12 12 100 0.179574
1 12 12 100 0.00379398
2 12 12 100 0.01117
3 12 12 100 0.00677387
4 12 12 100 0.0133041
5 12 12 100 0.0257153
6 12 12 100 0.0450069
7 12 12 100 0.0436704
8 12 12 100 0.0652337
9 12 12 100 0.0944437
10 12 12 100 0.132485
11 12 12 100 0.122868
12 12 12 100 0.255962
0 13 12 100 0.194615
1 13 12 100 0.00227474
2 13 12 100 0.00682695
3 13 12 100 0.00910265
4 13 12 100 0.00902487
5 13 12 100 0.036245
6 13 12 100 0.0220945
7 13 12 100 0.0345144
8 13 12 100 0.0429
9 13 12 100 0.0904681
10 13 12 100 0.122199
11 13 12 100 0.146484
12 13 12 100 0.283251
0 14 12 100 0.168079
1 14 12 100 0.00877197
2 14 12 100 0.00586158
3 14 12 100 0.0166423
4 14 12 100 0.008785
5 14 12 100 0.0324815
6 14 12 100 0.0330997
7 14 12 100 0.043705
8 14 12 100 0.0354569
9 14 12 100 0.0948338
10 14 12 100 0.102205
11 14 12 100 0.124465
12 14 12 100 0.325613
0 15 12 100 0.137139
1 15 12 100 0.00371056
2 15 12 100 0.0117673
3 15 12 100 0.0154852
4 15 12 100 0.0198087
5 15 12 100 0.0302383
6 15 12 100 0.0340292
7 15 12 100 0.029673
8 15 12 100 0.011805
9 15 12 100 0.0624331
10 15 12 100 0.146967
11 15 12 100 0.138009
12 15 12 100 0.358934
0 16 12 100 0.192722
1 16 12 100 0.00437335
2 16 12 100 0.00550082
3 16 12 100 0.0235303
4 16 12 100 0.0170197
5 16 12 100 0.011768
6 16 12 100 0.0410673
7 16 12 100 0.0357153
8 16 12 100 0.0353072
9 16 12 100 0.0779063
10 16 12 100 0.0921955
11 16 12 100 0.139721
12 16 12 100 0.323173
0 17 12 100 0.170233
1 17 12 100 0.0166697
2 17 12 100 2.45932e-05
3 17 12 100 0.016708
4 17 12 100 0.0413082
5 17 12 100 0.0166491
6 17 12 100 0.0333612
7 17 12 100 0.0333334
8 17 12 100 0.0342211
9 17 12 100 0.0348516
10 17 12 100 0.0642208
11 17 12 100 0.18181
12 17 12 100 0.356609
0 18 12 100 0.146239
2 18 12 100 0.0262717
3 18 12 100 0.013649
4 18 12 100 0.0420687
5 18 12 100 0.000139563
6 18 12 100 0.0273999
7 18 12 100 0.0137063
8 18 12 100 0.0358975
9 18 12 100 0.0608532
10 18 12 100 0.0281706
11 18 12 100 0.180382
12 18 12 100 0.425223
0 19 12 100 0.200711
2 19 12 100 1.39457e-05
3 19 12 100 0.0208249
4 19 12 100 1.56144e-05
6 19 12 100 0.0436028
7 19 12 100 0.0214154
8 19 12 100 0.0433684
9 19 12 100 0.0816214
10 19 12 100 0.0982782
11 19 12 100 0.191482
12 19 12 100 0.298666
0 20 12 100 0.260768
2 20 12 100 1.0908e-05
3 20 12 100 0.0285704
4 20 12 100 1.98755e-05
5 20 12 100 0.000247551
6 20 12 100 0.0855806
7 20 12 100 0.0285714
8 20 12 100 2.74025e-05
9 20 12 100 0.0571429
10 20 12 100 0.0571577
11 20 12 100 0.281497
12 20 12 100 0.200406
0 21 12 100 0.176778
4 21 12 100 0.0399994
6 21 12 100 0.0800818
7 21 12 100 0.0799996
8 21 12 100 0.0692376
9 21 12 100 0.0400196
10 21 12 100 0.0800504
11 21 12 100 0.116066
12 21 12 100 0.317768
0 22 12 100 0.195312
6 22 12 100 0.00837973
8 22 12 100 0.256115
10 22 12 100 0.132903
11 22 12 100 0.0155868
12 22 12 100 0.391704
0 23 12 100 0.222467
4 23 12 100 0.1
8 23 12 100 0.0988873
9 23 12 100 0.2774
10 23 12 100 0.100001
11 23 12 100 0.201245
0 24 12 100 0.224411
8 24 12 100 0.221926
9 24 12 100 0.111111
10 24 12 100 0.222222
11 24 12 100 0.109197
12 24 12 100 0.111132
0 25 12 100 0.239275
3 25 12 100 0.125
5 25 12 100 0.0106405
6 25 12 100 2.32234e-05
8 25 12 100 0.000169516
9 25 12 100 0.249892
10 25 12 100 0.125011
11 25 12 100 0.128564
12 25 12 100 0.121426
0 26 12 100 0.0326719
3 26 12 100 0.1637
4 26 12 100 0.166662
8 26 12 100 0.166666
10 26 12 100 0.136976
11 26 12 100 4.13204e-06
12 26 12 100 0.33332
0 27 12 100 0.4
8 27 12 100 0.2
11 27 12 100 0.2
12 27 12 100 0.2
0 28 12 100 0.504931
3 28 12 100 0.243689
4 28 12 100 8.26999e-05
8 28 12 100 2.53125e-06
10 28 12 100 0.00133873
12 28 12 100 0.249956
0 29 12 100 0.25
11 29 12 100 0.5
12 29 12 100 0.25
0 30 12 100 1.96489e-05
1 30 12 100 4.2839e-05
3 30 12 100 0.000450609
4 30 12 100 0.00166598
8 30 12 100 0.00572731
10 30 12 100 0.327596
11 30 12 100 0.331163
12 30 12 100 0.333335
0 31 12 100 1.20343e-05
2 31 12 100 0.999988
0 32 12 100 0.500913
9 32 12 100 0.499087
0 33 12 100 0.423667
9 33 12 100 0.576333
10 34 12 100 1
11 35 12 100 1
0 36 12 100 0.00114086
11 36 12 100 0.998859
11 37 12 100 1
1 38 12 100 1
0 39 12 100 0.99993
5 39 12 100 6.96673e-05
0 40 12 100 1
0 41 12 100 3.86313e-05
5 41 12 100 1.48521e-05
7 41 12 100 0.999947
0 42 12 100 0.99499
1 42 12 100 0.00501041
6 43 12 100 1
7 44 12 100 1
0 1 13 100 0.000127347
1 1 13 100 0.758711
2 1 13 100 0.0590463
3 1 13 100 0.0219425
4 1 13 100 0.0218971
5 1 13 100 0.0111758
6 1 13 100 0.0135314
7 1 13 100 0.00781353
8 1 13 100 0.004695
9 1 13 100 2.34312e-05
10 1 13 100 0.00653533
11 1 13 100 0.00501725
12 1 13 100 0.0217233
13 1 13 100 0.0677606
0 2 13 100 0.120328
1 2 13 100 0.0594592
2 2 13 100 0.451299
3 2 13 100 0.096415
4 2 13 100 0.0498864
5 2 13 100 0.0352409
6 2 13 100 0.0233802
7 2 13 100 0.0235297
8 2 13 100 0.0182667
9 2 13 100 0.00936695
10 2 13 100 0.0142273
11 2 13 100 0.00479754
12 2 13 100 0.0235819
13 2 13 100 0.0702215
0 3 13 100 0.141132
1 3 13 100 0.0423052
2 3 13 100 0.10829
3 3 13 100 0.248584
4 3 13 100 0.111043
5 3 13 100 0.0664331
6 3 13 100 0.0505827
7 3 13 100 0.0403784
8 3 13 100 0.0255748
9 3 13 100 0.0204592
10 3 13 100 0.0139998
11 3 13 100 0.0120049
12 3 13 100 0.0284513
13 3 13 100 0.0907623
0 4 13 100 0.181358
1 4 13 100 0.0228672
2 4 13 100 0.059523
3 4 13 100 0.0953872
4 4 13 100 0.183403
5 4 13 100 0.129353
6 4 13 100 0.0600544
7 4 13 100 0.0494003
8 4 13 100 0.0343267
9 4 13 100 0.0254377
10 4 13 100 0.022949
11 4 13 100 0.0156676
12 4 13 100 0.0289075
13 4 13 100 0.0913663
0 5 13 100 0.216458
1 5 13 100 0.0109889
2 5 13 100 0.0504931
3 5 13 100 0.0522899
4 5 13 100 0.113193
5 5 13 100 0.141011
6 5 13 100 0.0980148
7 5 13 100 0.0720727
8 5 13 100 0.036008
9 5 13 100 0.0223662
10 5 13 100 0.0287541
11 5 13 100 0.0239108
12 5 13 100 0.0385879
13 5 13 100 0.0958518
0 6 13 100 0.215585
1 6 13 100 0.0156939
2 6 13 100 0.02786
3 6 13 100 0.0377283
4 6 13 100 0.0837292
5 6 13 100 0.123887
6 6 13 100 0.116083
7 6 13 100 0.0893441
8 6 13 100 0.0590369
9 6 13 100 0.0275831
10 6 13 100 0.0416363
11 6 13 100 0.0343815
12 6 13 100 0.0185306
13 6 13 100 0.108921
0 7 13 100 0.183726
1 7 13 100 0.00934195
2 7 13 100 0.0161325
3 7 13 100 0.0288225
4 7 13 100 0.0515087
5 7 13 100 0.117833
6 7 13 100 0.0903333
7 7 13 100 0.135573
8 7 13 100 0.0941785
9 7 13 100 0.0515588
10 7 13 100 0.0364495
11 7 13 100 0.0409231
12 7 13 100 0.0414557
13 7 13 100 0.102164
0 8 13 100 0.208081
1 8 13 100 0.00794993
2 8 13 100 0.0154876
3 8 13 100 0.0197402
4 8 13 100 0.0317575
5 8 13 100 0.0570379
6 8 13 100 0.0923672
7 8 13 100 0.107904
8 8 13 100 0.107951
9 8 13 100 0.0854912
10 8 13 100 0.0559344
11 8 13 100 0.0441307
12 8 13 100 0.0588733
13 8 13 100 0.107294
0 9 13 100 0.189361
1 9 13 100 0.00160474
2 9 13 100 0.0128353
3 9 13 100 0.0128166
4 9 13 100 0.0360369
5 9 13 100 0.04709
6 9 13 100 0.0566137
7 9 13 100 0.0995227
8 9 13 100 0.0917305
9 9 13 100 0.0935185
10 9 13 100 0.068164
11 9 13 100 0.0719685
12 9 13 100 0.0633495
13 9 13 100 0.155388
0 10 13 100 0.18482
1 10 13 100 0.00540766
2 10 13 100 0.00659599
3 10 13 100 0.0151388
4 10 13 100 0.0213124
5 10 13 100 0.0436067
6 10 13 100 0.0390173
7 10 13 100 0.0953811
8 10 13 100 0.0929354
9 10 13 100 0.0873125
10 10 13 100 0.0949509
11 10 13 100 0.0689392
12 10 13 100 0.091279
13 10 13 100 0.153303
0 11 13 100 0.185804
1 11 13 100 0.00167161
2 11 13 100 0.00832088
3 11 13 100 0.00715731
4 11 13 100 0.0320469
5 11 13 100 0.0279523
6 11 13 100 0.0443661
7 11 13 100 0.0502761
8 11 13 100 0.0832406
9 11 13 100 0.0737373
10 11 13 100 0.111987
11 11 13 100 0.105426
12 11 13 100 0.0818271
13 11 13 100 0.186188
0 12 13 100 0.186973
1 12 13 100 0.00902552
2 12 13 100 0.00907229
3 12 13 100 0.0079842
4 12 13 100 0.0197767
5 12 13 100 0.0116252
6 12 13 100 0.0435705
7 12 13 100 0.0471301
8 12 13 100 0.0637182
9 12 13 100 0.0643496
10 12 13 100 0.0906203
11 12 13 100 0.127271
12 12 13 100 0.113963
13 12 13 100 0.20492
0 13 13 100 0.191989
1 13 13 100 0.00754495
2 13 13 100 0.00420744
3 13 13 100 0.00863495
4 13 13 100 0.0123722
5 13 13 100 0.0208877
6 13 13 100 0.0272508
7 13 13 100 0.0521993
8 13 13 100 0.0507991
9 13 13 100 0.0577344
10 13 13 100 0.0819261
11 13 13 100 0.125415
12 13 13 100 0.141385
13 13 13 100 0.217654
0 14 13 100 0.208416
1 14 13 100 0.00522562
2 14 13 100 0.00295278
3 14 13 100 0.0084033
4 14 13 100 0.0082466
5 14 13 100 0.0080578
6 14 13 100 0.0455581
7 14 13 100 0.0297446
8 14 13 100 0.0471056
9 14 13 100 0.0639702
10 14 13 100 0.0770001
11 14 13 100 0.10485
12 14 13 100 0.171009
13 14 13 100 0.21946
0 15 13 100 0.14098
1 15 13 100 0.00332839
2 15 13 100 0.00658018
3 15 13 100 0.00659094
4 15 13 100 0.0152089
5 15 13 100 0.0198612
6 15 13 100 0.0132615
7 15 13 100 0.0344135
8 15 13 100 0.0361175
9 15 13 100 0.0797041
10 15 13 100 0.0873641
11 15 13 100 0.105713
12 15 13 100 0.157169
13 15 13 100 0.293708
0 16 13 100 0.174502
1 16 13 100 1.04568e-07
2 16 13 100 0.00895489
3 16 13 100 1.83928e-05
4 16 13 100 0.0177952
5 16 13 100 0.0212101
6 16 13 100 0.013521
7 16 13 100 0.0191525
8 16 13 100 0.0443849
9 16 13 100 0.0541173
10 16 13 100 0.0961295
11 16 13 100 0.132768
12 16 13 100 0.137597
13 16 13 100 0.279849
0 17 13 100 0.150799
1 17 13 100 0.00595378
2 17 13 100 0.0119056
3 17 13 100 0.00595863
4 17 13 100 0.0117428
5 17 13 100 0.00595807
6 17 13 100 0.0220449
7 17 13 100 0.0130468
8 17 13 100 0.0285484
9 17 13 100 0.064116
10 17 13 100 0.0893644
11 17 13 100 0.14158
12 17 13 100 0.173923
13 17 13 100 0.275058
0 18 13 100 0.207765
2 18 13 100 0.00833379
3 18 13 100 0.00834268
4 18 13 100 0.0166731
5 18 13 100 0.00574625
6 18 13 100 0.00970465
7 18 13 100 0.025
8 18 13 100 0.0166891
9 18 13 100 0.0718373
10 18 13 100 0.0801164
11 18 13 100 0.156336
12 18 13 100 0.150645
13 18 13 100 0.242811
0 19 13 100 0.167782
1 19 13 100 0.0117534
2 19 13 100 1.05191e-05
3 19 13 100 0.0117784
4 19 13 100 0.0117692
5 19 13 100 0.01177
7 19 13 100 0.0258493
8 19 13 100 0.0234452
9 19 13 100 0.0118007
10 19 13 100 0.0871797
11 19 13 100 0.0855377
12 19 13 100 0.234226
13 19 13 100 0.317098
0 20 13 100 0.123405
1 20 13 100 1.29072e-05
2 20 13 100 9.94091e-07
3 20 13 100 7.85805e-06
4 20 13 100 0.0399853
5 20 13 100 5.41386e-05
7 20 13 100 0.00420634
8 20 13 100 3.31345e-05
9 20 13 100 0.0600082
10 20 13 100 0.0398606
11 20 13 100 0.120867
12 20 13 100 0.210255
13 20 13 100 0.401303
0 21 13 100 0.16257
2 21 13 100 1.35818e-05
3 21 13 100 1.7423e-06
4 21 13 100 0.0344828
5 21 13 100 0.0337463
6 21 13 100 2.00841e-05
7 21 13 100 0.0348463
8 21 13 100 5.13661e-05
9 21 13 100 0.0420514
10 21 13 100 0.0463668
11 21 13 100 0.138495
12 21 13 100 0.172416
13 21 13 100 0.334939
0 22 13 100 0.264855
2 22 13 100 0.000649511
3 22 13 100 0.00646117
4 22 13 100 7.74203e-06
5 22 13 100 0.00790987
6 22 13 100 0.0454612
7 22 13 100 6.41008e-05
9 22 13 100 2.09607e-06
10 22 13 100 0.0909092
11 22 13 100 0.129901
12 22 13 100 0.0909092
13 22 13 100 0.362871
0 23 13 100 0.0555799
3 23 13 100 0.0555557
4 23 13 100 0.0555557
7 23 13 100 0.000480838
8 23 13 100 3.13444e-06
9 23 13 100 6.33913e-07
10 23 13 100 0.166631
11 23 13 100 0.222187
12 23 13 100 0.16623
13 23 13 100 0.277776
0 24 13 100 0.102846
3 24 13 100 0.0995527
6 24 13 100 1.21165e-06
7 24 13 100 0.0999897
9 24 13 100 0.00010673
11 24 13 100 0.100013
12 24 13 100 0.200001
13 24 13 100 0.397491
0 25 13 100 0.163351
3 25 13 100 0.0033156
4 25 13 100 0.166667
6 25 13 100 0.166667
11 25 13 100 0.166666
13 25 13 100 0.333334
0 26 13 100 0.2
6 26 13 100 0.2
12 26 13 100 8.37039e-06
13 26 13 100 0.599992
0 27 13 100 0.25
4 27 13 100 0.25
6 27 13 100 0.25
13 27 13 100 0.25
0 28 13 100 0.333333
6 28 13 100 0.333334
13 28 13 100 0.333333
0 29 13 100 0.333333
4 29 13 100 0.666667
0 30 13 100 0.372223
4 30 13 100 0.333318
10 30 13 100 0.29446
0 31 13 100 0.0752611
6 31 13 100 0.333333
7 31 13 100 5.23472e-06
10 31 13 100 0.258068
13 31 13 100 0.333333
0 32 13 100 0.333333
11 32 13 100 0.340955
13 32 13 100 0.325712
11 33 13 100 0.333334
13 33 13 100 0.666666
0 34 13 100 0.520133
3 34 13 100 6.51197e-05
13 34 13 100 0.479802
0 35 13 100 0.80539
7 35 13 100 0.167376
8 35 13 100 0.0202291
10 35 13 100 0.00700485
0 36 13 100 1.13311e-05
4 36 13 100 0.5
13 36 13 100 0.499988
0 37 13 100 0.000479329
4 37 13 100 0.999444
7 37 13 100 7.65363e-05
0 38 13 100 0.00422304
3 38 13 100 4.37522e-05
5 38 13 100 0.995733
5 39 13 100 1
0 40 13 100 2.38463e-05
5 40 13 100 0.00241477
13 40 13 100 0.997561
0 1 14 100 0.00304147
1 1 14 100 0.778048
2 1 14 100 0.0332081
3 1 14 100 0.0161898
4 1 14 100 0.00567666
5 1 14 100 0.0126368
6 1 14 100 0.00907077
7 1 14 100 0.00754594
8 1 14 100 0.00668916
9 1 14 100 0.0141057
10 1 14 100 0.00149443
11 1 14 100 1.20218e-06
12 1 14 100 0.00819435
13 1 14 100 0.0217537
14 1 14 100 0.0823445
0 2 14 100 0.108777
1 2 14 100 0.0730441
2 2 14 100 0.449664
3 2 14 100 0.0887927
4 2 14 100 0.0461459
5 2 14 100 0.0307086
6 2 14 100 0.0316345
7 2 14 100 0.017986
8 2 14 100 0.0153939
9 2 14 100 0.0223817
10 2 14 100 0.00608097
11 2 14 100 0.00484087
12 2 14 100 0.00785967
13 2 14 100 0.03278
14 2 14 100 0.0639107
0 3 14 100 0.155209
1 3 14 100 0.0367768
2 3 14 100 0.11532
3 3 14 100 0.255204
4 3 14 100 0.0843502
5 3 14 100 0.0629286
6 3 14 100 0.0537483
7 3 14 100 0.0221404
8 3 14 100 0.0235984
9 3 14 100 0.0297025
10 3 14 100 0.00939409
11 3 14 100 0.0106673
12 3 14 100 0.0168271
13 3 14 100 0.0302302
14 3 14 100 0.093903
0 4 14 100 0.184553
1 4 14 100 0.0166179
2 4 14 100 0.0610011
3 4 14 100 0.101175
4 4 14 100 0.189383
5 4 14 100 0.0994558
6 4 14 100 0.0702217
7 4 14 100 0.0460652
8 4 14 100 0.0383282
9 4 14 100 0.022331
10 4 14 100 0.0152942
11 4 14 100 0.0188794
12 4 14 100 0.0182071
13 4 14 100 0.037913
14 4 14 100 0.0805734
0 5 14 100 0.1843
1 5 14 100 0.0131962
2 5 14 100 0.0349595
3 5 14 100 0.0574868
4 5 14 100 0.118399
5 5 14 100 0.144328
6 5 14 100 0.110513
7 5 14 100 0.0619897
8 5 14 100 0.0475441
9 5 14 100 0.0330695
10 5 14 100 0.0208068
11 5 14 100 0.0211409
12 5 14 100 0.0259692
13 5 14 100 0.0240688
14 5 14 100 0.10223
0 6 14 100 0.202033
1 6 14 100 0.0148353
2 6 14 100 0.0288128
3 6 14 100 0.0339398
4 6 14 100 0.0738591
5 6 14 100 0.111448
6 6 14 100 0.123707
7 6 14 100 0.0889533
8 6 14 100 0.0540416
9 6 14 100 0.0342138
10 6 14 100 0.038858
11 6 14 100 0.0318238
12 6 14 100 0.0256332
13 6 14 100 0.0394866
14 6 14 100 0.0983541
0 7 14 100 0.19756
1 7 14 100 0.0105759
2 7 14 100 0.0151901
3 7 14 100 0.0208747
4 7 14 100 0.0497391
5 7 14 100 0.102186
6 7 14 100 0.113786
7 7 14 100 0.106903
8 7 14 100 0.0927947
9 7 14 100 0.0389228
10 7 14 100 0.0343029
11 7 14 100 0.0408987
12 7 14 100 0.0404398
13 7 14 100 0.0300735
14 7 14 100 0.105753
0 8 14 100 0.190892
1 8 14 100 0.00755989
2 8 14 100 0.0301046
3 8 14 100 0.0199864
4 8 14 100 0.0294728
5 8 14 100 0.0634861
6 8 14 100 0.0852545
7 8 14 100 0.109588
8 8 14 100 0.114379
9 8 14 100 0.0744961
10 8 14 100 0.0512351
11 8 14 100 0.0429403
12 8 14 100 0.0309032
13 8 14 100 0.047641
14 8 14 100 0.102061
0 9 14 100 0.180991
1 9 14 100 0.00879908
2 9 14 100 0.0180347
3 9 14 100 0.0227584
4 9 14 100 0.0286554
5 9 14 100 0.0388448
6 9 14 100 0.0888444
7 9 14 100 0.100905
8 9 14 100 0.0896622
9 9 14 100 0.102577
10 9 14 100 0.0436058
11 9 14 100 0.0531881
12 9 14 100 0.0501756
13 9 14 100 0.0585221
14 9 14 100 0.114436
0 10 14 100 0.184144
1 10 14 100 0.0103266
2 10 14 100 0.0153444
3 10 14 100 0.0168364
4 10 14 100 0.0237727
5 10 14 100 0.0371956
6 10 14 100 0.0507645
7 10 14 100 0.095624
8 10 14 100 0.082445
9 10 14 100 0.0795929
10 10 14 100 0.0935398
11 10 14 100 0.0557044
12 10 14 100 0.0415
13 10 14 100 0.0709031
14 10 14 100 0.142307
0 11 14 100 0.204956
1 11 14 100 0.00776469
2 11 14 100 0.0142674
3 11 14 100 0.0141684
4 11 14 100 0.0240453
5 11 14 100 0.0194334
6 11 14 100 0.0587831
7 11 14 100 0.0726924
8 11 14 100 0.0655466
9 11 14 100 0.0957897
10 11 14 100 0.0802456
11 11 14 100 0.077548
12 11 14 100 0.071646
13 11 14 100 0.0680447
14 11 14 100 0.125069
0 12 14 100 0.222058
1 12 14 100 0.00655637
2 12 14 100 0.00773905
3 12 14 100 0.0131255
4 12 14 100 0.00522341
5 12 14 100 0.0227865
6 12 14 100 0.0420822
7 12 14 100 0.0541119
8 12 14 100 0.0511196
9 12 14 100 0.0813911
10 12 14 100 0.0747221
11 12 14 100 0.0873011
12 12 14 100 0.107322
13 12 14 100 0.0776792
14 12 14 100 0.146781
0 13 14 100 0.182572
1 13 14 100 0.0052725
2 13 14 100 0.00344925
3 13 14 100 0.00842524
4 13 14 100 0.010259
5 13 14 100 0.0126191
6 13 14 100 0.0411539
7 13 14 100 0.0355463
8 13 14 100 0.0518395
9 13 14 100 0.0774877
10 13 14 100 0.114341
11 13 14 100 0.0806107
12 13 14 100 0.113619
13 13 14 100 0.106666
14 13 14 100 0.156138
0 14 14 100 0.167577
1 14 14 100 0.00389185
2 14 14 100 0.00582235
3 14 14 100 0.00899905
4 14 14 100 0.0128758
5 14 14 100 0.011322
6 14 14 100 0.0200106
7 14 14 100 0.0463249
8 14 14 100 0.0483638
9 14 14 100 0.0708204
10 14 14 100 0.0815386
11 14 14 100 0.0923549
12 14 14 100 0.133876
13 14 14 100 0.101007
14 14 14 100 0.195216
0 15 14 100 0.168576
1 15 14 100 0.0022832
2 15 14 100 0.00230783
3 15 14 100 0.00298585
4 15 14 100 0.0134226
5 15 14 100 0.0161216
6 15 14 100 0.0229689
7 15 14 100 0.0234615
8 15 14 100 0.0183751
9 15 14 100 0.0612268
10 15 14 100 0.0826893
11 15 14 100 0.0985109
12 15 14 100 0.133743
13 15 14 100 0.13195
14 15 14 100 0.221378
0 16 14 100 0.137907
1 16 14 100 0.00586525
2 16 14 100 0.000414636
3 16 14 100 0.00255031
4 16 14 100 0.0115351
5 16 14 100 0.0147209
6 16 14 100 0.0318378
7 16 14 100 0.0118937
8 16 14 100 0.0325292
9 16 14 100 0.0388371
10 16 14 100 0.0775955
11 16 14 100 0.0884496
12 16 14 100 0.134086
13 16 14 100 0.11593
14 16 14 100 0.295847
0 17 14 100 0.164156
1 17 14 100 0.00398414
2 17 14 100 9.15721e-07
3 17 14 100 0.00798787
4 17 14 100 0.00797878
5 17 14 100 0.00399622
6 17 14 100 0.0155507
7 17 14 100 0.043885
8 17 14 100 0.0273701
9 17 14 100 0.0484497
10 17 14 100 0.0677012
11 17 14 100 0.0798723
12 17 14 100 0.127875
13 17 14 100 0.123906
14 17 14 100 0.277287
0 18 14 100 0.178281
1 18 14 100 0.00532572
2 18 14 100 0.0053535
3 18 14 100 0.00125795
4 18 14 100 6.40275e-05
5 18 14 100 0.00527246
6 18 14 100 0.0160579
7 18 14 100 0.0412291
8 18 14 100 0.0315655
9 18 14 100 0.0367182
10 18 14 100 0.0420341
11 18 14 100 0.0960201
12 18 14 100 0.112157
13 18 14 100 0.142073
14 18 14 100 0.286591
0 19 14 100 0.163109
2 19 14 100 0.00759884
4 19 14 100 1.46511e-05
5 19 14 100 4.93642e-05
6 19 14 100 0.00782645
7 19 14 100 0.0225342
8 19 14 100 0.00747958
9 19 14 100 0.0349373
10 19 14 100 0.0454827
11 19 14 100 0.0595541
12 19 14 100 0.158991
13 19 14 100 0.197066
14 19 14 100 0.295357
0 20 14 100 0.161072
2 20 14 100 0.0184397
4 20 14 100 0.010318
5 20 14 100 0.0104231
6 20 14 100 0.0103327
7 20 14 100 0.0516761
8 20 14 100 0.0207304
9 20 14 100 0.0206524
10 20 14 100 0.012506
11 20 14 100 0.0825428
12 20 14 100 0.124723
13 20 14 100 0.0962801
14 20 14 100 0.380304
0 21 14 100 0.202804
2 21 14 100 7.01179e-06
3 21 14 100 0.0178599
6 21 14 100 5.73789e-07
7 21 14 100 0.0178616
8 21 14 100 0.0528201
9 21 14 100 0.0184741
10 21 14 100 0.0179874
11 21 14 100 0.0178592
12 21 14 100 0.206928
13 21 14 100 0.0896027
14 21 14 100 0.357795
0 22 14 100 0.251148
2 22 14 100 1.4422e-05
3 22 14 100 0.0217053
4 22 14 100 1.32977e-06
5 22 14 100 1.15341e-06
6 22 14 100 0.0245045
7 22 14 100 0.0232559
8 22 14 100 0.0470075
9 22 14 100 0.0232321
10 22 14 100 0.0423213
11 22 14 100 0.0327491
12 22 14 100 0.207568
13 22 14 100 0.0233009
14 22 14 100 0.303191
0 23 14 100 0.109394
3 23 14 100 0.0344828
4 23 14 100 0.0344827
5 23 14 100 7.46016e-06
7 23 14 100 0.0689691
9 23 14 100 0.0502644
10 23 14 100 0.0344828
11 23 14 100 0.0380431
12 23 14 100 0.0344851
13 23 14 100 0.206531
14 23 14 100 0.388858
0 24 14 100 0.293401
3 24 14 100 0.0434874
5 24 14 100 0.00571198
9 24 14 100 0.00794081
10 24 14 100 0.0434784
11 24 14 100 0.000232966
12 24 14 100 0.00061467
13 24 14 100 0.228104
14 24 14 100 0.37703
0 25 14 100 0.145509
3 25 14 100 0.0714287
4 25 14 100 8.87886e-06
11 25 14 100 0.142857
13 25 14 100 0.142388
14 25 14 100 0.497808
0 26 14 100 0.201828
11 26 14 100 0.0981722
12 26 14 100 0.1
13 26 14 100 0.2
14 26 14 100 0.4
0 27 14 100 0.285688
3 27 14 100 0.142857
8 27 14 100 2.64067e-05
12 27 14 100 0.142857
13 27 14 100 0.142857
14 27 14 100 0.285714
0 28 14 100 0.260015
3 28 14 100 0.24822
8 28 14 100 0.241771
11 28 14 100 0.249995
0 29 14 100 0.00827684
3 29 14 100 0.0192289
11 29 14 100 0.23077
12 29 14 100 0.491724
14 29 14 100 0.250001
0 30 14 100 0.332979
4 30 14 100 0.000337807
6 30 14 100 6.41437e-06
7 30 14 100 0.333246
9 30 14 100 1.62057e-05
10 30 14 100 0.333414
0 31 14 100 0.00474918
3 31 14 100 0.000925215
7 31 14 100 0.332403
10 31 14 100 4.8407e-06
11 31 14 100 0.333333
12 31 14 100 0.328584
0 32 14 100 0.333333
7 32 14 100 0.333333
11 32 14 100 0.333333
0 33 14 100 0.333333
7 33 14 100 0.333333
13 33 14 100 0.333333
0 34 14 100 0.32317
12 34 14 100 0.67683
0 35 14 100 0.000767967
6 35 14 100 4.40824e-06
11 35 14 100 0.333333
12 35 14 100 0.332561
13 35 14 100 0.333333
0 36 14 100 0.00419824
6 36 14 100 6.71879e-05
11 36 14 100 0.333333
12 36 14 100 0.329068
13 36 14 100 0.333333
3 37 14 100 0.499998
14 37 14 100 0.500002
3 38 14 100 1
3 39 14 100 1
0 40 14 100 1.09259e-05
3 40 14 100 0.999911
7 40 14 100 7.78056e-05
14 41 14 100 1
0 1 15 100 0.000116185
1 1 15 100 0.790342
2 1 15 100 0.0412679
3 1 15 100 0.00918638
4 1 15 100 0.010633
5 1 15 100 0.00192073
6 1 15 100 0.00301169
7 1 15 100 0.00933543
8 1 15 100 0.010332
9 1 15 100 0.0104918
10 1 15 100 0.00300468
11 1 15 100 0.00656429
12 1 15 100 3.50691e-05
13 1 15 100 0.00862438
14 1 15 100 0.0177479
15 1 15 100 0.0773867
0 2 15 100 0.131145
1 2 15 100 0.0592931
2 2 15 100 0.443798
3 2 15 100 0.098746
4 2 15 100 0.0506008
5 2 15 100 0.01579
6 2 15 100 0.0149919
7 2 15 100 0.0185374
8 2 15 100 0.0153191
9 2 15 100 0.015499
10 2 15 100 0.0135559
11 2 15 100 0.0165077
12 2 15 100 0.00870275
13 2 15 100 0.0146622
14 2 15 100 0.0183136
15 2 15 100 0.0645377
0 3 15 100 0.159891
1 3 15 100 0.0417079
2 3 15 100 0.125004
3 3 15 100 0.222015
4 3 15 100 0.108985
5 3 15 100 0.0434341
6 3 15 100 0.034516
7 3 15 100 0.0303243
8 3 15 100 0.0191558
9 3 15 100 0.0210589
10 3 15 100 0.0164141
11 3 15 100 0.02173
12 3 15 100 0.0119101
13 3 15 100 0.0273195
14 3 15 100 0.0405471
15 3 15 100 0.0759858
0 4 15 100 0.206834
1 4 15 100 0.020056
2 4 15 100 0.0683344
3 4 15 100 0.0743209
4 4 15 100 0.169293
5 4 15 100 0.104385
6 4 15 100 0.0503174
7 4 15 100 0.0518749
8 4 15 100 0.0272697
9 4 15 100 0.0229566
10 4 15 100 0.0193123
11 4 15 100 0.0148418
12 4 15 100 0.0182839
13 4 15 100 0.025726
14 4 15 100 0.0311721
15 4 15 100 0.0950218
0 5 15 100 0.191911
1 5 15 100 0.0176706
2 5 15 100 0.0412471
3 5 15 100 0.0488741
4 5 15 100 0.12663
5 5 15 100 0.160576
6 5 15 100 0.0763488
7 5 15 100 0.0647825
8 5 15 100 0.0482631
9 5 15 100 0.0282797
10 5 15 100 0.028248
11 5 15 100 0.0135196
12 5 15 100 0.0200279
13 5 15 100 0.027941
14 5 15 100 0.024242
15 5 15 100 0.0814385
0 6 15 100 0.194481
1 6 15 100 0.0138851
2 6 15 100 0.0228383
3 6 15 100 0.0414107
4 6 15 100 0.0698213
5 6 15 100 0.122277
6 6 15 100 0.127311
7 6 15 100 0.0837923
8 6 15 100 0.0543665
9 6 15 100 0.0480069
10 6 15 100 0.0282791
11 6 15 100 0.0223375
12 6 15 100 0.0141669
13 6 15 100 0.0222285
14 6 15 100 0.0349609
15 6 15 100 0.0998363
0 7 15 100 0.199604
1 7 15 100 0.00693934
2 7 15 100 0.0234003
3 7 15 100 0.0171746
4 7 15 100 0.0531944
5 7 15 100 0.108958
6 7 15 100 0.11433
7 7 15 100 0.117399
8 7 15 100 0.0694848
9 7 15 100 0.0576787
10 7 15 100 0.0364364
11 7 15 100 0.0205159
12 7 15 100 0.0253259
13 7 15 100 0.0195691
14 7 15 100 0.030234
15 7 15 100 0.0997561
0 8 15 100 0.208604
1 8 15 100 0.00451893
2 8 15 100 0.0169605
3 8 15 100 0.0180797
4 8 15 100 0.0354381
5 8 15 100 0.0668019
6 8 15 100 0.0875088
7 8 15 100 0.107245
8 8 15 100 0.11557
9 8 15 100 0.0740552
10 8 15 100 0.0515954
11 8 15 100 0.0272894
12 8 15 100 0.0274239
13 8 15 100 0.0268855
14 8 15 100 0.0313697
15 8 15 100 0.100654
0 9 15 100 0.212928
1 9 15 100 0.00441715
2 9 15 100 0.0138633
3 9 15 100 0.01132
4 9 15 100 0.0265034
5 9 15 100 0.0433817
6 9 15 100 0.0638894
7 9 15 100 0.0880634
8 9 15 100 0.100832
9 9 15 100 0.0911354
10 9 15 100 0.0830198
11 9 15 100 0.0489544
12 9 15 100 0.0253935
13 9 15 100 0.0461244
14 9 15 100 0.0306683
15 9 15 100 0.109506
0 10 15 100 0.210773
1 10 15 100 0.00452732
2 10 15 100 0.00318114
3 10 15 100 0.00988965
4 10 15 100 0.0242824
5 10 15 100 0.0366677
6 10 15 100 0.0433219
7 10 15 100 0.0761832
8 10 15 100 0.0851842
9 10 15 100 0.0959225
10 10 15 100 0.0928193
11 10 15 100 0.0742765
12 10 15 100 0.0497427
13 10 15 100 0.0356739
14 10 15 100 0.0442807
15 10 15 100 0.113274
0 11 15 100 0.190723
1 11 15 100 0.00571637
2 11 15 100 0.00771587
3 11 15 100 0.00462033
4 11 15 100 0.0187253
5 11 15 100 0.0220598
6 11 15 100 0.0430396
7 11 15 100 0.0590783
8 11 15 100 0.0754736
9 11 15 100 0.102405
10 11 15 100 0.0905673
11 11 15 100 0.0820775
12 11 15 100 0.0717839
13 11 15 100 0.0586731
14 11 15 100 0.0472068
15 11 15 100 0.120134
0 12 15 100 0.1879
1 12 15 100 0.00619392
2 12 15 100 0.010914
3 12 15 100 0.00500966
4 12 15 100 0.00917191
5 12 15 100 0.0203776
6 12 15 100 0.0317004
7 12 15 100 0.0371579
8 12 15 100 0.0666189
9 12 15 100 0.0766576
10 12 15 100 0.0893031
11 12 15 100 0.0882819
12 12 15 100 0.0852387
13 12 15 100 0.0909085
14 12 15 100 0.0630949
15 12 15 100 0.131471
0 13 15 100 0.219999
1 13 15 100 0.00327519
2 13 15 100 0.00793466
3 13 15 100 0.00344435
4 13 15 100 0.00832463
5 13 15 100 0.0142391
6 13 15 100 0.0284024
7 13 15 100 0.0204595
8 13 15 100 0.058402
9 13 15 100 0.0481254
10 13 15 100 0.0972861
11 13 15 100 0.0822951
12 13 15 100 0.0913606
13 13 15 100 0.108932
14 13 15 100 0.0621617
15 13 15 100 0.145358
0 14 15 100 0.168458
1 14 15 100 0.0088968
2 14 15 100 0.0103619
3 14 15 100 0.0100006
4 14 15 100 0.0144117
5 14 15 100 0.0164028
6 14 15 100 0.0323008
7 14 15 100 0.0219074
8 14 15 100 0.0395456
9 14 15 100 0.0535051
10 14 15 100 0.0609535
11 14 15 100 0.1085
12 14 15 100 0.0841092
13 14 15 100 0.115611
14 14 15 100 0.0861827
15 14 15 100 0.168852
0 15 15 100 0.183481
1 15 15 100 0.00391476
2 15 15 100 0.0079945
3 15 15 100 0.00512659
4 15 15 100 0.0195905
5 15 15 100 0.0139424
6 15 15 100 0.0114502
7 15 15 100 0.0365341
8 15 15 100 0.0367858
9 15 15 100 0.0404581
10 15 15 100 0.0581056
11 15 15 100 0.0970621
12 15 15 100 0.0931647
13 15 15 100 0.0892282
14 15 15 100 0.0985331
15 15 15 100 0.204628
0 16 15 100 0.193466
1 16 15 100 0.00462979
2 16 15 100 0.00701178
3 16 15 100 0.00661871
4 16 15 100 0.0132061
5 16 15 100 0.00689073
6 16 15 100 0.0122227
7 16 15 100 0.0180555
8 16 15 100 0.0280118
9 16 15 100 0.0311357
10 16 15 100 0.0588187
11 16 15 100 0.0804578
12 16 15 100 0.0929983
13 16 15 100 0.12965
14 16 15 100 0.109873
15 16 15 100 0.206953
0 17 15 100 0.161296
2 17 15 100 5.0845e-06
3 17 15 100 0.00285093
4 17 15 100 0.00979147
5 17 15 100 0.0197198
6 17 15 100 0.00852602
7 17 15 100 0.0118346
8 17 15 100 0.0250446
9 17 15 100 0.0235878
10 17 15 100 0.0435173
11 17 15 100 0.0848359
12 17 15 100 0.10589
13 17 15 100 0.130368
14 17 15 100 0.159565
15 17 15 100 0.213167
0 18 15 100 0.197863
1 18 15 100 0.0038313
2 18 15 100 1.12869e-05
3 18 15 100 0.00685935
4 18 15 100 0.00754438
5 18 15 100 0.0116493
6 18 15 100 0.0192586
7 18 15 100 0.0230104
8 18 15 100 0.0386488
9 18 15 100 0.015467
10 18 15 100 0.0328083
11 18 15 100 0.0608749
12 18 15 100 0.0838805
13 18 15 100 0.155043
14 18 15 100 0.14826
15 18 15 100 0.19499
0 19 15 100 0.157392
3 19 15 100 2.4489e-06
4 19 15 100 0.0159571
5 19 15 100 0.0156272
6 19 15 100 0.015629
7 19 15 100 0.0108101
8 19 15 100 0.0437922
9 19 15 100 0.0395637
10 19 15 100 0.0258065
11 19 15 100 0.078108
12 19 15 100 0.0759649
13 19 15 100 0.126183
14 19 15 100 0.166875
15 19 15 100 0.228289
0 20 15 100 0.231945
2 20 15 100 0.00717676
3 20 15 100 0.000216129
4 20 15 100 0.0213625
5 20 15 100 0.00713976
6 20 15 100 0.014287
7 20 15 100 0.0214012
8 20 15 100 0.0239199
9 20 15 100 0.0285817
10 20 15 100 0.0388184
11 20 15 100 0.0437732
12 20 15 100 0.077137
13 20 15 100 0.0928206
14 20 15 100 0.155452
15 20 15 100 0.235969
0 21 15 100 0.142889
1 21 15 100 2.15938e-07
2 21 15 100 0.00966973
3 21 15 100 6.14555e-05
4 21 15 100 0.027617
5 21 15 100 0.0191057
6 21 15 100 0.0195094
7 21 15 100 2.84126e-05
8 21 15 100 0.028577
9 21 15 100 0.00965959
10 21 15 100 0.0379832
11 21 15 100 0.0573946
12 21 15 100 0.0756303
13 21 15 100 0.142033
14 21 15 100 0.181233
15 21 15 100 0.248608
0 22 15 100 0.134115
2 22 15 100 1.19694e-06
3 22 15 100 3.2546e-05
4 22 15 100 0.0153736
5 22 15 100 0.0554021
6 22 15 100 3.82615e-07
7 22 15 100 0.0163999
8 22 15 100 0.0277785
9 22 15 100 0.0173553
10 22 15 100 0.0568718
11 22 15 100 0.0173101
12 22 15 100 0.0821162
13 22 15 100 0.162662
14 22 15 100 0.139164
15 22 15 100 0.275417
0 23 15 100 0.181632
3 23 15 100 0.000194441
7 23 15 100 0.0204146
8 23 15 100 0.0203773
9 23 15 100 9.37212e-07
10 23 15 100 0.0813871
11 23 15 100 0.0733774
12 23 15 100 0.0423664
13 23 15 100 0.187898
14 23 15 100 0.14637
15 23 15 100 0.245982
0 24 15 100 0.146011
5 24 15 100 0.025726
6 24 15 100 0.0263633
7 24 15 100 0.025641
9 24 15 100 1.07909e-06
10 24 15 100 0.0259091
11 24 15 100 0.0333419
12 24 15 100 0.0768827
13 24 15 100 0.229934
14 24 15 100 0.205148
15 24 15 100 0.205042
0 25 15 100 0.273303
4 25 15 100 0.000372417
5 25 15 100 0.0454546
6 25 15 100 0.0454546
7 25 15 100 1.09441e-06
8 25 15 100 0.0454676
10 25 15 100 0.00324158
11 25 15 100 0.00642769
12 25 15 100 0.180696
13 25 15 100 0.12684
14 25 15 100 0.136377
15 25 15 100 0.136364
0 26 15 100 0.343977
3 26 15 100 7.72024e-07
5 26 15 100 0.0548997
7 26 15 100 0.0588236
8 26 15 100 0.0588236
9 26 15 100 1.85099e-06
11 26 15 100 0.00695646
12 26 15 100 0.0588235
13 26 15 100 0.0647523
14 26 15 100 0.117647
15 26 15 100 0.235294
0 27 15 100 0.229277
6 27 15 100 8.92085e-05
7 27 15 100 0.153839
9 27 15 100 2.53966e-06
10 27 15 100 1.62564e-06
11 27 15 100 0.000504654
12 27 15 100 0.0769232
13 27 15 100 0.230982
14 27 15 100 0.154599
15 27 15 100 0.153782
0 28 15 100 0.100076
5 28 15 100 0.1
6 28 15 100 4.35484e-05
7 28 15 100 0.0998036
8 28 15 100 0.1
10 28 15 100 0.000196343
13 28 15 100 0.2
15 28 15 100 0.39988
0 29 15 100 0.200686
6 29 15 100 9.74448e-05
13 29 15 100 0.408574
14 29 15 100 0.191322
15 29 15 100 0.199321
0 30 15 100 0.32777
8 30 15 100 0.00434901
9 30 15 100 0.000453625
14 30 15 100 0.334093
15 30 15 100 0.333334
0 31 15 100 0.333334
15 31 15 100 0.666666
0 32 15 100 0.00576944
4 32 15 100 1.29494e-05
7 32 15 100 0.113333
11 32 15 100 7.62474e-05
12 32 15 100 0.880413
13 32 15 100 0.000395619
6 33 15 100 2.63686e-05
13 33 15 100 0.999974
0 34 15 100 0.000355313
6 34 15 100 7.95786e-05
13 34 15 100 0.999565
0 35 15 100 2.88202e-05
7 35 15 100 0.999906
13 35 15 100 6.54263e-05
0 36 15 100 0.869029
1 36 15 100 0.00026137
7 36 15 100 0.12791
8 36 15 100 4.66644e-05
14 36 15 100 0.00275375
0 37 15 100 1
7 38 15 100 1
7 39 15 100 1
0 40 15 100 0.989141
5 40 15 100 0.00171405
11 40 15 100 0.00914516
0 41 15 100 1.15673e-05
7 41 15 100 0.999988
0 42 15 100 1
0 43 15 100 0.025735
6 43 15 100 1.25439e-05
13 43 15 100 0.974252
0 44 15 100 4.19406e-05
6 44 15 100 1.25253e-05
13 44 15 100 0.999946
0 45 15 100 3.15635e-05
15 45 15 100 0.999968
0 1 16 100 0.000157783
1 1 16 100 0.772971
2 1 16 100 0.0384553
3 1 16 100 0.0222377
4 1 16 100 0.0122673
5 1 16 100 0.00857646
6 1 16 100 0.00942386
7 1 16 100 0.00740841
8 1 16 100 0.0140382
9 1 16 100 0.010139
10 1 16 100 0.00667086
11 1 16 100 0.00504798
12 1 16 100 0.00156053
13 1 16 100 0.00560344
14 1 16 100 0.0118563
15 1 16 100 0.00597286
16 1 16 100 0.0676132
0 2 16 100 0.134057
1 2 16 100 0.067118
2 2 16 100 0.429925
3 2 16 100 0.0778704
4 2 16 100 0.0479852
5 2 16 100 0.0281896
6 2 16 100 0.0311924
7 2 16 100 0.0132172
8 2 16 100 0.0155835
9 2 16 100 0.0144459
10 2 16 100 0.00815565
11 2 16 100 0.0160272
12 2 16 100 0.0116283
13 2 16 100 0.0140875
14 2 16 100 0.012486
15 2 16 100 0.0158313
16 2 16 100 0.0621996
0 3 16 100 0.176978
1 3 16 100 0.042647
2 3 16 100 0.105439
3 3 16 100 0.240204
4 3 16 100 0.103879
5 3 16 100 0.0550984
6 3 16 100 0.0294731
7 3 16 100 0.0300835
8 3 16 100 0.0149714
9 3 16 100 0.0181804
10 3 16 100 0.0211004
11 3 16 100 0.01888
12 3 16 100 0.0126144
13 3 16 100 0.00646965
14 3 16 100 0.0233455
15 3 16 100 0.0199066
16 3 16 100 0.0807294
0 4 16 100 0.196873
1 4 16 100 0.0221113
2 4 16 100 0.0794799
3 4 16 100 0.0704602
4 4 16 100 0.204315
5 4 16 100 0.0800739
6 4 16 100 0.0610105
7 4 16 100 0.0482285
8 4 16 100 0.0353362
9 4 16 100 0.0104515
10 4 16 100 0.0175681
11 4 16 100 0.0215396
12 4 16 100 0.0136287
13 4 16 100 0.00636151
14 4 16 100 0.0217883
15 4 16 100 0.0204034
16 4 16 100 0.0903709
0 5 16 100 0.194258
1 5 16 100 0.0171644
2 5 16 100 0.0501767
3 5 16 100 0.0624418
4 5 16 100 0.116264
5 5 16 100 0.150338
6 5 16 100 0.0811671
7 5 16 100 0.0547958
8 5 16 100 0.0396083
9 5 16 100 0.0211544
10 5 16 100 0.0321376
11 5 16 100 0.0298351
12 5 16 100 0.0143019
13 5 16 100 0.0172052
14 5 16 100 0.0229831
15 5 16 100 0.0318628
16 5 16 100 0.0643048
0 6 16 100 0.212658
1 6 16 100 0.0190859
2 6 16 100 0.0307852
3 6 16 100 0.0468341
4 6 16 100 0.086852
5 6 16 100 0.11133
6 6 16 100 0.106637
7 6 16 100 0.0862864
8 6 16 100 0.0578686
9 6 16 100 0.0290599
10 6 16 100 0.0317067
11 6 16 100 0.0290858
12 6 16 100 0.0189212
13 6 16 100 0.0143073
14 6 16 100 0.0266024
15 6 16 100 0.0266629
16 6 16 100 0.0653163
0 7 16 100 0.202504
1 7 16 100 0.00937224
2 7 16 100 0.0228842
3 7 16 100 0.0282441
4 7 16 100 0.057309
5 7 16 100 0.0876326
6 7 16 100 0.123278
7 7 16 100 0.116201
8 7 16 100 0.0831176
9 7 16 100 0.0407137
10 7 16 100 0.0343231
11 7 16 100 0.0327689
12 7 16 100 0.023707
13 7 16 100 0.0170177
14 7 16 100 0.0275034
15 7 16 100 0.0363769
16 7 16 100 0.0570469
0 8 16 100 0.201279
1 8 16 100 0.00159324
2 8 16 100 0.018177
3 8 16 100 0.0194758
4 8 16 100 0.0394671
5 8 16 100 0.0619049
6 8 16 100 0.0820826
7 8 16 100 0.116198
8 8 16 100 0.125289
9 8 16 100 0.0680323
10 8 16 100 0.0368155
11 8 16 100 0.029933
12 8 16 100 0.0172513
13 8 16 100 0.0329037
14 8 16 100 0.0236345
15 8 16 100 0.0456928
16 8 16 100 0.0802693
0 9 16 100 0.210778
1 9 16 100 0.00468209
2 9 16 100 0.0113759
3 9 16 100 0.0162272
4 9 16 100 0.0267774
5 9 16 100 0.0452114
6 9 16 100 0.067397
7 9 16 100 0.0837701
8 9 16 100 0.116429
9 9 16 100 0.0882336
10 9 16 100 0.0658133
11 9 16 100 0.0489664
12 9 16 100 0.0204139
13 9 16 100 0.0304515
14 9 16 100 0.0391667
15 9 16 100 0.0391323
16 9 16 100 0.0851745
0 10 16 100 0.179167
1 10 16 100 3.0026e-05
2 10 16 100 0.00953669
3 10 16 100 0.0142409
4 10 16 100 0.0204846
5 10 16 100 0.0301536
6 10 16 100 0.0414023
7 10 16 100 0.0778378
8 10 16 100 0.100573
9 10 16 100 0.103664
10 10 16 100 0.0998096
11 10 16 100 0.0611439
12 10 16 100 0.0535388
13 10 16 100 0.0348763
14 10 16 100 0.0429695
15 10 16 100 0.0411218
16 10 16 100 0.0894505
0 11 16 100 0.186693
1 11 16 100 0.00321519
2 11 16 100 0.017389
3 11 16 100 0.00755639
4 11 16 100 0.0182033
5 11 16 100 0.0365165
6 11 16 100 0.0259403
7 11 16 100 0.0515013
8 11 16 100 0.0634987
9 11 16 100 0.096679
10 11 16 100 0.118986
11 11 16 100 0.078962
12 11 16 100 0.0636307
13 11 16 100 0.0484404
14 11 16 100 0.0400919
15 11 16 100 0.0423157
16 11 16 100 0.10038
0 12 16 100 0.212642
1 12 16 100 0.00343575
2 12 16 100 0.0107498
3 12 16 100 0.0110319
4 12 16 100 0.0144356
5 12 16 100 0.0280037
6 12 16 100 0.026875
7 12 16 100 0.0325173
8 12 16 100 0.0583938
9 12 16 100 0.0663199
10 12 16 100 0.0867
11 12 16 100 0.0963979
12 12 16 100 0.0829553
13 12 16 100 0.0576803
14 12 16 100 0.0570272
15 12 16 100 0.0495013
16 12 16 100 0.105333
0 13 16 100 0.189549
1 13 16 100 0.0049337
2 13 16 100 0.00399826
3 13 16 100 0.00493698
4 13 16 100 0.00833746
5 13 16 100 0.0195685
6 13 16 100 0.0208864
7 13 16 100 0.0402882
8 13 16 100 0.0385803
9 13 16 100 0.0552959
10 13 16 100 0.0848341
11 13 16 100 0.0893765
12 13 16 100 0.0836081
13 13 16 100 0.0741132
14 13 16 100 0.0920713
15 13 16 100 0.0666462
16 13 16 100 0.122976
0 14 16 100 0.176185
1 14 16 100 0.00343056
2 14 16 100 0.00484082
3 14 16 100 0.00348187
4 14 16 100 0.0145778
5 14 16 100 0.0174239
6 14 16 100 0.0176673
7 14 16 100 0.0251788
8 14 16 100 0.0348233
9 14 16 100 0.0574174
10 14 16 100 0.0605571
11 14 16 100 0.0849877
12 14 16 100 0.108061
13 14 16 100 0.0817101
14 14 16 100 0.0896249
15 14 16 100 0.079096
16 14 16 100 0.140937
0 15 16 100 0.200978
1 15 16 100 0.00185609
2 15 16 100 0.00701624
3 15 16 100 0.00202764
4 15 16 100 0.015081
5 15 16 100 0.0218691
6 15 16 100 0.00925416
7 15 16 100 0.0204102
8 15 16 100 0.0286493
9 15 16 100 0.0461314
10 15 16 100 0.0588795
11 15 16 100 0.0755822
12 15 16 100 0.073153
13 15 16 100 0.0905452
14 15 16 100 0.109816
15 15 16 100 0.0893591
16 15 16 100 0.149392
0 16 16 100 0.206426
1 16 16 100 7.93199e-07
2 16 16 100 0.00699694
3 16 16 100 0.00211032
4 16 16 100 0.00631944
5 16 16 100 0.00971354
6 16 16 100 0.0134279
7 16 16 100 0.0264638
8 16 16 100 0.0153716
9 16 16 100 0.0416629
10 16 16 100 0.0542731
11 16 16 100 0.0500237
12 16 16 100 0.0866442
13 16 16 100 0.0834198
14 16 16 100 0.114356
15 16 16 100 0.0887366
16 16 16 100 0.194054
0 17 16 100 0.167916
1 17 16 100 0.00240616
2 17 16 100 0.00486103
3 17 16 100 0.00747382
4 17 16 100 0.0119171
5 17 16 100 0.00982006
6 17 16 100 0.00493259
7 17 16 100 0.0111335
8 17 16 100 0.0145113
9 17 16 100 0.0291181
10 17 16 100 0.0501334
11 17 16 100 0.0489191
12 17 16 100 0.0806629
13 17 16 100 0.0901708
14 17 16 100 0.113005
15 17 16 100 0.143939
16 17 16 100 0.209081
0 18 16 100 0.151935
2 18 16 100 6.33273e-05
3 18 16 100 0.00591108
4 18 16 100 0.0118508
5 18 16 100 0.0118013
6 18 16 100 0.00295697
7 18 16 100 0.0036847
8 18 16 100 0.0168807
9 18 16 100 0.00899546
10 18 16 100 0.0597299
11 18 16 100 0.0551225
12 18 16 100 0.0909917
13 18 16 100 0.0770689
14 18 16 100 0.097902
15 18 16 100 0.139898
16 18 16 100 0.265208
0 19 16 100 0.176688
2 19 16 100 0.00384472
3 19 16 100 0.00781492
4 19 16 100 0.0029989
5 19 16 100 0.00845558
6 19 16 100 0.00889176
7 19 16 100 0.0107618
8 19 16 100 0.016708
9 19 16 100 0.0147312
10 19 16 100 0.0384039
11 19 16 100 0.0434069
12 19 16 100 0.0912645
13 19 16 100 0.0920321
14 19 16 100 0.0961843
15 19 16 100 0.111868
16 19 16 100 0.275945
0 20 16 100 0.203784
1 20 16 100 0.0106992
2 20 16 100 0.00914442
3 20 16 100 0.00527348
4 20 16 100 0.00581641
5 20 16 100 0.00543456
6 20 16 100 0.00951666
7 20 16 100 0.0215375
8 20 16 100 0.0160513
9 20 16 100 0.0232168
10 20 16 100 0.0166788
11 20 16 100 0.0330194
12 20 16 100 0.0716198
13 20 16 100 0.0913552
14 20 16 100 0.122081
15 20 16 100 0.133588
16 20 16 100 0.221184
0 21 16 100 0.172269
2 21 16 100 0.0235841
3 21 16 100 0.00721967
4 21 16 100 0.00897363
6 21 16 100 0.0150568
7 21 16 100 8.85772e-05
8 21 16 100 0.00754888
9 21 16 100 0.00057005
10 21 16 100 0.0589655
11 21 16 100 0.0164057
12 21 16 100 0.0552996
13 21 16 100 0.0933017
14 21 16 100 0.119246
15 21 16 100 0.172521
16 21 16 100 0.24895
0 22 16 100 0.160133
2 22 16 100 0.0102041
3 22 16 100 0.0204084
4 22 16 100 0.0102127
5 22 16 100 0.0105745
6 22 16 100 0.0102157
7 22 16 100 0.0104204
8 22 16 100 0.0510288
9 22 16 100 0.0157006
10 22 16 100 0.0110005
11 22 16 100 0.0684708
12 22 16 100 0.0307078
13 22 16 100 0.0919245
14 22 16 100 0.183894
15 22 16 100 0.172622
16 22 16 100 0.142483
0 23 16 100 0.239733
2 23 16 100 0.0126597
3 23 16 100 0.0126588
4 23 16 100 1.36961e-07
5 23 16 100 1.3334e-05
6 23 16 100 2.65477e-06
8 23 16 100 0.000440424
9 23 16 100 0.0384119
10 23 16 100 0.011279
11 23 16 100 0.0252998
12 23 16 100 0.074164
13 23 16 100 0.0294784
14 23 16 100 0.127884
15 23 16 100 0.166032
16 23 16 100 0.261943
0 24 16 100 0.127525
2 24 16 100 0.0181818
4 24 16 100 5.10826e-07
7 24 16 100 0.018185
8 24 16 100 0.0363703
9 24 16 100 0.0363657
10 24 16 100 0.000103742
11 24 16 100 0.0182917
12 24 16 100 0.0551793
13 24 16 100 0.0914779
14 24 16 100 0.109093
15 24 16 100 0.142607
16 24 16 100 0.346619
0 25 16 100 0.087428
4 25 16 100 0.000696043
5 25 16 100 5.03502e-07
7 25 16 100 0.0277778
8 25 16 100 0.0555871
10 25 16 100 0.0520083
11 25 16 100 0.0279268
13 25 16 100 0.084215
14 25 16 100 0.15639
15 25 16 100 0.258796
16 25 16 100 0.249174
0 26 16 100 0.281305
2 26 16 100 0.000361943
3 26 16 100 0.000959504
4 26 16 100 3.31795e-05
6 26 16 100 3.85378e-05
7 26 16 100 0.000141665
9 26 16 100 0.01322
11 26 16 100 0.0139491
12 26 16 100 0.0384616
13 26 16 100 0.0384703
14 26 16 100 0.0769724
15 26 16 100 0.305417
16 26 16 100 0.230669
0 27 16 100 0.117756
4 27 16 100 0.0588244
7 27 16 100 0.0568164
8 27 16 100 0.117646
10 27 16 100 0.0588225
11 27 16 100 1.08277e-06
12 27 16 100 0.117647
13 27 16 100 1.32312e-06
14 27 16 100 0.0993445
15 27 16 100 0.197009
16 27 16 100 0.176132
0 28 16 100 0.18206
7 28 16 100 3.16086e-06
11 28 16 100 0.0909629
12 28 16 100 0.0909405
14 28 16 100 0.000518355
15 28 16 100 0.362794
16 28 16 100 0.272721
0 29 16 100 0.478084
7 29 16 100 0.00502154
9 29 16 100 0.124997
10 29 16 100 0.125
11 29 16 100 0.130651
12 29 16 100 0.125
14 29 16 100 0.000546692
15 29 16 100 0.000184613
16 29 16 100 0.0105146
0 30 16 100 0.143042
4 30 16 100 0.142858
11 30 16 100 0.142857
14 30 16 100 0.142672
15 30 16 100 0.285715
16 30 16 100 0.142856
0 31 16 100 0.00293269
4 31 16 100 0.250001
14 31 16 100 0.25005
15 31 16 100 0.497016
0 32 16 100 0.492471
6 32 16 100 3.19094e-05
10 32 16 100 0.00610243
12 32 16 100 0.00157539
14 32 16 100 0.499819
8 33 16 100 0.435279
13 33 16 100 0.0647189
16 33 16 100 0.500002
0 34 16 100 0.000360623
15 34 16 100 0.499639
16 34 16 100 0.5
0 35 16 100 0.5
11 35 16 100 0.5
0 36 16 100 0.0036305
11 36 16 100 0.496174
14 36 16 100 0.000194686
16 36 16 100 0.5
15 37 16 100 0.499999
16 37 16 100 0.500001
0 1 17 100 0.000113085
1 1 17 100 0.79522
2 1 17 100 0.0398669
3 1 17 100 0.0326378
4 1 17 100 0.0203402
5 1 17 100 0.010198
6 1 17 100 0.0106108
7 1 17 100 0.00450618
8 1 17 100 0.00943801
9 1 17 100 0.00159954
10 1 17 100 0.00353003
11 1 17 100 0.00166294
12 1 17 100 9.35872e-06
13 1 17 100 4.0063e-06
14 1 17 100 0.00153264
15 1 17 100 0.00916586
16 1 17 100 0.0143157
17 1 17 100 0.045249
0 2 17 100 0.112974
1 2 17 100 0.0549368
2 2 17 100 0.455203
3 2 17 100 0.110542
4 2 17 100 0.0491826
5 2 17 100 0.0379845
6 2 17 100 0.0365517
7 2 17 100 0.0121922
8 2 17 100 0.0182802
9 2 17 100 0.0111999
10 2 17 100 0.00762289
11 2 17 100 0.0119204
12 2 17 100 0.00780117
13 2 17 100 0.00480871
14 2 17 100 0.00653925
15 2 17 100 0.00978299
16 2 17 100 0.0191433
17 2 17 100 0.0333341
0 3 17 100 0.163213
1 3 17 100 0.0335481
2 3 17 100 0.127268
3 3 17 100 0.226371
4 3 17 100 0.129989
5 3 17 100 0.0806826
6 3 17 100 0.044836
7 3 17 100 0.0213976
8 3 17 100 0.0308984
9 3 17 100 0.0191227
10 3 17 100 0.00973629
11 3 17 100 0.0111916
12 3 17 100 0.0112242
13 3 17 100 0.0111824
14 3 17 100 0.00677663
15 3 17 100 0.00643134
16 3 17 100 0.0244036
17 3 17 100 0.0417273
0 4 17 100 0.177759
1 4 17 100 0.0205252
2 4 17 100 0.0821843
3 4 17 100 0.0927493
4 4 17 100 0.180976
5 4 17 100 0.108269
6 4 17 100 0.0927616
7 4 17 100 0.0446304
8 4 17 100 0.0285319
9 4 17 100 0.0190679
10 4 17 100 0.0171256
11 4 17 100 0.0174489
12 4 17 100 0.0109339
13 4 17 100 0.00922607
14 4 17 100 0.00685639
15 4 17 100 0.00653842
16 4 17 100 0.023686
17 4 17 100 0.0607305
0 5 17 100 0.19068
1 5 17 100 0.00959397
2 5 17 100 0.0432654
3 5 17 100 0.0652065
4 5 17 100 0.12495
5 5 17 100 0.148783
6 5 17 100 0.110843
7 5 17 100 0.0650797
8 5 17 100 0.0491014
9 5 17 100 0.0350716
10 5 17 100 0.0241835
11 5 17 100 0.017639
12 5 17 100 0.0144101
13 5 17 100 0.00797465
14 5 17 100 0.00789742
15 5 17 100 0.0104927
16 5 17 100 0.0238342
17 5 17 100 0.0509936
0 6 17 100 0.191502
1 6 17 100 0.00496607
2 6 17 100 0.0321908
3 6 17 100 0.0560331
4 6 17 100 0.0885865
5 6 17 100 0.109857
6 6 17 100 0.123867
7 6 17 100 0.0858456
8 6 17 100 0.0752284
9 6 17 100 0.0380893
10 6 17 100 0.0313502
11 6 17 100 0.0164725
12 6 17 100 0.022918
13 6 17 100 0.0095418
14 6 17 100 0.0143652
15 6 17 100 0.00944048
16 6 17 100 0.0225734
17 6 17 100 0.0671727
0 7 17 100 0.198348
1 7 17 100 0.00506239
2 7 17 100 0.0209011
3 7 17 100 0.0256188
4 7 17 100 0.0556103
5 7 17 100 0.0859904
6 7 17 100 0.113658
7 7 17 100 0.114493
8 7 17 100 0.0868305
9 7 17 100 0.0801437
10 7 17 100 0.0443842
11 7 17 100 0.0271756
12 7 17 100 0.0153423
13 7 17 100 0.0065828
14 7 17 100 0.0141529
15 7 17 100 0.0177059
16 7 17 100 0.0416913
17 7 17 100 0.0463091
0 8 17 100 0.196934
1 8 17 100 0.00793339
2 8 17 100 0.01422
3 8 17 100 0.014498
4 8 17 100 0.0329272
5 8 17 100 0.0513069
6 8 17 100 0.0853902
7 8 17 100 0.131146
8 8 17 100 0.111204
9 8 17 100 0.0739279
10 8 17 100 0.0567682
11 8 17 100 0.0270087
12 8 17 100 0.0352573
13 8 17 100 0.0186625
14 8 17 100 0.0220087
15 8 17 100 0.0174567
16 8 17 100 0.0282208
17 8 17 100 0.0751297
0 9 17 100 0.185524
1 9 17 100 0.00955755
2 9 17 100 0.0186137
3 9 17 100 0.0131531
4 9 17 100 0.0243966
5 9 17 100 0.0429372
6 9 17 100 0.0658437
7 9 17 100 0.0850426
8 9 17 100 0.107515
9 9 17 100 0.115475
10 9 17 100 0.0708288
11 9 17 100 0.0492018
12 9 17 100 0.033628
13 9 17 100 0.0205198
14 9 17 100 0.0181064
15 9 17 100 0.0141579
16 9 17 100 0.0315994
17 9 17 100 0.0938984
0 10 17 100 0.190912
1 10 17 100 0.00635177
2 10 17 100 0.00501927
3 10 17 100 0.014178
4 10 17 100 0.0209557
5 10 17 100 0.0234509
6 10 17 100 0.0471168
7 10 17 100 0.0714083
8 10 17 100 0.078953
9 10 17 100 0.105991
10 10 17 100 0.0854973
11 10 17 100 0.0733138
12 10 17 100 0.0406436
13 10 17 100 0.0281309
14 10 17 100 0.0296293
15 10 17 100 0.0198542
16 10 17 100 0.041235
17 10 17 100 0.117359
0 11 17 100 0.214676
1 11 17 100 0.00484424
2 11 17 100 0.0067563
3 11 17 100 0.0159441
4 11 17 100 0.0102367
5 11 17 100 0.013974
6 11 17 100 0.0401449
7 11 17 100 0.0461064
8 11 17 100 0.0699529
9 11 17 100 0.0879576
10 11 17 100 0.086351
11 11 17 100 0.0840779
12 11 17 100 0.0663917
13 11 17 100 0.0410661
14 11 17 100 0.0387787
15 11 17 100 0.0426478
16 11 17 100 0.0395271
17 11 17 100 0.0905671
0 12 17 100 0.215368
1 12 17 100 0.00160619
2 12 17 100 0.0032397
3 12 17 100 0.00505635
4 12 17 100 0.00822488
5 12 17 100 0.0091427
6 12 17 100 0.037477
7 12 17 100 0.0340468
8 12 17 100 0.0460582
9 12 17 100 0.0735711
10 12 17 100 0.0835834
11 12 17 100 0.0979204
12 12 17 100 0.0604299
13 12 17 100 0.0562239
14 12 17 100 0.0575944
15 12 17 100 0.0545388
16 12 17 100 0.0531022
17 12 17 100 0.102816
0 13 17 100 0.218212
1 13 17 100 1.68592e-07
2 13 17 100 2.25825e-05
3 13 17 100 0.00842005
4 13 17 100 0.0115026
5 13 17 100 0.0116755
6 13 17 100 0.0186495
7 13 17 100 0.0277817
8 13 17 100 0.0425628
9 13 17 100 0.0705928
10 13 17 100 0.0635276
11 13 17 100 0.0873938
12 13 17 100 0.0635476
13 13 17 100 0.0728755
14 13 17 100 0.0681921
15 13 17 100 0.0710368
16 13 17 100 0.0616597
17 13 17 100 0.102347
0 14 17 100 0.194097
1 14 17 100 0.00165024
2 14 17 100 0.00339753
3 14 17 100 0.00660801
4 14 17 100 0.00483077
5 14 17 100 0.0116601
6 14 17 100 0.0239116
7 14 17 100 0.0215443
8 14 17 100 0.0250087
9 14 17 100 0.0415958
10 14 17 100 0.0581502
11 14 17 100 0.0812614
12 14 17 100 0.0819255
13 14 17 100 0.0729379
14 14 17 100 0.0786027
15 14 17 100 0.0763661
16 14 17 100 0.0733844
17 14 17 100 0.143067
0 15 17 100 0.181117
1 15 17 100 8.90877e-07
2 15 17 100 3.57799e-06
3 15 17 100 0.00713853
4 15 17 100 0.00853116
5 15 17 100 0.0106648
6 15 17 100 0.0190499
7 15 17 100 0.0175059
8 15 17 100 0.0177155
9 15 17 100 0.0299899
10 15 17 100 0.0475828
11 15 17 100 0.0806038
12 15 17 100 0.0881058
13 15 17 100 0.0850464
14 15 17 100 0.0831787
15 15 17 100 0.0922664
16 15 17 100 0.0787111
17 15 17 100 0.152787
0 16 17 100 0.196682
1 16 17 100 1.33556e-07
2 16 17 100 0.00393813
3 16 17 100 0.00579154
4 16 17 100 0.00801937
5 16 17 100 0.00944478
6 16 17 100 0.0135191
7 16 17 100 0.017142
8 16 17 100 0.015703
9 16 17 100 0.0366198
10 16 17 100 0.0301893
11 16 17 100 0.0504919
12 16 17 100 0.0675831
13 16 17 100 0.094339
14 16 17 100 0.094314
15 16 17 100 0.127592
16 16 17 100 0.0820026
17 16 17 100 0.146628
0 17 17 100 0.225443
2 17 17 100 0.00216909
3 17 17 100 0.00447099
4 17 17 100 0.00498814
5 17 17 100 0.0127782
6 17 17 100 0.015112
7 17 17 100 0.00866298
8 17 17 100 0.0186465
9 17 17 100 0.0307352
10 17 17 100 0.0361587
11 17 17 100 0.0455499
12 17 17 100 0.0518985
13 17 17 100 0.058587
14 17 17 100 0.080924
15 17 17 100 0.143242
16 17 17 100 0.109633
17 17 17 100 0.151
0 18 17 100 0.181071
1 18 17 100 1.9646e-07
2 18 17 100 0.00249527
3 18 17 100 0.00745055
4 18 17 100 0.0100363
5 18 17 100 0.0124246
6 18 17 100 0.0145128
7 18 17 100 0.0198779
8 18 17 100 0.0120129
9 18 17 100 0.0199164
10 18 17 100 0.0306011
11 18 17 100 0.0360917
12 18 17 100 0.0467859
13 18 17 100 0.0549834
14 18 17 100 0.0754537
15 18 17 100 0.12068
16 18 17 100 0.14184
17 18 17 100 0.213766
0 19 17 100 0.17282
1 19 17 100 1.61781e-05
2 19 17 100 5.05135e-07
3 19 17 100 0.0122339
4 19 17 100 0.00644671
5 19 17 100 0.0183405
6 19 17 100 0.0151909
7 19 17 100 0.0154099
8 19 17 100 0.0153915
9 19 17 100 0.0154829
10 19 17 100 0.0299806
11 19 17 100 0.0276876
12 19 17 100 0.0420056
13 19 17 100 0.0858426
14 19 17 100 0.0641779
15 19 17 100 0.120309
16 19 17 100 0.148467
17 19 17 100 0.210197
0 20 17 100 0.15487
2 20 17 100 2.63322e-06
3 20 17 100 0.00392938
4 20 17 100 0.00786012
5 20 17 100 0.0234726
6 20 17 100 0.0119456
7 20 17 100 0.0157685
8 20 17 100 0.0124202
9 20 17 100 0.0272718
10 20 17 100 0.0127442
11 20 17 100 0.0366877
12 20 17 100 0.0307901
13 20 17 100 0.0513497
14 20 17 100 0.0925297
15 20 17 100 0.149072
16 20 17 100 0.135075
17 20 17 100 0.234211
0 21 17 100 0.197792
1 21 17 100 0.0048911
2 21 17 100 0.0037536
3 21 17 100 0.00522705
4 21 17 100 0.00527212
5 21 17 100 0.0211227
6 21 17 100 0.0156523
7 21 17 100 0.00537008
8 21 17 100 0.010422
9 21 17 100 0.0208396
10 21 17 100 0.0307116
11 21 17 100 0.0284409
12 21 17 100 0.0406141
13 21 17 100 0.0258995
14 21 17 100 0.100909
15 21 17 100 0.120051
16 21 17 100 0.180948
17 21 17 100 0.182084
0 22 17 100 0.152852
2 22 17 100 0.00722962
4 22 17 100 0.00722719
5 22 17 100 0.0157132
6 22 17 100 0.0284253
7 22 17 100 0.0141859
8 22 17 100 0.0143373
9 22 17 100 0.00875814
10 22 17 100 0.0189322
11 22 17 100 0.0354762
12 22 17 100 0.0563695
13 22 17 100 0.0718646
14 22 17 100 0.0539281
15 22 17 100 0.101333
16 22 17 100 0.175328
17 22 17 100 0.23804
0 23 17 100 0.200089
2 23 17 100 0.00980413
3 23 17 100 1.75261e-07
5 23 17 100 0.00980393
6 23 17 100 0.0297203
7 23 17 100 0.0100281
8 23 17 100 0.0115662
9 23 17 100 0.0196091
10 23 17 100 0.00981229
11 23 17 100 0.0196783
12 23 17 100 0.0380384
13 23 17 100 0.0598332
14 23 17 100 0.0889199
15 23 17 100 0.08131
16 23 17 100 0.0884431
17 23 17 100 0.323343
0 24 17 100 0.0914383
3 24 17 100 0.014654
4 24 17 100 1.63386e-06
5 24 17 100 0.0149313
6 24 17 100 0.0149248
7 24 17 100 0.029019
8 24 17 100 7.28723e-06
9 24 17 100 0.0148842
10 24 17 100 6.23061e-07
11 24 17 100 0.000201484
12 24 17 100 0.031685
13 24 17 100 0.119188
14 24 17 100 0.0303711
15 24 17 100 0.164203
16 24 17 100 0.104177
17 24 17 100 0.370313
0 25 17 100 0.0913757
2 25 17 100 0.00208207
3 25 17 100 0.00687413
4 25 17 100 9.76062e-06
5 25 17 100 0.0594371
6 25 17 100 4.13054e-07
7 25 17 100 2.40048e-05
8 25 17 100 0.000166053
9 25 17 100 0.000373467
10 25 17 100 4.43503e-06
11 25 17 100 0.0238104
12 25 17 100 9.56505e-06
13 25 17 100 0.0952382
14 25 17 100 0.100767
15 25 17 100 0.166261
16 25 17 100 0.153679
17 25 17 100 0.299888
0 26 17 100 0.253019
3 26 17 100 1.95867e-06
4 26 17 100 2.30814e-05
5 26 17 100 0.0713504
6 26 17 100 0.00037419
7 26 17 100 8.28902e-06
8 26 17 100 0.0357143
9 26 17 100 0.00189199
10 26 17 100 2.55758e-06
11 26 17 100 0.0357143
12 26 17 100 9.80361e-05
13 26 17 100 6.65767e-05
14 26 17 100 0.0357143
15 26 17 100 0.178512
16 26 17 100 0.106372
17 26 17 100 0.281136
0 27 17 100 0.274782
5 27 17 100 0.111129
8 27 17 100 0.0555777
11 27 17 100 0.0565064
12 27 17 100 1.22627e-05
13 27 17 100 8.98987e-06
14 27 17 100 0.05846
15 27 17 100 0.0664905
16 27 17 100 0.110257
17 27 17 100 0.266776
0 28 17 100 0.0869134
3 28 17 100 0.0833334
8 28 17 100 0.0833333
11 28 17 100 0.0833333
12 28 17 100 0.0833334
13 28 17 100 0.0833334
15 28 17 100 0.246405
16 28 17 100 0.0833334
17 28 17 100 0.166682
0 29 17 100 0.215614
4 29 17 100 0.100013
5 29 17 100 7.92729e-05
8 29 17 100 6.51653e-05
11 29 17 100 0.000327769
12 29 17 100 5.20403e-06
13 29 17 100 0.184245
14 29 17 100 5.55826e-06
15 29 17 100 0.099663
16 29 17 100 0.199997
17 29 17 100 0.199985
0 30 17 100 2.33179e-06
6 30 17 100 0.125
11 30 17 100 0.125
15 30 17 100 0.125
16 30 17 100 0.25
17 30 17 100 0.374998
7 31 17 100 0.333333
11 31 17 100 0.333333
17 31 17 100 0.333333
14 32 17 100 0.999854
15 32 17 100 0.000145584
14 33 17 100 1
0 34 17 100 0.0397293
8 34 17 100 0.960271
12 35 17 100 1.39077e-05
14 35 17 100 0.999986
4 36 17 100 0.00113863
14 36 17 100 0.998861
0 1 18 100 0.000164479
1 1 18 100 0.768577
2 1 18 100 0.0344816
3 1 18 100 0.0308287
4 1 18 100 0.00935016
5 1 18 100 0.0121127
6 1 18 100 0.0087071
7 1 18 100 0.000204135
8 1 18 100 0.0103497
9 1 18 100 0.00734698
10 1 18 100 0.00781019
11 1 18 100 0.00856995
12 1 18 100 0.00295892
13 1 18 100 0.00582287
14 1 18 100 7.86228e-07
16 1 18 100 0.000935679
17 1 18 100 0.0159868
18 1 18 100 0.0757922
0 2 18 100 0.119194
1 2 18 100 0.0577235
2 2 18 100 0.460303
3 2 18 100 0.107172
4 2 18 100 0.0374887
5 2 18 100 0.0341418
6 2 18 100 0.0177583
7 2 18 100 0.00587407
8 2 18 100 0.0117907
9 2 18 100 0.00866577
10 2 18 100 0.0163092
11 2 18 100 0.013623
12 2 18 100 0.00588348
13 2 18 100 0.0103126
14 2 18 100 0.0061232
15 2 18 100 0.00561107
16 2 18 100 0.00297516
17 2 18 100 0.0204368
18 2 18 100 0.0586143
0 3 18 100 0.186475
1 3 18 100 0.0498597
2 3 18 100 0.0995573
3 3 18 100 0.256644
4 3 18 100 0.089489
5 3 18 100 0.0640339
6 3 18 100 0.0316017
7 3 18 100 0.0360256
8 3 18 100 0.0189373
9 3 18 100 0.0121819
10 3 18 100 0.0174797
11 3 18 100 0.0148304
12 3 18 100 0.0108931
13 3 18 100 0.00744823
14 3 18 100 0.00595788
15 3 18 100 0.00439831
16 3 18 100 0.0101489
17 3 18 100 0.0220318
18 3 18 100 0.0620058
0 4 18 100 0.187989
1 4 18 100 0.0161622
2 4 18 100 0.0684251
3 4 18 100 0.0902119
4 4 18 100 0.217456
5 4 18 100 0.100359
6 4 18 100 0.0424528
7 4 18 100 0.0353782
8 4 18 100 0.0420791
9 4 18 100 0.020683
10 4 18 100 0.0285359
11 4 18 100 0.020293
12 4 18 100 0.01175
13 4 18 100 0.0124156
14 4 18 100 0.00445359
15 4 18 100 0.00747801
16 4 18 100 0.0132852
17 4 18 100 0.0236353
18 4 18 100 0.0569579
0 5 18 100 0.187281
1 5 18 100 0.0147004
2 5 18 100 0.045371
3 5 18 100 0.075515
4 5 18 100 0.121252
5 5 18 100 0.175221
6 5 18 100 0.0965791
7 5 18 100 0.0449907
8 5 18 100 0.0418335
9 5 18 100 0.0236339
10 5 18 100 0.0174164
11 5 18 100 0.0252767
12 5 18 100 0.0163472
13 5 18 100 0.0103313
14 5 18 100 0.0163549
15 5 18 100 0.00903022
16 5 18 100 0.0112002
17 5 18 100 0.0180131
18 5 18 100 0.0496522
0 6 18 100 0.199975
1 6 18 100 0.00459618
2 6 18 100 0.0146843
3 6 18 100 0.032235
4 6 18 100 0.0766017
5 6 18 100 0.13794
6 6 18 100 0.129516
7 6 18 100 0.0862388
8 6 18 100 0.0712722
9 6 18 100 0.0343826
10 6 18 100 0.0278979
11 6 18 100 0.0234246
12 6 18 100 0.020739
13 6 18 100 0.0163705
14 6 18 100 0.0135639
15 6 18 100 0.0162586
16 6 18 100 0.0134451
17 6 18 100 0.0250291
18 6 18 100 0.0558285
0 7 18 100 0.221156
1 7 18 100 0.00586522
2 7 18 100 0.00876836
3 7 18 100 0.0128301
4 7 18 100 0.0557829
5 7 18 100 0.0919959
6 7 18 100 0.114591
7 7 18 100 0.117395
8 7 18 100 0.0849538
9 7 18 100 0.0706782
10 7 18 100 0.0326689
11 7 18 100 0.0304111
12 7 18 100 0.0193704
13 7 18 100 0.0112037
14 7 18 100 0.0178902
15 7 18 100 0.0148091
16 7 18 100 0.0191291
17 7 18 100 0.0109382
18 7 18 100 0.0595625
0 8 18 100 0.182207
1 8 18 100 0.0044126
2 8 18 100 0.0176996
3 8 18 100 0.012066
4 8 18 100 0.0294694
5 8 18 100 0.0560383
6 8 18 100 0.102115
7 8 18 100 0.124137
8 8 18 100 0.111705
9 8 18 100 0.0819038
10 8 18 100 0.0668333
11 8 18 100 0.038451
12 8 18 100 0.0262549
13 8 18 100 0.0220257
14 8 18 100 0.00885968
15 8 18 100 0.0204371
16 8 18 100 0.0173362
17 8 18 100 0.0238623
18 8 18 100 0.0541861
0 9 18 100 0.16973
1 9 18 100 0.00436826
2 9 18 100 0.00602775
3 9 18 100 0.0171381
4 9 18 100 0.0210761
5 9 18 100 0.0449373
6 9 18 100 0.0614994
7 9 18 100 0.0998143
8 9 18 100 0.123054
9 9 18 100 0.108189
10 9 18 100 0.0812466
11 9 18 100 0.0604755
12 9 18 100 0.0345236
13 9 18 100 0.0261908
14 9 18 100 0.0185708
15 9 18 100 0.0143614
16 9 18 100 0.0227313
17 9 18 100 0.0280244
18 9 18 100 0.0580407
0 10 18 100 0.19685
1 10 18 100 0.0027748
2 10 18 100 0.00592696
3 10 18 100 0.00908128
4 10 18 100 0.0278205
5 10 18 100 0.0313877
6 10 18 100 0.0352263
7 10 18 100 0.0807233
8 10 18 100 0.0879821
9 10 18 100 0.11429
10 10 18 100 0.0879275
11 10 18 100 0.0710782
12 10 18 100 0.0573531
13 10 18 100 0.0296124
14 10 18 100 0.0304698
15 10 18 100 0.0217963
16 10 18 100 0.0224785
17 10 18 100 0.035782
18 10 18 100 0.0514395
0 11 18 100 0.201813
1 11 18 100 0.00148127
2 11 18 100 0.0104466
3 11 18 100 0.00164404
4 11 18 100 0.0134599
5 11 18 100 0.0266424
6 11 18 100 0.0310836
7 11 18 100 0.0481249
8 11 18 100 0.0747985
9 11 18 100 0.0981551
10 11 18 100 0.107581
11 11 18 100 0.0691797
12 11 18 100 0.066482
13 11 18 100 0.0462167
14 11 18 100 0.029376
15 11 18 100 0.0230653
16 11 18 100 0.0352476
17 11 18 100 0.0358328
18 11 18 100 0.0793692
0 12 18 100 0.184806
1 12 18 100 0.00151779
2 12 18 100 0.00767723
3 12 18 100 0.00427753
4 12 18 100 0.0133179
5 12 18 100 0.025052
6 12 18 100 0.0244001
7 12 18 100 0.0289974
8 12 18 100 0.0712889
9 12 18 100 0.0735444
10 12 18 100 0.0908629
11 12 18 100 0.0910446
12 12 18 100 0.0688672
13 12 18 100 0.0607283
14 12 18 100 0.0521969
15 12 18 100 0.0396097
16 12 18 100 0.0327825
17 12 18 100 0.0464456
18 12 18 100 0.0825835
0 13 18 100 0.196124
1 13 18 100 0.00153797
2 13 18 100 0.00303126
3 13 18 100 0.00734324
4 13 18 100 0.00759275
5 13 18 100 0.0166822
6 13 18 100 0.021301
7 13 18 100 0.0308571
8 13 18 100 0.0426447
9 13 18 100 0.0663633
10 13 18 100 0.0641622
11 13 18 100 0.0854683
12 13 18 100 0.0924881
13 13 18 100 0.0925497
14 13 18 100 0.046621
15 13 18 100 0.0482913
16 13 18 100 0.0372876
17 13 18 100 0.042611
18 13 18 100 0.0970435
0 14 18 100 0.19132
1 14 18 100 1.35113e-05
2 14 18 100 0.00910785
3 14 18 100 0.00306401
4 14 18 100 0.00822978
5 14 18 100 0.0138341
6 14 18 100 0.0133343
7 14 18 100 0.029213
8 14 18 100 0.0276149
9 14 18 100 0.0523184
10 14 18 100 0.0520389
11 14 18 100 0.0522096
12 14 18 100 0.0849703
13 14 18 100 0.0941701
14 14 18 100 0.0772514
15 14 18 100 0.0612629
16 14 18 100 0.0534861
17 14 18 100 0.0635998
18 14 18 100 0.112962
0 15 18 100 0.213774
1 15 18 100 0.000167269
2 15 18 100 0.00871821
3 15 18 100 0.00336502
4 15 18 100 0.00156568
5 15 18 100 0.0127769
6 15 18 100 0.0136334
7 15 18 100 0.0156374
8 15 18 100 0.0221846
9 15 18 100 0.034165
10 15 18 100 0.0432743
11 15 18 100 0.0644566
12 15 18 100 0.0721319
13 15 18 100 0.0949536
14 15 18 100 0.0675117
15 15 18 100 0.0710212
16 15 18 100 0.0629475
17 15 18 100 0.0731492
18 15 18 100 0.124566
0 16 18 100 0.193508
1 16 18 100 0.00185742
2 16 18 100 0.00661107
3 16 18 100 0.0044145
4 16 18 100 0.00474021
5 16 18 100 0.00970032
6 16 18 100 0.0229379
7 16 18 100 0.0115886
8 16 18 100 0.0243662
9 16 18 100 0.0229485
10 16 18 100 0.0483742
11 16 18 100 0.0452372
12 16 18 100 0.0604233
13 16 18 100 0.0674079
14 16 18 100 0.0946335
15 16 18 100 0.0954509
16 16 18 100 0.0683745
17 16 18 100 0.0807006
18 16 18 100 0.136725
0 17 18 100 0.194016
1 17 18 100 0.00175747
2 17 18 100 0.00176719
3 17 18 100 0.00493546
4 17 18 100 0.0106159
5 17 18 100 0.00501652
6 17 18 100 0.015714
7 17 18 100 0.0072194
8 17 18 100 0.012849
9 17 18 100 0.0274238
10 17 18 100 0.0255237
11 17 18 100 0.0423925
12 17 18 100 0.0497304
13 17 18 100 0.0753532
14 17 18 100 0.0704377
15 17 18 100 0.107696
16 17 18 100 0.085575
17 17 18 100 0.110347
18 17 18 100 0.151629
0 18 18 100 0.17956
1 18 18 100 0.00196027
2 18 18 100 0.000186214
3 18 18 100 0.00588781
4 18 18 100 0.00222137
5 18 18 100 0.0135803
6 18 18 100 0.0135851
7 18 18 100 0.0103864
8 18 18 100 0.021333
9 18 18 100 0.0179755
10 18 18 100 0.0301813
11 18 18 100 0.0367092
12 18 18 100 0.0513942
13 18 18 100 0.0561236
14 18 18 100 0.064096
15 18 18 100 0.0775619
16 18 18 100 0.103133
17 18 18 100 0.128108
18 18 18 100 0.186016
0 19 18 100 0.188704
1 19 18 100 0.00225754
2 19 18 100 0.000174044
3 19 18 100 8.14023e-05
4 19 18 100 0.00452532
5 19 18 100 0.00889348
6 19 18 100 0.0157944
7 19 18 100 0.0071167
8 19 18 100 0.0115499
9 19 18 100 0.0152932
10 19 18 100 0.0116579
11 19 18 100 0.0362613
12 19 18 100 0.0394253
13 19 18 100 0.0617027
14 19 18 100 0.0594156
15 19 18 100 0.0782284
16 19 18 100 0.111593
17 19 18 100 0.155482
18 19 18 100 0.191843
0 20 18 100 0.172962
2 20 18 100 1.24948e-05
3 20 18 100 0.00539581
4 20 18 100 0.00268123
5 20 18 100 0.0108092
6 20 18 100 0.0108584
7 20 18 100 0.0107731
8 20 18 100 0.0216182
9 20 18 100 0.0130546
10 20 18 100 0.0188951
11 20 18 100 0.0220188
12 20 18 100 0.0508627
13 20 18 100 0.0558948
14 20 18 100 0.0661965
15 20 18 100 0.0707625
16 20 18 100 0.103855
17 20 18 100 0.155195
18 20 18 100 0.208155
0 21 18 100 0.183982
2 21 18 100 9.11962e-06
3 21 18 100 0.00354871
4 21 18 100 0.000218902
5 21 18 100 0.0105722
6 21 18 100 0.0270492
7 21 18 100 0.0070331
8 21 18 100 0.0379862
9 21 18 100 0.00763082
10 21 18 100 0.0112002
11 21 18 100 0.0176948
12 21 18 100 0.045783
13 21 18 100 0.0386323
14 21 18 100 0.0733043
15 21 18 100 0.0820113
16 21 18 100 0.0848445
17 21 18 100 0.15798
18 21 18 100 0.210519
0 22 18 100 0.190333
3 22 18 100 0.00486899
4 22 18 100 2.17481e-05
5 22 18 100 0.00473209
6 22 18 100 0.0184137
7 22 18 100 0.0142806
8 22 18 100 0.0191038
9 22 18 100 0.00621068
10 22 18 100 0.020473
11 22 18 100 0.0187959
12 22 18 100 0.0249564
13 22 18 100 0.0323122
14 22 18 100 0.0928363
15 22 18 100 0.0757947
16 22 18 100 0.107325
17 22 18 100 0.154554
18 22 18 100 0.214988
0 23 18 100 0.208648
2 23 18 100 2.50585e-05
3 23 18 100 1.24471e-05
4 23 18 100 2.26078e-05
5 23 18 100 0.00629154
6 23 18 100 6.35165e-07
7 23 18 100 0.0163704
8 23 18 100 0.0188996
9 23 18 100 0.00766381
10 23 18 100 0.0247248
11 23 18 100 0.0187297
12 23 18 100 0.00635688
13 23 18 100 0.0241871
14 23 18 100 0.0463578
15 23 18 100 0.1238
16 23 18 100 0.142663
17 23 18 100 0.111873
18 23 18 100 0.243374
0 24 18 100 0.198239
2 24 18 100 3.19358e-05
4 24 18 100 0.00045387
5 24 18 100 0.0163741
6 24 18 100 1.67522e-06
7 24 18 100 0.0164012
8 24 18 100 0.0455611
9 24 18 100 0.00999575
10 24 18 100 0.00820957
11 24 18 100 0.000337688
12 24 18 100 0.00820193
13 24 18 100 0.0259163
14 24 18 100 0.065085
15 24 18 100 0.0827604
16 24 18 100 0.138678
17 24 18 100 0.106625
18 24 18 100 0.277128
0 25 18 100 0.142021
3 25 18 100 0.0224751
4 25 18 100 3.69949e-07
5 25 18 100 0.0112408
6 25 18 100 0.0111447
7 25 18 100 0.0112472
8 25 18 100 0.0340482
9 25 18 100 0.0207612
10 25 18 100 0.000116902
11 25 18 100 0.020413
12 25 18 100 0.00203243
13 25 18 100 0.0441721
14 25 18 100 0.0443854
15 25 18 100 0.0899206
16 25 18 100 0.0961618
17 25 18 100 0.18387
18 25 18 100 0.26599
0 26 18 100 0.113035
3 26 18 100 0.0145505
4 26 18 100 0.00234727
5 26 18 100 0.0188184
6 26 18 100 0.000170053
7 26 18 100 0.0181955
8 26 18 100 0.0363779
9 26 18 100 0.000411588
10 26 18 100 6.84423e-05
11 26 18 100 0.0182093
12 26 18 100 0.017087
13 26 18 100 0.0324171
14 26 18 100 0.088319
15 26 18 100 0.0906342
16 26 18 100 0.091158
17 26 18 100 0.199365
18 26 18 100 0.258836
0 27 18 100 0.227888
2 27 18 100 3.29565e-05
3 27 18 100 5.3363e-06
4 27 18 100 9.32207e-06
5 27 18 100 0.0213841
7 27 18 100 3.70612e-05
8 27 18 100 0.0769332
9 27 18 100 3.77563e-06
11 27 18 100 9.15778e-05
12 27 18 100 0.00702453
13 27 18 100 0.102445
15 27 18 100 0.124225
16 27 18 100 0.0772098
17 27 18 100 0.106178
18 27 18 100 0.256532
0 28 18 100 0.200281
2 28 18 100 3.50319e-07
4 28 18 100 7.78861e-06
6 28 18 100 0.0344828
8 28 18 100 0.0343024
9 28 18 100 0.000191789
11 28 18 100 0.00658573
13 28 18 100 0.0702593
14 28 18 100 0.0692363
15 28 18 100 0.101917
16 28 18 100 0.10354
17 28 18 100 0.0690358
18 28 18 100 0.31016
0 29 18 100 0.133329
7 29 18 100 0.0476191
8 29 18 100 0.047619
9 29 18 100 0.0476201
10 29 18 100 7.96247e-05
11 29 18 100 7.8542e-07
12 29 18 100 0.047619
13 29 18 100 0.0476191
14 29 18 100 0.142398
15 29 18 100 0.142873
16 29 18 100 0.0476191
17 29 18 100 0.0575101
18 29 18 100 0.238095
0 30 18 100 0.143332
8 30 18 100 0.143988
11 30 18 100 1.3515e-05
13 30 18 100 1.98117e-05
15 30 18 100 0.142857
16 30 18 100 0.142857
17 30 18 100 0.141238
18 30 18 100 0.285695
0 31 18 100 0.130351
7 31 18 100 0.00033417
8 31 18 100 0.25
9 31 18 100 4.41252e-05
10 31 18 100 2.69453e-06
12 31 18 100 0.000168319
14 31 18 100 0.125
16 31 18 100 0.25
18 31 18 100 0.2441
0 32 18 100 0.332955
3 32 18 100 0.000378279
14 32 18 100 0.166667
15 32 18 100 0.333185
17 32 18 100 0.000147452
18 32 18 100 0.166667
0 33 18 100 0.259254
4 33 18 100 0.22917
11 33 18 100 0.000139656
14 33 18 100 0.25
15 33 18 100 0.000191381
16 33 18 100 0.00912509
17 33 18 100 0.250079
18 33 18 100 0.00204006
0 34 18 100 0.250001
9 34 18 100 0.249999
14 34 18 100 0.250001
18 34 18 100 0.25
0 35 18 100 0.333333
8 35 18 100 3.55092e-05
9 35 18 100 0.333298
14 35 18 100 0.0214784
18 35 18 100 0.311855
15 36 18 100 0.5
18 36 18 100 0.5
15 37 18 100 1
0 1 19 100 7.41899e-05
1 1 19 100 0.764163
2 1 19 100 0.0312813
3 1 19 100 0.0356695
4 1 19 100 0.0148492
5 1 19 100 0.0111905
6 1 19 100 0.0141072
7 1 19 100 0.00846474
8 1 19 100 0.00646632
9 1 19 100 0.00212842
10 1 19 100 0.00332967
11 1 19 100 0.00158992
12 1 19 100 0.00788925
13 1 19 100 0.00321744
14 1 19 100 0.00146923
15 1 19 100 0.0050157
16 1 19 100 0.00319611
17 1 19 100 0.00792731
18 1 19 100 0.0142954
19 1 19 100 0.0636756
0 2 19 100 0.111179
1 2 19 100 0.0741389
2 2 19 100 0.461475
3 2 19 100 0.0685739
4 2 19 100 0.0606916
5 2 19 100 0.0309254
6 2 19 100 0.0306655
7 2 19 100 0.0182129
8 2 19 100 0.0151841
9 2 19 100 0.00659389
10 2 19 100 0.00484287
11 2 19 100 0.00519095
12 2 19 100 0.0128887
13 2 19 100 0.00948187
14 2 19 100 0.00657211
15 2 19 100 0.00774822
16 2 19 100 0.00315348
17 2 19 100 0.00951507
18 2 19 100 0.0171905
19 2 19 100 0.0457761
0 3 19 100 0.15084
1 3 19 100 0.0596001
2 3 19 100 0.0952235
3 3 19 100 0.25584
4 3 19 100 0.0989266
5 3 19 100 0.0740751
6 3 19 100 0.0456183
7 3 19 100 0.027855
8 3 19 100 0.0196485
9 3 19 100 0.0192091
10 3 19 100 0.0121695
11 3 19 100 0.00898666
12 3 19 100 0.0153842
13 3 19 100 0.00512137
14 3 19 100 0.00631669
15 3 19 100 0.00961721
16 3 19 100 0.00473509
17 3 19 100 0.00984085
18 3 19 100 0.0225982
19 3 19 100 0.0583936
0 4 19 100 0.190446
1 4 19 100 0.0290523
2 4 19 100 0.0682208
3 4 19 100 0.103427
4 4 19 100 0.20156
5 4 19 100 0.0876726
6 4 19 100 0.0761144
7 4 19 100 0.0430748
8 4 19 100 0.0277024
9 4 19 100 0.011707
10 4 19 100 0.0318434
11 4 19 100 0.00792676
12 4 19 100 0.00505702
13 4 19 100 0.00803996
14 4 19 100 0.0120586
15 4 19 100 0.00658522
16 4 19 100 0.00338945
17 4 19 100 0.0126872
18 4 19 100 0.0271428
19 4 19 100 0.0462921
0 5 19 100 0.22723
1 5 19 100 0.0140743
2 5 19 100 0.0503834
3 5 19 100 0.054346
4 5 19 100 0.126863
5 5 19 100 0.148867
6 5 19 100 0.0743376
7 5 19 100 0.0647342
8 5 19 100 0.0319638
9 5 19 100 0.0245709
10 5 19 100 0.0195006
11 5 19 100 0.022717
12 5 19 100 0.015942
13 5 19 100 0.006032
14 5 19 100 0.00935959
15 5 19 100 0.009554
16 5 19 100 0.0101344
17 5 19 100 0.00961281
18 5 19 100 0.020875
19 5 19 100 0.0589025
0 6 19 100 0.221462
1 6 19 100 0.009549
2 6 19 100 0.0287875
3 6 19 100 0.0526976
4 6 19 100 0.075123
5 6 19 100 0.0970659
6 6 19 100 0.118636
7 6 19 100 0.0842394
8 6 19 100 0.0558834
9 6 19 100 0.03803
10 6 19 100 0.0354797
11 6 19 100 0.0258692
12 6 19 100 0.0157261
13 6 19 100 0.0156424
14 6 19 100 0.0100741
15 6 19 100 0.0107736
16 6 19 100 0.00639983
17 6 19 100 0.014434
18 6 19 100 0.0221075
19 6 19 100 0.0620196
0 7 19 100 0.204585
1 7 19 100 0.00672544
2 7 19 100 0.0265765
3 7 19 100 0.03254
4 7 19 100 0.0545718
5 7 19 100 0.0749946
6 7 19 100 0.100486
7 7 19 100 0.131455
8 7 19 100 0.0763395
9 7 19 100 0.0595353
10 7 19 100 0.0246302
11 7 19 100 0.0342919
12 7 19 100 0.0219626
13 7 19 100 0.0319375
14 7 19 100 0.00824994
15 7 19 100 0.0135471
16 7 19 100 0.0021052
17 7 19 100 0.0146793
18 7 19 100 0.0254932
19 7 19 100 0.0552946
0 8 19 100 0.206457
1 8 19 100 0.0105951
2 8 19 100 0.0217001
3 8 19 100 0.0176576
4 8 19 100 0.0453204
5 8 19 100 0.0723337
6 8 19 100 0.101961
7 8 19 100 0.0956046
8 8 19 100 0.103361
9 8 19 100 0.0708747
10 8 19 100 0.0490902
11 8 19 100 0.0391535
12 8 19 100 0.0209021
13 8 19 100 0.0270155
14 8 19 100 0.0110955
15 8 19 100 0.0121639
